svm_type c_svc
kernel_type rbf
gamma 2
nr_class 2
total_sv 11581
rho -0.630321
label 1 -1
nr_sv 6520 5061
SV
2 1:-0.78415413 2:-0.79886563 3:-0.42145101 4:0.02466861 5:0.19365765 6:0.32120043 
2 1:-0.38723362 2:-0.66195721 3:-0.50563635 4:0.44064759 5:0.53084677 6:0.71623105 
0.03440727003728536 1:-0.16890942 2:-0.10225392 3:-0.33625594 4:1.0203099 5:1.2107422 6:1.5023992 
2 1:0.099983768 2:0.20369146 3:-0.27692751 4:-0.31877339 5:-0.3255992 6:-0.086621804 
1.2441767027706 1:2.07235 2:1.4243583 3:0.054394049 4:-1.1959482 5:-1.065944 6:-1.0924721 
2 1:0.19124125 2:0.17994157 3:-0.10711649 4:-0.52197196 5:-0.36006173 6:-0.69148264 
1.387907232275593 1:-0.18666537 2:-0.016754293 3:-0.060958953 4:-0.22042085 5:0.50621925 6:1.4428903 
2 1:0.47012169 2:0.67066893 3:0.72600586 4:-1.5100903 5:-1.6971601 6:-1.8143008 
2 1:-0.075067454 2:-0.23762054 3:0.061595724 4:-0.88822035 5:-0.57971042 6:-0.13842389 
1.932140480031436 1:0.72925636 2:0.41580529 3:0.33429417 4:0.36518063 5:0.24555135 6:-2.3458124 
2 1:0.358661 2:-0.028263259 3:-0.48325177 4:-0.74773934 5:-0.97670923 6:-0.93849595 
2 1:-0.37045353 2:-0.57279776 3:-0.45950109 4:-0.088729811 5:-0.065890815 6:-0.082967056 
1.746361831834359 1:-0.70965615 2:0.014938191 3:0.46229094 4:0.27134185 5:0.12721132 6:-0.57492795 
0.06830139990218638 1:0.16486273 2:0.31403115 3:0.11029983 4:1.346172 5:1.0032474 6:0.85542928 
0.1376656618820047 1:-0.52050614 2:-0.68313745 3:-0.29954968 4:5.7413902 5:6.0845123 6:5.3251069 
0.1411305140513276 1:1.6220092 2:1.0742614 3:1.334436 4:-0.64732789 5:-0.41563357 6:-0.83306441 
2 1:-0.56774352 2:-0.58669729 3:-0.28340159 4:0.68272788 5:0.50645913 6:0.9323379 
0.7312441649198982 1:0.51373011 2:1.1522857 3:0.62236114 4:-1.1360022 5:-1.1974773 6:-0.94636161 
0.5762901497505548 1:-0.78415413 2:-0.33532216 3:-0.13725958 4:-2.3429985 5:1.4666925 6:0.89952462 
2 1:0.19154621 2:0.044995437 3:-0.065524963 4:-0.041770828 5:-0.23484519 6:-0.26602227 
2 1:-0.027647106 2:-0.25962618 3:-0.22646382 4:-1.1015551 5:-1.2619247 6:-1.1136061 
2 1:-0.08927831 2:-0.1911564 3:-0.22863917 4:0.13355327 5:0.078516002 6:0.15657786 
2 1:-0.18572764 2:-0.21752268 3:-0.4328549 4:-0.48736644 5:-0.72155853 6:-0.75377226 
2 1:-0.78415413 2:-0.68173581 3:-0.7680817 4:0.28044857 5:0.28784992 6:0.26923944 
1.61954981075071 1:1.1563444 2:1.5337635 3:1.2846924 4:-0.20204904 5:-0.41107588 6:-0.43890776 
2 1:-0.78415413 2:-0.79886563 3:-0.087441811 4:-0.074792575 5:0.033498816 6:-0.0092364828 
2 1:2.483733 2:2.9408475 3:2.1973747 4:-0.51793333 5:-0.76041884 6:-0.7032414 
0.3698337745030314 1:4.6158189 2:5.7754171 3:6.1003852 4:-0.83001655 5:0.34853916 6:4.3131389 
2 1:0.25474793 2:0.39049802 3:-0.047112435 4:-1.1485141 5:-1.215868 6:-1.1776436 
2 1:0.13856045 2:0.24309293 3:0.22470993 4:-0.49013805 5:-0.77433179 6:-1.0985898 
2 1:-0.78229795 2:-0.79795426 3:-0.33532047 4:0.64408372 5:0.68021107 6:0.5500989 
2 1:0.064456627 2:0.11242957 3:0.030413217 4:0.41522797 5:0.55899251 6:0.062269461 
2 1:0.080924143 2:0.72424247 3:0.30207225 4:-1.0381248 5:-0.88811413 6:-0.49007423 
2 1:-0.50886452 2:-0.19833588 3:-0.54913595 4:-0.96099489 5:-1.1512608 6:-1.1647725 
1.327302099678384 1:1.5872444 2:1.9867247 3:0.28314001 4:-0.90231596 5:-0.8398186 6:-0.84553822 
2 1:-0.37158186 2:-0.4607917 3:-0.69801089 4:0.6782933 5:0.65110582 6:0.24206719 
2 1:-0.78415413 2:-0.41480255 3:-0.7680817 4:-0.55831964 5:-0.97566976 6:-0.87557072 
2 1:-0.38717263 2:0.0022456236 3:0.15536598 4:-0.94903738 5:-1.0167689 6:-0.8819268 
0.2348250178637864 1:0.68076867 2:-0.071534792 3:0.084685628 4:-0.057291841 5:1.0151613 6:0.54350446 
2 1:-0.26895721 2:-0.16330283 3:-0.27346774 4:-0.39922926 5:-0.16903854 6:-0.60631112 
2 1:-0.78415413 2:-0.79886563 3:-0.55912178 4:-0.15920788 5:-0.22261139 6:0.076173395 
2 1:-0.11959836 2:0.077466606 3:0.14972343 4:-0.16514704 5:0.25514649 6:0.094049881 
2 1:-0.78415413 2:-0.46001301 3:-0.7680817 4:-0.10694324 5:-0.4353036 6:-0.086939609 
0.5232044934351223 1:-0.39360716 2:0.88947945 3:0.083720455 4:-0.069249356 5:0.22772039 6:0.37276416 
2 1:0.7810223 2:1.0344706 3:1.1521668 4:-1.0077163 5:-0.88163741 6:-0.77196655 
2 1:-0.033631828 2:-0.14853896 3:-0.091799938 4:-0.79992479 5:-0.90386614 6:-0.8168564 
2 1:-0.19780382 2:0.12776966 3:0.0024974485 4:0.27245049 5:0.092988668 6:-0.1427937 
0.3377609807893295 1:-0.35733288 2:0.06890107 3:0.22218563 4:0.20133891 5:0.71571308 6:0.48876269 
0.3854125899306803 1:-0.78415413 2:-0.12158867 3:1.1523153 4:0.52632992 5:0.85980006 6:1.7415468 
0.2012881568135245 1:1.4403329 2:0.16351131 3:-0.21236487 4:2.2101222 5:1.4790862 6:2.1808317 
0.1404553937591151 1:0.59843109 2:-0.029734974 3:0.21609762 4:0.015799459 5:0.38683975 6:-0.040460745 
2 1:-0.60116648 2:-0.79886563 3:-0.7680817 4:-0.13901472 5:-0.055176245 6:-0.0050255772 
0.2432516910990462 1:1.5748176 2:0.70025897 3:0.15996911 4:0.99916649 5:1.0756907 6:1.2084303 
2 1:-0.2857373 2:-0.30345837 3:-0.27634841 4:-0.87943039 5:-0.91897849 6:-0.73557797 
0.1215819866098792 1:-0.74300821 2:0.27470755 3:-0.6006836 4:0.49972247 5:0.67389428 6:0.48479014 
2 1:-0.78032032 2:-0.35841796 3:-0.7680817 4:0.51120485 5:0.57714331 6:0.60921048 
2 1:-0.48160164 2:-0.79886563 3:-0.7680817 4:0.078517021 5:-0.062932314 6:-0.19253005 
2 1:-0.54341581 2:-0.67411249 3:-0.70248855 4:-1.1675986 5:-0.87132264 6:-0.73184377 
2 1:-0.29678426 2:-0.20110021 3:0.28930227 4:-0.43518099 5:-0.41523377 6:-0.35222666 
1.28127741235811 1:-0.23694466 2:-0.20576453 3:-0.06012742 4:0.72485634 5:1.0174002 6:0.67618772 
2 1:0.8695352 2:0.61522655 3:0.59310898 4:-0.0085907036 5:0.00031563284 6:0.45825349 
0.2600712187562517 1:-0.78410312 2:-0.22193004 3:-0.76795873 4:0.28044857 5:0.58921719 6:0.413602 
2 1:-0.70503381 2:-0.71613812 3:-0.59188568 4:1.0858783 5:0.96014921 6:1.0956893 
2 1:1.4623658 2:2.7663442 3:3.406662 4:-1.1282417 5:-1.0518711 6:-0.98545152 
2 1:-0.26266753 2:0.23546182 3:0.93002854 4:-1.1208772 5:-1.0222861 6:-0.89289105 
2 1:0.098916429 2:0.44617401 3:0.277052 4:-0.11470375 5:-0.064851342 6:0.38221884 
2 1:0.88013235 2:1.1668471 3:1.1068779 4:-1.137586 5:-0.6740626 6:-0.94191235 
2 1:0.2681659 2:0.21965451 3:0.29969644 4:-0.49314722 5:-0.5803501 6:-0.47728261 
2 1:-0.43627022 2:-0.57731414 3:-0.60991214 4:1.7619134 5:1.5867916 6:1.0899688 
2 1:0.73985351 2:0.61982079 3:0.69801584 4:0.12793086 5:0.15295828 6:0.26653811 
0.3405689524033266 1:2.5899332 2:3.9853758 3:2.785165 4:1.9128473 5:0.84948529 6:-0.30352317 
1.313145480733231 1:0.75860818 2:0.70570976 3:0.93188465 4:1.1832014 5:1.676746 6:1.3270507 
0.6299628223366569 1:-0.38827809 2:-0.43401272 3:-0.31043386 4:2.7050525 5:2.1776122 6:1.6318249 
2 1:-0.78415413 2:-0.79886563 3:-0.59833007 4:0.091028858 5:0.12769108 6:0.13012066 
2 1:-0.2431581 2:-0.37673264 3:-0.47542644 4:-0.83856895 5:-0.9051455 6:-0.88764728 
2 1:-0.18541506 2:-0.093556007 3:-0.072370266 4:-0.45846251 5:0.13576699 6:-0.020836336 
2 1:-0.78415413 2:-0.24914508 3:-0.7680817 4:0.082872408 5:0.33574564 6:0.29108848 
0.0742003158462082 1:0.60514008 2:0.16896211 3:0.047712084 4:0.057215223 5:0.13024978 6:0.03183971 
0.1824089693605037 1:-0.39709126 2:0.32578929 3:0.49102339 4:2.0184852 5:0.49942269 6:1.6287263 
1.456516279008946 1:1.3797995 2:0.94756936 3:0.36139326 4:-1.1470095 5:-0.6036183 6:-1.0495685 
0.1371100890729996 1:2.1163396 2:0.40155535 3:0.25403634 4:0.61549655 5:0.51885285 6:0.090474584 
2 1:-0.45241754 2:-0.69198331 3:-0.30495465 4:-0.76927871 5:-0.86476596 6:-0.54545161 
2 1:-0.25207801 2:0.49850165 3:0.29197506 4:-0.48712887 5:-0.60281871 6:-0.65692143 
2 1:-0.47515186 2:-0.782113 3:-0.30306142 4:0.11826982 5:-0.095315903 6:0.24770821 
2 1:-0.62497576 2:-0.44209547 3:-0.38854604 4:-0.21859951 5:-0.35206579 6:-0.4193628 
2 1:-0.019786917 2:-0.79856768 3:-0.31632884 4:-0.51492415 5:-0.61065474 6:-0.7262822 
0.05699679564181129 1:-0.16495265 2:0.43823142 3:0.70870699 4:0.42560171 5:-0.20342112 6:-1.0614862 
2 1:-0.32333051 2:-0.79886563 3:-0.40954226 4:-0.57186093 5:-0.5791507 6:-0.60178241 
0.5633119926196872 1:1.9033293 2:0.87639754 3:-0.7680817 4:-0.049610523 5:-0.0015234352 6:-0.0018475352 
1.64855210564778 1:-0.34087299 2:-0.028668176 3:1.5787732 4:-1.412688 5:-1.4578254 6:-1.1454659 
2 1:-0.61334177 2:-0.79886563 3:-0.64656644 4:-0.66807537 5:-0.4234696 6:-0.38130575 
0.1586757408734753 1:0.4614305 2:1.7837993 3:1.1736233 4:0.58508804 5:-0.42954652 6:-0.24409378 
2 1:0.63441566 2:0.31839178 3:0.27126096 4:-0.67512318 5:-0.89730947 6:-1.0594204 
2 1:0.13558715 2:0.12442132 3:-0.099677233 4:-0.99282881 5:-0.90122748 6:-0.81788926 
2 1:0.82668916 2:0.10191732 3:-0.31180737 4:-0.5344838 5:-0.56923573 6:-0.57230607 
0.1241988618925029 1:-0.29086815 2:-0.34139591 3:-0.57198827 4:4.8433096 5:3.9387197 6:4.0768515 
2 1:2.1633026 2:3.047761 3:2.5028148 4:-1.1777348 5:-1.0786576 6:-0.84498207 
2 1:-0.47024972 2:-0.45143969 3:-0.07043992 4:0.56220246 5:0.63439429 6:0.56471789 
1.387353042630087 1:0.38252365 2:0.54039491 3:0.47313057 4:1.7936681 5:1.5082714 6:0.55319749 
2 1:-0.6062897 2:-0.58608992 3:-0.16395774 4:-1.312435 5:-1.1399865 6:-1.0432919 
1.542656790395028 1:3.8259118 2:3.4313413 3:2.8779701 4:-0.48918778 5:-0.25843324 6:-0.089561493 
0.9985500056758305 1:-0.0015659149 2:-0.012393657 3:-0.050639028 4:1.25265 5:1.1797979 6:0.78757809 
2 1:-0.43935788 2:-0.58151125 3:-0.6088653 4:0.13965081 5:0.17798559 6:0.39365979 
0.8980063797886041 1:-0.474237 2:0.50963685 3:0.9050083 4:0.14416457 5:0.20637121 6:0.11597837 
2 1:0.23934775 2:0.35810472 3:0.21490972 4:-0.66886726 5:-0.60137944 6:-0.77164875 
2 1:0.22097427 2:-0.075731904 3:-0.19225958 4:0.59546178 5:0.5230907 6:0.65020722 
2 1:0.5174658 2:0.72400886 3:1.1914419 4:-0.72445783 5:-0.48064063 6:-0.30423823 
2 1:-0.036673745 2:-0.23346236 3:-0.17833139 4:-0.55831964 5:-0.32096155 6:-0.404426 
2 1:0.16051714 2:1.0509787 3:0.87850316 4:-0.7863835 5:-1.0642649 6:-0.85324498 
0.206725868793712 1:0.70051444 2:0.76847178 3:0.43118268 4:5.7667307 5:5.6271441 6:5.0058726 
2 1:-0.62273435 2:-0.79886563 3:-0.69489115 4:0.069172738 5:-0.028229901 6:0.11224417 
2 1:-0.26629649 2:-0.52716682 3:-0.57561881 4:-0.42726211 5:-0.21477536 6:-0.22899808 
2 1:-0.52877802 2:-0.4036985 3:-0.34437082 4:1.1310951 5:0.8200602 6:0.61358029 
2 1:-0.78164298 2:-0.49664236 3:-0.7680817 4:0.7144826 5:0.3754855 6:0.20273892 
2 1:0.0011024326 2:0.081126426 3:-0.0011405107 4:0.89257831 5:0.84076971 6:1.2897882 
2 1:-0.29377284 2:0.21023242 3:-0.0015859751 4:0.10195692 5:0.073158717 6:0.021034367 
1.048778850795307 1:-0.2350387 2:-0.3275431 3:-0.32073893 4:1.2132139 5:1.3083727 6:1.0524679 
0.369806924865172 1:2.9492453 2:3.7673439 3:1.8066282 4:4.2881166 5:0.47135692 6:0.05233808 
2 1:-0.48279096 2:-0.73118154 3:-0.69058574 4:0.51057134 5:0.1578358 6:0.20170605 
0.06187414243835192 1:0.95118663 2:0.57333329 3:-0.74635862 4:0.19270733 5:0.11537732 6:0.21910583 
1.083796669809473 1:1.4288971 2:0.75406611 3:0.30318591 4:0.90944553 5:0.79503288 6:1.1078453 
1.828939364573466 1:2.6964384 2:1.958692 3:1.4786922 4:-1.2530433 5:-1.1553387 6:-1.1513453 
0.05683416965383794 1:-0.49777945 2:-0.42958978 3:-0.34317549 4:5.0790548 5:6.1180953 6:5.8177829 
0.1463134453457157 1:2.7671115 2:3.1109902 3:0.16442375 4:-0.33136442 5:-0.98134688 6:-0.92483037 
2 1:-0.78415413 2:-0.79886563 3:-0.460689 4:1.4404067 5:1.0372301 6:1.205729 
2 1:0.60620741 2:0.46237066 3:0.31335735 4:-0.2974716 5:-0.097154971 6:-0.052537304 
2 1:-0.41836942 2:-0.36209336 3:-0.38842725 4:0.49275385 5:0.47647432 6:0.18239945 
1.129586206759526 1:0.92724774 2:0.88745487 3:0.23109492 4:-0.45537414 5:-0.14249199 6:-0.81200988 
2 1:-0.78415413 2:-0.55849332 3:-0.7680817 4:-0.59300435 5:-0.52925599 6:-0.54402149 
2 1:0.22760702 2:0.052470814 3:-0.19580845 4:-0.054520231 5:-0.029109455 6:0.46389451 
2 1:-0.009342242 2:0.18142107 3:0.28091269 4:-0.94650334 5:-0.85077305 6:-0.65326669 
0.36781429170391 1:8.2855591 2:1.1401382 3:-0.22189039 4:-1.1473262 5:-0.65495229 6:-0.8398972 
0.4135344457230564 1:0.062931857 2:-0.79706258 3:0.015267428 4:2.3968495 5:2.8052142 6:2.4871155 
2 1:-0.34617156 2:-0.67685346 3:-0.28192414 4:-0.31853583 5:-0.42850705 6:0.0057797655 
2 1:-0.19580637 2:-0.086882675 3:-0.0074512561 4:-0.64194305 5:-0.34199089 6:0.042565601 
2 1:0.75677845 2:0.44212485 3:0.46429553 4:-0.10955648 5:-0.2792227 6:-0.062468686 
0.01728955831136606 1:1.9350445 2:1.4880547 3:0.40490028 4:0.29604877 5:-0.22149196 6:-0.039189528 
2 1:-0.66263758 2:0.1264459 3:-0.040155766 4:-0.69476201 5:-0.65327314 6:-0.55522409 
0.09793352861899343 1:0.17347768 2:-0.50022431 3:-0.19739727 4:3.7212037 5:4.390011 6:3.280752 
2 1:-0.14180664 2:-0.20078873 3:-0.15683031 4:0.10623312 5:-0.22429054 6:-0.21620647 
2 1:0.1717242 2:0.033860239 3:0.30377986 4:0.22319503 5:0.24795014 6:0.186372 
2 1:-0.27885297 2:-0.79886563 3:-0.7680817 4:-0.4499893 5:-0.56835617 6:-0.57596082 
2 1:0.10798881 2:0.31044919 3:0.46370158 4:-0.1348969 5:0.083793328 6:-0.17926173 
2 1:-0.2804311 2:-0.45449213 3:-0.22212797 4:-0.23221999 5:0.12025485 6:0.54088258 
0.06658174994847119 1:0.93494783 2:0.0045816789 3:1.6147816 4:0.32226027 5:0.43129722 6:0.44792485 
0.9171805578826069 1:-0.54419345 2:-0.57639529 3:-0.20228995 4:0.870643 5:0.60408965 6:-0.089799846 
0.6086878199409608 1:1.013626 2:0.83388133 3:0.084685628 4:1.4033463 5:0.9090551 6:0.97555927 
2 1:-0.78415413 2:-0.79886563 3:-0.64720493 4:0.20577349 5:0.11209898 6:0.12416183 
2 1:-0.78415413 2:-0.79886563 3:-0.37675608 4:-1.191672 5:-1.200196 6:-1.1597671 
0.5921744511121877 1:1.230372 2:-0.32068288 3:-0.45387339 4:-1.3197995 5:-1.4117687 6:-1.4369718 
1.083200492716346 1:0.26847086 2:0.45567397 3:0.37943456 4:0.84063043 5:0.67797221 6:-0.13683487 
0.08153855403421789 1:0.48506444 2:2.0071262 3:3.0264582 4:-0.21281872 5:-0.071567938 6:-0.29247947 
1.840673045928236 1:-0.78102347 2:0.43239128 3:-0.76800122 4:-0.037732197 5:-0.21165694 6:-0.18545891 
2 1:0.0049143577 2:-0.43901966 3:-0.27307425 4:-0.23245756 5:0.15999471 6:0.4744615 
2 1:-0.71780528 2:-0.70368695 3:-0.7680817 4:-0.18098481 5:-0.12586042 6:0.018730286 
2 1:-0.64770246 2:-0.29525881 3:-0.2445274 4:-0.88489442 5:-0.65567192 6:-0.27706597 
2 1:-0.31502051 2:-0.24152954 3:0.00027012656 4:-0.048185124 5:-0.046860459 6:-0.10815304 
2 1:0.16059338 2:-0.32568204 3:-0.27884301 4:-0.25890663 5:-0.14856892 6:-0.20786411 
2 1:0.052868375 2:-0.085815877 3:-0.084835844 4:0.17401876 5:0.084193125 6:0.040023168 
1.678660725637097 1:0.30651387 2:0.10643369 3:0.18862732 4:0.84055124 5:-0.90442586 6:-0.9991171 
2 1:0.47187518 2:-0.071098728 3:-0.30626877 4:-0.011045558 5:0.49990245 6:0.17064069 
2 1:-0.41138598 2:-0.58624566 3:-0.41930535 4:0.65097315 5:0.54627895 6:0.4437934 
0.6484935716171765 1:1.756189 2:2.5394354 3:0.57202367 4:-1.6017356 5:-1.7331259 6:-1.6053048 
2 1:-0.29090627 2:-0.1087793 3:0.15959789 4:-0.10029138 5:-0.46089064 6:0.094367685 
2 1:0.2558915 2:0.2236258 3:0.71316163 4:-0.78733377 5:-0.59242398 6:-0.90981412 
2 1:0.035943428 2:-0.43650451 3:-0.60989729 4:-0.20846334 5:-0.19006788 6:-0.069937084 
0.05570461591736216 1:2.7786235 2:0.97980692 3:-0.36910894 4:0.11494389 5:0.073078758 6:0.18208164 
2 1:-0.015212607 2:0.16164247 3:-0.046184385 4:-1.209727 5:-1.1527 6:-1.1517426 
2 1:0.35347678 2:0.11180662 3:0.12982602 4:-0.47620081 5:-0.4824797 6:-0.46536495 
2 1:0.14946256 2:-0.20274323 3:-0.17117427 4:0.079388099 5:-0.21965289 6:-0.19364237 
0.5124597055718001 1:0.84864585 2:0.55651369 3:3.5283481 4:-0.15247683 5:-0.5373319 6:-0.89146093 
0.5003480679158244 1:0.9659769 2:0.19458085 3:-0.10041225 4:0.69397269 5:0.6555036 6:1.1960359 
1.080144534694045 1:0.33983009 2:0.28864601 3:0.24854228 4:-0.54137323 5:0.39371626 6:0.44339614 
2 1:-0.78415413 2:-0.70867053 3:-0.7680817 4:-0.66443268 5:-0.68829539 6:-0.72000557 
0.1570098121634176 1:0.4220152 2:0.07988053 3:-0.28946733 4:1.3565457 5:1.5371368 6:-2.3458124 
2 1:-0.78415413 2:0.1981628 3:0.73610305 4:-1.1071775 5:-0.30217107 6:-1.000865 
0.4245053402806376 1:2.3087656 2:1.17697 3:1.130339 4:-2.3429985 5:0.27457664 6:-0.0091570317 
2 1:0.3020158 2:-0.19136664 3:0.018385678 4:-0.4613925 5:-0.84709492 6:-0.92983579 
0.4925191382699375 1:3.4168922 2:1.3744445 3:0.19144859 4:-1.3056247 5:-1.3147779 6:-1.1867805 
0.279017871140455 1:0.67970133 2:1.3187686 3:1.8845102 4:0.45189241 5:0.925047 6:1.4382027 
0.04394596601590073 1:1.0700425 2:2.8836142 3:0.40928068 4:0.25502895 5:0.0039937688 6:-0.14470052 
2 1:-0.27038287 2:-0.66274368 3:-0.57587124 4:-0.4017633 5:-0.47256472 6:-0.34253363 
2 1:-0.3900392 2:-0.79886563 3:-0.7680817 4:0.66134689 5:0.63479409 6:0.52515127 
2 1:-0.53552513 2:-0.79781892 3:-0.7680817 4:1.3089532 5:1.408562 6:1.4677585 
0.1832062758610166 1:-0.71107647 2:1.8123771 3:0.25307117 4:0.96598636 5:0.33230739 6:0.21727846 
2 1:-0.58031525 2:-0.64097943 3:-0.1257369 4:-1.2105189 5:-1.3172566 6:-1.2259498 
0.1281741095051535 1:-0.61631507 2:-0.4862547 3:-0.62121951 4:4.6545234 5:5.1658578 6:5.2903868 
2 1:-0.78415413 2:-0.79886563 3:-0.6798946 4:-0.18351885 5:-0.21541504 6:-0.17211113 
0.2491942376477193 1:3.2351396 2:1.9009914 3:3.0672924 4:-0.69183202 5:0.001674944 6:0.44212493 
0.2788971862336158 1:0.10280459 2:0.50231721 3:0.099460197 4:-2.3429985 5:0.95375245 6:-2.3458124 
2 1:-0.46380757 2:-0.44224342 3:-0.44027188 4:-1.7503968 5:-1.8823143 6:-1.7236392 
2 1:0.77926881 2:0.17207685 3:0.25641215 4:-1.1444754 5:-1.2445735 6:-1.0962063 
2 1:-0.28277925 2:-0.41843901 3:-0.18944573 4:0.28654611 5:0.070440095 6:-0.11435022 
2 1:0.44115106 2:0.46057969 3:-0.030429794 4:-0.18241021 5:-0.80295728 6:-0.36342926 
2 1:-0.15320429 2:-0.22045832 3:-0.093091784 4:0.2596219 5:0.02374376 6:0.14084655 
2 1:-0.78415413 2:-0.48885551 3:-0.767961 4:-0.90991809 5:-0.87452102 6:-0.9609806 
0.3089170675242398 1:0.74084461 2:0.75679151 3:2.6585789 4:1.6564339 5:1.2272938 6:2.1987876 
0.4906996208942285 1:2.6626647 2:2.1342076 3:4.0478338 4:-0.23776321 5:-0.8027174 6:-0.69180044 
2 1:-0.27376786 2:0.18523663 3:0.30214649 4:-1.08057 5:-1.0137305 6:-0.57667587 
2 1:-0.41898696 2:-0.27686627 3:-0.26833747 4:-0.78472053 5:-1.1604561 6:-0.72516989 
1.727252130679689 1:0.4604394 2:0.79105365 3:0.61025936 4:2.009141 5:1.7942065 6:1.8511098 
2 1:-0.78415413 2:-0.4751195 3:-0.7680817 4:0.9358946 5:0.73314425 6:0.92192981 
2 1:-0.77780941 2:-0.46347037 3:-0.7680817 4:2.141228 5:2.1138046 6:1.7264511 
0.1891320912707286 1:1.1100677 2:0.46143624 3:-0.4634583 4:0.93787432 5:0.69964123 6:0.45150015 
2 1:0.17896686 2:0.7592833 3:0.34246102 4:-0.31560584 5:-0.45665278 6:-0.40124796 
2 1:-0.78415413 2:-0.57709611 3:-0.76423608 4:1.7931138 5:1.3617057 6:1.5573793 
0.3695784325254692 1:5.667834 2:7.8420474 3:4.6515865 4:-0.66419512 5:-0.14968835 6:0.0049058039 
2 1:-0.21477451 2:-0.56358592 3:-0.61063231 4:0.84664878 5:1.1273445 6:1.4087264 
2 1:-0.7803018 2:-0.59986486 3:-0.76405462 4:0.37737571 5:0.30560092 6:0.46754926 
0.3308155954483443 1:0.68671527 2:2.8680405 3:3.7213826 4:0.46076156 5:1.6189353 6:-0.48586333 
0.3696877863593589 1:6.2688221 2:3.6691517 3:1.324413 4:4.2939766 5:4.6569158 6:4.4158691 
0.257831821431902 1:0.2115207 2:1.9605608 3:0.9894238 4:1.0936388 5:0.13256861 6:-0.37804825 
1.955734742742582 1:0.39769511 2:0.065786329 3:0.57046454 4:-0.5287822 5:-1.2368174 6:-0.92387696 
0.7872070557728773 1:-0.073474069 2:0.597784 3:0.064788219 4:0.18288791 5:-0.19222679 6:-0.093613497 
0.02981222336800147 1:-0.11658694 2:-0.43845901 3:-0.49737299 4:4.5984577 5:3.2296391 6:3.3562305 
2 1:0.89842959 2:1.0090855 3:0.98608281 4:0.13220706 5:-0.078444453 6:-0.032038934 
2 1:-0.77905758 2:-0.79808445 3:-0.48394224 4:-0.45252335 5:-0.48551816 6:-0.54688173 
1.229724950744044 1:1.1441463 2:1.4306656 3:1.387075 4:1.0120743 5:0.32703006 6:0.9174011 
0.352988143981295 1:3.1276434 2:4.2932678 3:1.4815135 4:0.54691902 5:1.2733505 6:0.15896139 
2 1:-0.39001633 2:-0.32038698 3:-0.31074568 4:-0.51619117 5:-0.66342799 6:-0.86897628 
2 1:-0.25868788 2:-0.31214849 3:-0.3596948 4:-0.52759437 5:-0.69701097 6:-0.53766541 
2 1:0.20404932 2:-0.080956882 3:2.2410302 4:0.24988167 5:0.34574058 6:0.62470344 
0.4773921483375482 1:3.3562064 2:3.8943475 3:3.3278148 4:-0.69080257 5:-0.47600298 6:-0.062150881 
0.3697938039630357 1:5.7309595 2:5.3126445 3:6.1913342 4:0.23040122 5:-0.13313674 6:2.3630924 
0.7430286007714776 1:0.78391936 2:0.47218209 3:-0.026071667 4:-0.72216135 5:-0.8039168 6:-0.18386989 
2 1:-0.60375096 2:-0.56779861 3:-0.42735341 4:0.46963071 5:0.3640513 6:0.29188299 
2 1:-0.48738814 2:-0.79886563 3:-0.7680817 4:1.1442404 5:0.71947118 6:0.9623704 
2 1:-0.45113673 2:-0.79631582 3:-0.2169977 4:0.30206712 5:0.053728564 6:0.31691007 
2 1:-0.48621407 2:-0.79886563 3:-0.4793391 4:0.23507336 5:0.44401078 6:0.25152186 
0.5811244161732849 1:0.34996981 2:1.4378295 3:1.8242983 4:0.45909859 5:-0.20494035 6:0.39048174 
2 1:-0.14308744 2:-0.79886563 3:-0.025269832 4:-1.1473262 5:-1.1604561 6:-1.2740972 
2 1:-0.33931772 2:-0.28338387 3:-0.2830675 4:-0.35646728 5:0.082913774 6:-0.093613497 
0.3654783706357481 1:0.84369035 2:1.243859 3:1.2520993 4:3.1845409 5:1.5971864 6:2.7351617 
2 1:-0.12129086 2:-0.47724531 3:-0.32371612 4:-0.42678697 5:-0.5858673 6:-0.38424543 
2 1:0.36910568 2:0.10261814 3:0.054913758 4:-0.073208798 5:-0.12546063 6:-0.16543725 
0.1424505261794532 1:0.63372951 2:0.65431654 3:0.53861384 4:0.55420439 5:0.077156691 6:-0.060879665 
2 1:-0.78415413 2:-0.65420929 3:-0.7680817 4:-0.57447416 5:-0.50686734 6:-0.71436454 
2 1:-0.016356184 2:-0.24391232 3:-0.21874986 4:-0.38640066 5:-0.68589661 6:-0.78738006 
2 1:-0.063486825 2:0.44640762 3:0.1481643 4:-0.46075899 5:-0.14609017 6:-0.15367849 
2 1:0.4707316 2:-0.68043541 3:0.072361113 4:-1.3167112 5:-1.3967364 6:-1.3267732 
2 1:0.1398565 2:-0.1433062 3:-0.25504779 4:0.62848352 5:0.93112392 6:0.61572547 
2 1:-0.56525814 2:-0.7728116 3:-0.11047232 4:0.25106951 5:0.24986916 6:0.27861467 
2 1:0.28112645 2:0.041491354 3:0.024919156 4:-0.039711918 5:-0.62376809 6:-0.97949269 
0.3622668708767891 1:1.9711815 2:3.732381 3:4.5905579 4:-0.1398858 5:1.8520972 6:0.014678283 
1.411378914522543 1:0.26587875 2:0.41689545 3:0.78131768 4:0.54493929 5:0.65830218 6:0.68548349 
0.1952838421567395 1:-0.38143949 2:-0.52736149 3:-0.50292644 4:5.1514334 5:6.8673156 6:6.0767933 
1.435561509274708 1:-0.24719874 2:2.0906791 3:2.1823032 4:-0.60448673 5:-1.1183974 6:-0.50032342 
2 1:0.42529345 2:0.42935441 3:-0.039962732 4:-1.0739182 5:-0.9173793 6:-0.83234935 
0.0286155120353697 1:0.14412586 2:0.94141775 3:0.90196429 4:0.0096227298 5:-0.053017339 6:0.56821374 
2 1:-0.78265513 2:-0.529425 3:-0.7680817 4:-0.2960462 5:-0.30137148 6:-0.32640507 
2 1:-0.13286386 2:-0.038759935 3:-0.025566808 4:0.22786718 5:0.58497934 6:0.1445013 
2 1:-0.40414332 2:-0.6200951 3:-0.35627957 4:-0.80325072 5:-0.87652 6:-0.7905581 
2 1:-0.48624456 2:-0.4959649 3:-0.36647328 4:-0.8147331 5:-0.85173256 6:-1.1778025 
2 1:-0.20195119 2:-0.58017191 3:-0.64711584 4:-0.162613 5:0.094747776 6:-0.3323639 
0.4097585754995847 1:0.097086705 2:-0.10107811 3:-0.2176362 4:0.59799582 5:0.52652896 6:1.9169747 
0.2667971074982026 1:5.7483418 2:1.2059371 3:0.62065353 4:1.7227149 5:1.830828 6:1.2351258 
2 1:-0.19059928 2:-0.79886563 3:-0.36505522 4:-0.60979238 5:-0.71436218 6:-0.49952891 
2 1:0.14191494 2:-0.053274626 3:-0.12500188 4:0.98285358 5:0.55779311 6:0.56726033 
2 1:0.33769541 2:0.065396987 3:-0.42385652 4:-0.62650123 5:-0.33847268 6:-0.66566105 
2 1:0.066438828 2:-0.32143042 3:-0.449738 4:1.4029504 5:0.99533138 6:1.1340641 
2 1:-0.12596428 2:0.56500136 3:0.58806038 4:0.18771843 5:0.85780108 6:0.26971615 
0.3057805962616066 1:3.8734084 2:1.2092854 3:1.1147478 4:1.069407 5:1.5895902 6:1.3204563 
2 1:-0.44760689 2:-0.52927705 3:-0.48019291 4:-0.11937589 5:-0.30944738 6:-0.4310421 
2 1:-0.31884006 2:-0.79886563 3:-0.76581851 4:0.55317493 5:0.63199551 6:0.84764308 
2 1:-0.78415413 2:-0.65284659 3:-0.7680817 4:-0.72255729 5:-0.42354956 6:-0.5707965 
0.1223438898945825 1:0.17713713 2:0.50831308 3:0.69578852 4:0.042169343 5:1.4406257 6:0.55438926 
1.231190949106782 1:0.47744059 2:-0.24056397 3:-0.45221032 4:-0.92781477 5:0.52772835 6:1.0087698 
0.2429566021092217 1:-0.78415413 2:2.208572 3:-0.76292403 4:1.2732391 5:1.6278108 6:1.5061334 
2 1:0.067811121 2:-0.23424883 3:-0.40750055 4:-0.14289498 5:-0.58442803 6:-0.4305654 
2 1:-0.78415413 2:-0.79886563 3:-0.55339013 4:0.11248903 5:0.067721473 6:0.21799352 
1.291602274571786 1:0.91863279 2:0.72657852 3:1.248981 4:-0.43090479 5:0.74841651 6:0.8831577 
2 1:0.14488825 2:0.06524125 3:0.34669293 4:-0.35385405 5:-0.24084215 6:-0.44375427 
0.333127026244685 1:0.9590392 2:0.96462256 3:0.78250559 4:0.1155774 5:0.078196164 6:0.46055757 
2 1:-0.57417805 2:-0.79886563 3:-0.7680817 4:-0.35219108 5:-0.33479454 6:-0.33689261 
2 1:0.2549004 2:0.12146232 3:-0.027883223 4:-0.23459566 5:-0.15856385 6:-0.43040649 
0.318257512705262 1:1.8359344 2:3.1853547 3:2.3225502 4:-0.033218433 5:2.1087671 6:2.036628 
2 1:-0.36506346 2:-0.46952854 3:-0.48360814 4:2.2744236 5:2.0095374 6:1.4488492 
2 1:-0.37796302 2:-0.79844719 3:-0.41231899 4:0.42750224 5:0.65918173 6:0.90095473 
0.8279304544228925 1:1.5469143 2:1.9127496 3:1.3835855 4:-0.4918802 5:-0.25915287 6:0.11113186 
2 1:-0.64958555 2:-0.7736448 3:-0.58470628 4:-0.3897266 5:0.051729577 6:0.25692453 
0.04609259515087215 1:-0.021387925 2:1.3207153 3:0.98957228 4:0.41562392 5:0.8415693 6:0.53746619 
0.9246393371082345 1:0.0024747256 2:1.7003243 3:1.0479281 4:0.43645058 5:0.43641463 6:0.36728204 
0.3684531186057748 1:-0.18014698 2:0.56017351 3:-0.10756938 4:2.075818 5:-0.92833374 6:-2.3458124 
0.6247486410294717 1:0.96483332 2:0.049667547 3:0.2313919 4:0.55301656 5:0.45784377 6:0.80029026 
2 1:-0.13069869 2:-0.24760328 3:-0.15559044 4:0.020392412 5:0.074118231 6:0.28655977 
2 1:-0.78293629 2:-0.38198098 3:-0.76183183 4:0.61953518 5:0.50589941 6:0.56765758 
2 1:-0.33689334 2:-0.39465797 3:-0.57438636 4:0.19104436 5:0.14991982 6:0.33280028 
0.06049208514607897 1:-0.63777621 2:-0.7019349 3:-0.74663184 4:6.1650505 5:6.9336819 6:6.2921057 
2 1:-0.30463683 2:-0.27495849 3:-0.63937961 4:-0.82447333 5:-0.46448881 6:-0.63006698 
2 1:-0.34531769 2:-0.63130038 3:-0.37017806 4:0.39455969 5:0.41690451 6:0.31357313 
2 1:-0.54965975 2:-0.58093502 3:-0.28484193 4:-0.38426257 5:-0.84149775 6:-0.741219 
2 1:-0.28600414 2:-0.79541473 3:-0.76705059 4:-0.25890663 5:-0.3660587 6:-0.37709484 
2 1:-0.52900674 2:-0.55396137 3:-0.69789136 4:-0.41031569 5:-0.5580414 6:-0.48157297 
0.5271790296596852 1:3.2245425 2:-0.67137151 3:0.63275531 4:-0.72524971 5:-0.50678738 6:-0.7034003 
0.1631837978095028 1:1.2037648 2:1.7688486 3:2.7649706 4:0.94389268 5:1.0489042 6:1.2027098 
2 1:-0.78415413 2:-0.79886563 3:-0.38346774 4:-0.72168622 5:-0.74602613 6:-0.57429234 
2 1:-0.45679363 2:-0.35123849 3:-0.33608518 4:0.27498454 5:0.34765961 6:0.35163018 
0.2389523933160413 1:-0.34230627 2:-0.16945445 3:-0.12048784 4:2.9434109 5:5.3058669 6:4.7719687 
2 1:-0.78415413 2:-0.47407606 3:-0.76194631 4:0.13236543 5:0.24619103 6:0.056628437 
2 1:-0.17763873 2:-0.05474634 3:-0.18740402 4:-1.2436991 5:-1.0256444 6:-0.48618113 
0.2235884785703793 1:0.09228368 2:0.23717492 3:-0.26220491 4:4.1480316 5:5.2632485 6:5.2350095 
2 1:0.074367632 2:-0.0057748332 3:0.33488812 4:-0.28020843 5:-0.6099351 6:-0.32974201 
2 1:0.32679331 2:0.36667026 3:0.2401527 4:-0.46368897 5:-0.81974877 6:-0.47370732 
0.07061758662467989 1:-0.086274513 2:0.18297844 3:0.47825341 4:1.1781333 5:0.033178978 6:1.4457506 
2 1:-0.63618282 2:-0.48914362 3:-0.22601836 4:-0.95117548 5:-0.96191673 6:-1.2080734 
2 1:-0.61596437 2:-0.61879469 3:-0.68501744 4:1.1175538 5:1.3114912 6:1.2093837 
0.07316267751891189 1:0.69380545 2:0.64364856 3:0.38923478 4:3.6348879 5:3.835492 6:3.2551688 
2 1:-0.14095277 2:-0.405653 3:-0.32228321 4:0.50186057 5:0.51781337 6:0.34821379 
2 1:-0.57371299 2:-0.3989018 3:-0.074426827 4:-0.25676853 5:0.17334794 6:0.038751951 
2 1:0.17728961 2:-0.35524872 3:-0.15514497 4:0.021184301 5:-0.04062362 6:-0.26133466 
2 1:-0.52924308 2:-0.41270789 3:-0.55668657 4:-0.46289708 5:-0.59570232 6:-0.51311504 
2 1:-0.0097234345 2:-0.19863178 3:0.020464512 4:0.098947742 5:0.16343297 6:0.066083112 
2 1:-0.2176182 2:-0.13664065 3:-0.37742428 4:-0.50668851 5:-0.70476704 6:-0.7827719 
1.769776830406971 1:-0.31778035 2:-0.12190793 3:1.9678121 4:0.34870935 5:0.23747544 6:-0.13524585 
2 1:0.25116472 2:-0.39122397 3:0.067832225 4:-0.28923596 5:-0.59018511 6:-0.83306441 
2 1:-0.78195 2:-0.56242568 3:-0.7680817 4:-0.90009867 5:-1.0090129 6:-0.9913309 
2 1:1.2682626 2:0.88177047 3:0.26740027 4:-0.7317432 5:-0.79176296 6:-0.42238194 
2 1:-0.4023136 2:-0.79886563 3:-0.20827403 4:-0.81552499 5:-0.62912538 6:-0.66732952 
2 1:0.49756755 2:-0.24717501 3:-0.7680817 4:-0.801271 5:-0.48959609 6:-0.20714905 
2 1:-0.78415413 2:-0.79886563 3:-0.69564622 4:-0.37198829 5:-0.54932582 6:-0.49476184 
2 1:-0.78415413 2:-0.57525841 3:-0.57287178 4:-0.46535194 5:-0.53773169 6:-0.69537574 
2 1:-0.37807738 2:-0.79886563 3:-0.41079698 4:0.16190287 5:0.21516675 6:0.19105961 
1.261157641049324 1:-0.78415413 2:-0.32129804 3:-0.76745153 4:0.34680881 5:0.32639038 6:0.13909863 
0.8248052117360298 1:-0.054826132 2:-0.3178874 3:0.12863811 4:0.77735854 5:0.9145723 6:1.1477297 
1.039791335654243 1:1.4810442 2:1.187015 3:1.2143833 4:-0.5848479 5:0.48191157 6:-0.47029092 
0.4244587671590667 1:1.5180961 2:0.8102093 3:-0.10055331 4:0.43581707 5:1.0637767 6:1.493024 
0.3616211593180188 1:-0.78415413 2:-0.79886563 3:0.77641758 4:3.3632701 5:3.4787128 6:3.9591845 
2 1:-0.78415413 2:-0.64732572 3:-0.76708861 4:0.1006899 5:0.30408169 6:0.32533188 
2 1:-0.46144418 2:-0.78543175 3:-0.7680817 4:1.4716071 5:1.5078716 6:1.4693475 
0.2586526943064211 1:1.0161418 2:-0.78151419 3:3.2092471 4:0.16245719 5:0.25930438 6:0.20647312 
2 1:0.067277451 2:-0.078550745 3:0.24445885 4:-0.50977688 5:-0.8068753 6:-0.78015001 
0.3016568366037084 1:-0.16657653 2:-0.061793441 3:-0.71368307 4:0.31362869 5:2.7888225 6:2.8378124 
2 1:-0.25836006 2:0.26668709 3:0.93856661 4:-0.43407235 5:-0.47064569 6:-0.63205326 
2 1:0.25955095 2:0.11095007 3:0.19063191 4:-0.90461244 5:-1.038358 6:-0.91299216 
1.708494282493174 1:1.4421626 2:1.4308992 3:2.0479957 4:-1.5736394 5:-1.614578 6:-1.488615 
2 1:-0.39667195 2:-0.49035058 3:-0.56914473 4:1.0980733 5:1.1187089 6:1.1839594 
0.5261834996525353 1:2.1461489 2:1.2120887 3:0.57076152 4:0.45680211 5:0.92528687 6:0.74316495 
0.3454363519888894 1:-0.78220966 2:4.0140314 3:-0.7680817 4:0.74045654 5:0.52540952 6:0.2430206 
2 1:-0.70185467 2:-0.79886563 3:-0.68538123 4:-0.61731532 5:-0.69245328 6:-0.57055814 
2 1:0.33632312 2:0.79510281 3:1.6783345 4:-0.71455922 5:-0.75602107 6:-1.0417029 
2 1:-0.2262789 2:-0.19793875 3:-0.089238517 4:-0.65192085 5:-0.65759095 6:-0.32553111 
0.846773083804972 1:-0.32319328 2:-0.79744943 3:-0.7663726 4:0.40350802 5:0.75753189 6:0.75675108 
2 1:-0.46079615 2:-0.79886563 3:-0.7680817 4:-0.96709243 5:-0.8279846 6:-0.89304995 
2 1:-0.56260504 2:-0.34692457 3:-0.5047677 4:0.69634836 5:0.84884561 6:0.70113535 
2 1:0.0029321566 2:-0.55623513 3:-0.15576862 4:0.016037026 5:0.027661774 6:0.13941643 
2 1:0.36758091 2:-0.012938736 3:0.7297923 4:-0.93882202 5:-1.0555493 6:-1.0376509 
2 1:-0.46954833 2:-0.79886563 3:-0.7680817 4:-1.0107255 5:-1.0933701 6:-0.97258045 
2 1:-0.18318127 2:-0.03785666 3:0.32805767 4:-0.97904995 5:-1.1519004 6:-0.73589578 
1.194997502232447 1:-0.78415413 2:-0.61596028 3:-0.33284072 4:0.65311125 5:1.5047532 6:2.1832152 
0.3717268762359593 1:-0.13420566 2:0.64411577 3:0.19590324 4:4.0176867 5:1.4187968 6:0.11510441 
2 1:-0.68883313 2:-0.64527778 3:-0.54846775 4:0.50922513 5:0.53052693 6:0.92701468 
2 1:0.38854649 2:0.19084316 3:0.26858818 4:-0.29541269 5:-0.38556881 6:-0.39703705 
1.039248545025205 1:0.32976661 2:0.59404632 3:0.36065082 4:0.15152913 5:0.74417866 6:0.30380065 
0.7427289701399833 1:0.48742783 2:0.32641224 3:0.59221805 4:0.57122999 5:0.39131748 6:0.46611914 
1.206707111636636 1:1.2227482 2:1.6479966 3:0.51671184 4:-0.90445406 5:-1.3327688 6:-0.96320523 
2 1:-0.78415413 2:-0.68965504 3:-0.7680817 4:-0.579859 5:-0.60769624 6:-0.56642669 
2 1:0.25558655 2:0.35358835 3:0.082681038 4:-0.78250325 5:-0.68261827 6:-0.58152239 
2 1:0.20000868 2:0.66023455 3:0.80953043 4:-0.18597371 5:-0.69797049 6:-0.38607281 
0.2915026941958362 1:-0.36470514 2:-0.29702643 3:-0.38311137 4:-0.012550146 5:1.7285598 6:2.6302863 
2 1:-0.6661293 2:-0.79886563 3:-0.6482295 4:-0.76381468 5:-0.81215262 6:-0.68035949 
2 1:0.078408273 2:0.25165847 3:-0.26315524 4:-0.21661979 5:-0.38037144 6:-0.23003095 
0.1811772267969474 1:0.14389714 2:0.54327605 3:0.39443186 4:4.4462567 5:4.6671506 6:4.4448688 
1.385705739047541 1:-0.092846272 2:-0.79886563 3:-0.02140914 4:-0.51294443 5:-0.46720744 6:1.0663718 
1.196835303554442 1:-0.78415413 2:0.45801002 3:-0.73194191 4:0.501623 5:0.46967777 6:0.82944879 
2 1:-0.422837 2:-0.5435815 3:-0.59863447 4:0.75281 5:0.53756337 6:0.32684145 
0.3349244017272007 1:0.10417689 2:1.2560844 3:2.9511005 4:0.39598508 5:0.43337617 6:0.23007008 
0.5615760950934692 1:1.7868368 2:3.529222 3:2.3141606 4:-0.90271191 5:-1.1998761 6:-0.019803472 
2 1:-0.27576531 2:-0.034360364 3:0.073623262 4:-0.30277725 5:-0.19014784 6:-0.20587783 
2 1:-0.34264172 2:-0.79666631 3:-0.44669399 4:0.51302619 5:0.21116878 6:0.26042038 
2 1:0.24544683 2:0.52450973 3:0.071915649 4:-0.6678378 5:-0.45201513 6:-0.21239281 
2 1:-0.28117824 2:-0.56705107 3:-0.56639027 4:0.026806708 5:-0.087559833 6:-0.017976098 
0.3866101737177414 1:1.117844 2:2.0153803 3:3.5522547 4:-0.27553629 5:-0.15064786 6:1.8546057 
2 1:-0.78415413 2:-0.30732843 3:-0.7680817 4:1.0521438 5:0.94359759 6:0.9514856 
2 1:-0.13942037 2:-0.30021904 3:-0.43937353 4:0.50130624 5:0.52788827 6:0.96896483 
2 1:0.061025894 2:0.67502957 3:1.2917456 4:-0.98047535 5:-0.83893905 6:-0.69672641 
2 1:-0.78415413 2:-0.49657228 3:-0.7680817 4:1.2780696 5:1.7141671 6:1.6585999 
2 1:-0.16123983 2:-0.31087924 3:-0.42047841 4:0.098155854 5:0.051649618 6:-0.041334707 
2 1:0.90811188 2:0.44438303 3:0.40289569 4:-0.037494631 5:0.32798957 6:-0.068030259 
2 1:-0.52814524 2:-0.79886563 3:-0.7680817 4:0.52545884 5:0.52389029 6:0.70669692 
2 1:-0.24088619 2:0.24558472 3:0.0053187229 4:-0.5507967 5:-0.97007259 6:-0.78332805 
0.82090342319316 1:1.2159629 2:0.21661764 3:0.68457767 4:-0.20371201 5:0.12249372 6:0.15204915 
2 1:-0.41195777 2:-0.29322645 3:-0.2751902 4:-0.15968301 5:0.24219305 6:0.95974851 
2 1:-0.18861708 2:-0.37074455 3:-0.35538122 4:-0.9992431 5:-1.1312709 6:-1.0504425 
2 1:0.26892829 2:0.063761748 3:-0.30504374 4:-1.2902621 5:-1.0593873 6:-1.2213417 
2 1:-0.18629943 2:-0.26023356 3:-0.30586785 4:-1.4246456 5:-1.3426838 6:-1.5145955 
2 1:-0.043779173 2:-0.5364176 3:-0.67456387 4:-0.39653684 5:-0.046940419 6:-0.3211613 
2 1:0.26099948 2:-0.33342996 3:-0.013613513 4:-1.021416 5:-0.92241674 6:-0.79770869 
2 1:0.10867496 2:-0.24722173 3:-0.14577537 4:-0.36969182 5:-0.51302422 6:-0.4992111 
2 1:0.5863854 2:0.44407156 3:0.23851933 4:0.22367017 5:0.21252809 6:0.14974507 
2 1:-0.78015168 2:-0.55516055 3:-0.7680817 4:-0.52197196 5:-0.55988047 6:-0.49587416 
0.2788649069508528 1:-0.089423163 2:0.31691228 3:0.36948586 4:1.4784174 5:0.7859175 6:1.0249778 
2 1:-0.77842168 2:0.043671672 3:-0.7680817 4:-0.74251288 5:-0.8899532 6:-0.94238905 
2 1:-0.22303114 2:-0.79886563 3:-0.61340161 4:-0.018489309 5:0.15327811 6:0.14068765 
2 1:-0.61737478 2:-0.26333272 3:-0.72087658 4:-0.49314722 5:-0.28777837 6:-0.32092295 
2 1:2.2630988 2:1.9232618 3:0.75800505 4:-0.85654481 5:-0.70004944 6:-0.44391317 
2 1:-0.080312663 2:-0.79886563 3:-0.7680817 4:0.051355249 5:0.11049979 6:0.053370944 
1.984171720680712 1:0.4190419 2:0.52349744 3:0.57877988 4:1.0201515 5:1.4075225 6:1.1720417 
0.3893691788234151 1:-0.78203089 2:-0.21997554 3:-0.7680817 4:1.3289088 5:1.1516522 6:0.58052865 
0.2881876217367945 1:0.39090989 2:0.28475259 3:0.59741514 4:3.1337017 5:4.4094412 6:5.4507191 
0.2883120318601927 1:0.77278854 2:1.3700839 3:0.76030661 4:0.40596288 5:-0.34087146 6:-0.61886438 
2 1:-0.36173184 2:-0.2211202 3:-0.083388085 4:0.069568682 5:0.053008929 6:0.31937306 
2 1:-0.60891993 2:-0.79886563 3:-0.38963 4:0.10837121 5:0.053728564 6:-0.23257338 
2 1:-0.082554075 2:-0.15549262 3:-0.18691401 4:0.034963159 5:-0.10035335 6:0.12368512 
2 1:-0.25952651 2:-0.23785415 3:-0.508814 4:0.25867163 5:0.26969911 6:0.40073093 
2 1:0.68473307 2:0.55472272 3:0.68613679 4:0.071390026 5:-0.037105403 6:-0.29335343 
2 1:1.0701187 2:0.84719685 3:0.28677797 4:-1.1507314 5:-1.0270037 6:-1.0538589 
0.5975779255635369 1:0.35431541 2:0.11616726 3:0.36302663 4:-0.36248563 5:0.067881392 6:0.24810546 
2 1:-0.39267705 2:0.011979188 3:-0.109767 4:-0.22137112 5:-0.27714376 6:-0.27698652 
0.3548185587338654 1:5.1311149 2:6.4605043 3:4.629536 4:-1.123332 5:-1.5460207 6:-1.5062531 
2 1:0.20778501 2:0.15868346 3:0.05238946 4:-0.34039195 5:0.0057528773 6:-0.12547337 
1.577107948735595 1:4.002099 2:2.7385451 3:1.5703836 4:0.047474996 5:0.40131242 6:-0.17838777 
0.1478336611421093 1:-0.78415413 2:1.0405444 3:-0.038604066 4:-0.15041792 5:0.6914054 6:0.90715192 
0.9270158190026591 1:0.1299455 2:0.17931862 3:1.0072424 4:-0.21289791 5:-0.37221558 6:0.31826074 
2 1:0.067429928 2:0.12847048 3:0.14281873 4:-1.0435097 5:-0.8954704 6:-0.93269602 
2 1:-0.78415413 2:-0.79886563 3:-0.68593806 4:-0.030446824 5:-0.067569964 6:0.0074482375 
2 1:-0.40758168 2:-0.32565089 3:-0.30234126 4:0.19175706 5:0.033338897 6:-0.17266729 
2 1:-0.32651728 2:-0.34363852 3:-0.10300337 4:-0.22422192 5:-0.068769356 6:-0.092977888 
0.6444126764356357 1:0.72422461 2:1.7700166 3:2.1079849 4:0.45212997 5:-0.2788229 6:-0.41618476 
2 1:-0.48813528 2:-0.30460303 3:-0.26677835 4:-0.39131037 5:0.26929932 6:-0.48689619 
2 1:-0.005530317 2:-0.34675326 3:-0.27256939 4:-1.1923055 5:-1.0040554 6:-1.2419195 
0.190498019776222 1:3.1559278 2:1.9180446 3:2.5285033 4:-1.0831041 5:0.36565049 6:-0.71396729 
0.6096820314347097 1:0.92938242 2:1.0489542 3:0.63245833 4:0.43328303 5:1.0433071 6:1.7751546 
2 1:-0.59583741 2:-0.79886563 3:-0.42358924 4:0.52648829 5:0.22859994 6:0.046935409 
2 1:-0.68136938 2:-0.7459493 3:-0.74301022 4:1.0234775 5:0.25074872 6:0.50497071 
2 1:-0.2332471 2:-0.36586219 3:-0.15862702 4:-1.2080641 5:-1.1830846 6:-0.95112867 
0.4537165327856478 1:2.085463 2:1.8224221 3:2.4209236 4:0.31956785 5:-0.46528841 6:1.2897087 
1.072061391400658 1:1.5097099 2:0.93939317 3:0.66505148 4:0.34672963 5:0.071719447 6:0.17079959 
1.169176394116689 1:-0.15443173 2:0.23001102 3:-0.24506938 4:0.11470632 5:0.27121834 6:0.70637912 
0.6329867736329738 1:0.62305612 2:-0.00071337989 3:0.83648102 4:1.0134997 5:1.4309506 6:0.35472877 
2 1:0.26488765 2:0.25399452 3:-0.2008125 4:-0.25336341 5:-0.1172248 6:-0.030767717 
2 1:0.44778381 2:-0.14538529 3:0.23243132 4:-1.1033764 5:-1.221865 6:-0.98203513 
2 1:0.1044056 2:-0.58129322 3:-0.48988176 4:-0.48823751 5:-1.0887325 6:-0.51351229 
2 1:-0.78415413 2:-0.47244083 3:-0.76454619 4:-0.40223843 5:-0.31104657 6:-0.26475106 
0.3156303000945628 1:1.0956586 2:0.96610207 3:0.57269186 4:0.24813952 5:0.47591461 6:-0.35111435 
0.06660292907494314 1:-0.78415413 2:-0.79767946 3:0.2558182 4:0.21678074 5:0.31703513 6:0.35178908 
2 1:-0.22609592 2:-0.47844449 3:-0.59239797 4:0.16712933 5:0.14544209 6:0.47612998 
0.5535702753341706 1:-0.28399144 2:-0.79743939 3:-0.76544566 4:2.0832617 5:2.6643256 6:2.6289356 
2 1:-0.29594564 2:-0.45411058 3:-0.25687419 4:0.5321107 5:0.96078888 6:0.72655968 
2 1:-0.59334441 2:-0.1630848 3:-0.22462257 4:0.026965086 5:0.16503216 6:0.17262697 
2 1:-0.78415413 2:-0.27965396 3:-0.51695857 4:-1.1938101 5:-1.2769571 6:-1.2672644 
2 1:-0.42699962 2:-0.5987124 3:-0.26766928 4:0.36122118 5:0.083873287 6:0.40835823 
2 1:2.170469 2:1.4332353 3:1.0093954 4:-0.47620081 5:-0.67973973 6:-0.21676262 
2 1:0.19612052 2:0.025917651 3:0.0054672111 4:0.90493177 5:0.92856521 6:0.5082282 
0.3577705481837734 1:2.8645443 2:2.6824798 3:3.3368726 4:-0.30744939 5:-0.85740969 6:2.0825507 
0.5507224812180531 1:0.84757851 2:0.86923364 3:0.1287866 4:2.5078723 5:3.0159873 6:0.060839342 
2 1:-0.28242093 2:-0.31826117 3:-0.32932155 4:-0.70584845 5:-0.82326699 6:-0.95001635 
2 1:0.49024865 2:0.35109656 3:0.45308468 4:0.064025464 5:0.74090032 6:-0.2263762 
2 1:-0.62454883 2:-0.76165149 3:-0.72459175 4:1.8053881 5:2.1141244 6:2.0666605 
0.198818009001771 1:2.4241145 2:3.1102894 3:0.66920915 4:-0.031555467 5:0.32495111 6:0.44069481 
2 1:-0.5139725 2:-0.34549958 3:-0.40196194 4:0.47224394 5:-0.036865524 6:-0.046816829 
2 1:1.6112596 2:1.5339193 3:1.7017213 4:-0.81734634 5:-0.70108891 6:-0.7150796 
0.1987844715393869 1:-0.4188726 2:-0.43284469 3:-0.36086043 4:3.7307856 5:5.6527311 6:5.5950022 
2 1:-0.49419624 2:-0.79886563 3:-0.38078011 4:0.78345608 5:0.74945598 6:0.75643328 
1.788075860382623 1:1.5289982 2:2.073548 3:2.2071007 4:-1.2986561 5:-1.4291999 6:-1.2523276 
2 1:0.040746453 2:-0.79886563 3:-0.7680817 4:-0.87206583 5:-0.96279628 6:-0.88017888 
0.8509486987723952 1:1.3290246 2:0.081671506 3:0.92973157 4:-0.42401536 5:-0.27082696 6:-0.93555626 
2 1:-0.57689214 2:-0.57302358 3:-0.34429658 4:1.330255 5:0.81598227 6:1.3031359 
2 1:-0.78415413 2:-0.61019801 3:-0.7680817 4:-0.66284891 5:-0.72851501 6:-0.58358812 
2 1:-0.49949481 2:-0.10783709 3:-0.064856767 4:-1.2816305 5:-1.2317 6:-1.2407277 
0.9444299222247944 1:1.1712109 2:0.89500811 3:1.2003512 4:-0.29042379 5:-0.32439981 6:-0.52717787 
0.1202854248263957 1:2.9378857 2:3.2002275 3:3.3490487 4:0.32883295 5:0.62224045 6:0.80887097 
2 1:-0.78415413 2:-0.69894475 3:-0.7680817 4:-0.40081303 5:-0.49863151 6:-0.44534329 
2 1:-0.25080482 2:-0.35204832 3:-0.32298111 4:-0.046680536 5:0.076676934 6:0.42750593 
2 1:-0.45584065 2:0.0898477 3:0.29516755 4:-0.42369861 5:-0.25339579 6:-0.16853584 
0.3224541628366309 1:4.9276344 2:3.5472096 3:2.0312908 4:-0.72477458 5:-0.87899875 6:-0.88208571 
2 1:-0.30602437 2:0.0076185509 3:0.16954659 4:0.048979584 5:1.0910429 6:0.60468177 
2 1:0.038001867 2:-0.1045744 3:-0.075087599 4:-0.52862382 5:-0.72843505 6:-0.89718141 
2 1:-0.67289166 2:-0.79886563 3:-0.6895092 4:-0.37951123 5:-0.41835219 6:-0.4573404 
0.4404276496092397 1:0.65141685 2:1.6979882 3:0.57833441 4:-0.23119054 5:-0.073167127 6:0.020796014 
0.5563903734960075 1:-0.052500857 2:0.76356607 3:1.7310478 4:-0.13901472 5:-0.30576925 6:-0.87501456 
2 1:-0.10980934 2:-0.32169517 3:-0.21060529 4:-0.40833597 5:-0.21133711 6:-0.64039562 
2 1:-0.11673942 2:-0.23832136 3:-0.036376744 4:-0.97247728 5:-0.85661009 6:-0.64985029 
0.3173003242576783 1:5.2591194 2:3.1604367 3:1.9364811 4:0.16554556 5:-0.84677508 6:-0.94652051 
1.47534090196438 1:-0.07545627 2:-0.79886563 3:0.097307119 4:-0.8331841 5:-0.75258281 6:-0.4500309 
0.4760882184752274 1:-0.091031796 2:0.62363635 3:0.86892568 4:0.1354538 5:0.57226578 6:0.80291214 
2 1:-0.56708024 2:-0.33049432 3:-0.57656913 4:-0.51634955 5:-1.03444 6:-0.54473655 
2 1:0.13680696 2:0.21856435 3:0.10539972 4:-1.0188027 5:0.017347002 6:-1.1425262 
2 1:0.13169898 2:-0.31692962 3:-0.049569914 4:-0.70307684 5:-0.44377931 6:-0.34102406 
0.2323741165117039 1:0.090835148 2:1.4906244 3:3.0103472 4:1.3167137 5:0.69124548 6:-0.77347612 
1.154567910225824 1:-0.78415413 2:-0.015742003 3:0.061966944 4:-0.45339442 5:1.0588192 6:0.67046724 
0.5704480245758347 1:0.82188613 2:2.2739816 3:3.1367106 4:-1.3814876 5:-0.26722878 6:0.96991824 
1.367118667168672 1:0.014367932 2:-0.023264101 3:0.1901122 4:0.40129074 5:0.28025377 6:0.68754922 
0.5536624618274747 1:-0.14436825 2:0.047020018 3:0.18632575 4:0.93557785 5:0.76592763 6:-0.15065935 
2 1:-0.17281284 2:-0.19154574 3:-0.33252147 4:0.22438287 5:0.19917485 6:0.19662119 
2 1:0.11751862 2:0.10417551 3:0.16984357 4:-0.49512694 5:-0.14137256 6:-0.31170663 
2 1:-0.25842867 2:-0.39099036 3:-0.44514971 4:0.71131505 5:0.65206534 6:0.85320465 
1.606489608300363 1:0.2164762 2:0.38855131 3:0.0024232044 4:0.33722696 5:0.36812923 6:0.063222874 
1.164177016671088 1:2.2161358 2:1.8365942 3:0.32055902 4:-0.57194012 5:-0.2484383 6:-0.46997312 
2 1:0.11401165 2:-0.2163235 3:-0.13332464 4:-2.3429985 5:0.053888483 6:-2.3458124 
2 1:0.63838006 2:0.57014068 3:0.84568729 4:0.46986827 5:0.58713824 6:0.70622021 
2 1:-0.78415413 2:-0.42557956 3:-0.76638262 4:-0.20046527 5:-0.38021152 6:-0.26006344 
1.806352360688942 1:-0.22414422 2:0.527313 3:1.1738461 4:-0.0041561285 5:-0.14625009 6:-0.13167055 
2 1:0.20862363 2:-0.018155927 3:-0.013539269 4:-0.92298425 5:-0.83062326 6:-0.94469313 
0.871436636877057 1:0.99532872 2:1.2805351 3:0.75711412 4:0.59799582 5:0.72754709 6:0.72576517 
2 1:-0.071865437 2:-0.18732527 3:-0.095601234 4:0.033696137 5:-0.47232484 6:0.14918891 
0.1753511667984085 1:1.9952729 2:3.5290663 3:1.6564325 4:0.98031954 5:0.85628184 6:0.88601794 
2 1:-0.78256852 2:-0.79838958 3:-0.44474137 4:1.6821702 5:1.6363665 6:1.8835259 
2 1:-0.67863242 2:-0.77813703 3:-0.37942144 4:0.38569054 5:0.56618886 6:0.25191912 
2 1:-0.27199913 2:-0.042661147 3:-0.5178495 4:0.099264498 5:-0.40979653 6:-0.032356738 
2 1:-0.30561268 2:-0.79886563 3:-0.12621206 4:-0.65326706 5:-0.47904144 6:-0.47958669 
1.007190113264101 1:1.1966746 2:1.3687601 3:-0.72502905 4:0.4129315 5:0.1426435 6:0.055675024 
2 1:-0.10153746 2:-0.1802003 3:0.10168752 4:-0.59458813 5:-0.45769226 6:-0.13508694 
1.987343725514868 1:-0.33546005 2:0.047720835 3:-0.29636461 4:1.2609648 5:1.1382989 6:1.1214314 
2 1:0.094647073 2:0.28514193 3:0.29687516 4:0.22921339 5:0.32758978 6:0.38428456 
1.965277152138194 1:0.93769242 2:0.85848778 3:0.5835315 4:0.24037901 5:0.19093903 6:0.14807659 
2 1:-0.23910221 2:-0.75243419 3:-0.62388487 4:-1.2644465 5:-1.2351383 6:-1.2690918 
0.04447169342047414 1:-0.52283142 2:0.11593365 3:0.34186707 4:1.3036476 5:2.1817701 6:2.0459238 
0.369412337660632 1:1.6458719 2:1.6571851 3:25.21593 4:-0.55538965 5:0.17694612 6:-1.0553684 
2 1:-0.40451689 2:0.054573264 3:-0.0012889988 4:-0.65817677 5:-0.5394908 6:-0.385755 
2 1:-0.14442162 2:-0.21503089 3:-0.46627215 4:0.69262648 5:0.41010796 6:0.14958616 
2 1:-0.61988303 2:-0.651188 3:-0.50320115 4:1.2466316 5:1.3601065 6:1.4819803 
1.517195575579936 1:0.18209263 2:0.38419068 3:0.30971939 4:1.1491502 5:1.2871035 6:1.6526411 
0.2378241811583262 1:2.7003266 2:0.041880696 3:0.89246105 4:-0.45917521 5:-0.65023468 6:-0.12642678 
0.007944803363013196 1:-0.34987675 2:-0.31825339 3:-0.52367024 4:1.5444608 5:2.1674574 6:2.4738472 
1.179038699673452 1:3.516231 2:4.1169735 3:1.7035032 4:-0.46052142 5:-0.64719622 6:-0.51557802 
0.1723421517948683 1:3.6001696 2:2.8188276 3:0.65265272 4:-0.8175839 5:-1.0964885 6:-1.3974847 
2 1:-0.27903594 2:-0.42589103 3:-0.27037919 4:-0.79707399 5:-0.80175789 6:-1.138792 
1.444249397122927 1:0.21868711 2:0.17386782 3:0.68012302 4:-2.3429985 5:-1.0888924 6:-0.86397087 
2 1:0.59995586 2:0.62270193 3:0.33570481 4:-0.51951711 5:-0.0712481 6:-0.13778828 
2 1:-0.5760154 2:-0.43614631 3:-0.58057831 4:0.28044857 5:0.19669611 6:0.12432073 
0.09322171355948057 1:1.0426728 2:1.4563622 3:1.7063245 4:0.88014566 5:1.250642 6:1.0207669 
0.2546568699884444 1:1.477461 2:-0.79886563 3:0.13160788 4:1.6692625 5:1.9893876 6:1.3678091 
2 1:0.44603032 2:0.1885071 3:0.14564 4:0.14756969 5:0.17734592 6:0.14775879 
2 1:-0.78415413 2:-0.24609264 3:-0.35856629 4:-0.12982882 5:-0.13161751 6:-0.088846434 
2 1:-0.029453959 2:-0.18364209 3:-0.26633288 4:0.042010966 5:-0.4023603 6:-0.56038841 
0.6711221210655912 1:0.32610716 2:0.023737333 3:-0.11838674 4:0.47984607 5:0.23619609 6:0.38094762 
2 1:-0.55703201 2:-0.3065186 3:-0.43956656 4:0.72612336 5:0.87131423 6:0.95800059 
2 1:-0.44769838 2:-0.50411774 3:-0.6867399 4:0.66300986 5:0.8115845 6:0.4627822 
0.3581094154706737 1:2.2175844 2:0.47732142 3:0.5729146 4:0.27118347 5:-0.2699474 6:1.5047827 
0.3594233157122005 1:0.63441566 2:-0.32844637 3:-0.7680817 4:0.66522714 5:0.78056022 6:0.91620934 
0.3838783190344355 1:0.49406058 2:-0.10923094 3:0.42004607 4:2.1059889 5:1.4566976 6:1.5325111 
2 1:-0.38809511 2:-0.49777145 3:-0.28753699 4:-0.57201931 5:-0.54037036 6:-0.54084345 
2 1:-0.091329126 2:-0.38821824 3:-0.075666702 4:-0.31885258 5:-0.22836847 6:-0.33045707 
2 1:0.30963965 2:0.26045761 3:0.15291592 4:-0.74631395 5:-0.54588756 6:-0.70689614 
2 1:0.078484511 2:0.061892904 3:0.042811975 4:0.63735267 5:0.48015246 6:0.27543663 
0.05789757797471592 1:0.60186182 2:0.54958339 3:0.037614891 4:2.539627 5:2.1627398 6:2.1303008 
0.2587242082861141 1:0.52989268 2:0.42039953 3:-0.19688499 4:4.6314794 5:4.4589361 6:3.6996974 
2 1:-0.044678787 2:-0.014729712 3:0.64211006 4:-0.019281197 5:0.42154216 6:0.43394147 
0.4912788313489398 1:1.3319217 2:1.4438254 3:1.0665634 4:-0.094352218 5:0.26442179 6:0.87425918 
2 1:-0.78415413 2:-0.50892222 3:-0.7680817 4:-0.98166318 5:-0.80967388 6:-0.86579824 
2 1:0.57655064 2:1.2461951 3:1.3570804 4:-0.20006932 5:0.14488237 6:-0.14358821 
2 1:-0.22630177 2:-0.46932609 3:-0.3680621 4:0.35132258 5:0.26809992 6:0.38070927 
2 1:0.30841983 2:0.92296291 3:1.4535234 4:-0.31077532 5:-0.28937756 6:-0.59272499 
1.422155995557534 1:-0.52455441 2:-0.34956431 3:-0.054670481 4:0.53100206 5:0.4378539 6:0.68421227 
2 1:0.051114889 2:0.38816197 3:0.75013518 4:-0.85385239 5:-0.86396636 6:-0.82964801 
2 1:0.21540886 2:0.13220817 3:0.0044277942 4:0.46606721 5:0.57922225 6:0.78892876 
2 1:0.61337383 2:0.40809631 3:0.28440216 4:0.18906464 5:-0.0091195856 6:-0.22438992 
0.5250076685998194 1:1.8487425 2:0.80647162 3:0.82593837 4:-0.82874953 5:-1.2468923 6:0.090633486 
0.3743640687734631 1:-0.025459061 2:-0.24612378 3:-0.35697004 4:0.87214759 5:0.75009566 6:0.84811979 
2 1:-0.24594081 2:-0.79886563 3:-0.7680817 4:0.34181992 5:0.27857462 6:0.3529014 
2 1:-0.78415413 2:0.2107775 3:-0.76618513 4:0.06497573 5:0.19821534 6:0.27472157 
2 1:-0.68168196 2:-0.34743072 3:-0.76738024 4:-0.25581827 5:-0.024471805 6:-0.071049399 
2 1:0.39357824 2:0.024048807 3:-0.19338067 4:-0.45173146 5:-0.43450401 6:-0.23591033 
1.64956487854419 1:-0.08351468 2:-0.12437636 3:-0.21333005 4:0.82122916 5:0.55539433 6:-0.032674542 
1.592570800693974 1:0.96574819 2:0.89570893 3:0.22084924 4:-0.94547388 5:-1.038358 6:-1.2595576 
0.06161831224231273 1:1.8537742 2:2.9681794 3:2.0028553 4:-0.40334708 5:0.35109786 6:0.56304942 
1.98483418374169 1:1.0816307 2:0.33380975 3:1.1721384 4:-0.40342626 5:-0.54276914 6:-0.75901603 
2 1:0.10082239 2:0.3445556 3:0.35211275 4:0.56988378 5:-0.13193734 6:0.40955 
2 1:0.8808185 2:0.95535621 3:0.94710468 4:-0.82288955 5:-0.47408395 6:-0.43874885 
2 1:1.121351 2:0.5735669 3:1.1441484 4:-0.77529706 5:-0.45281473 6:-0.69767982 
0.3040560336827833 1:3.2333099 2:0.77843895 3:0.14393239 4:1.2608856 5:1.797165 6:0.60134483 
2 1:-0.78415413 2:-0.79886563 3:-0.67826865 4:0.11027175 5:0.034058533 6:-0.068030259 
2 1:-0.59332154 2:-0.52033775 3:-0.050007954 4:-0.66847132 5:-0.448337 6:-0.15272508 
2 1:0.055612961 2:0.060101928 3:0.12915782 4:-0.55269723 5:-0.84205747 6:-1.0185032 
0.04331218304691535 1:1.278326 2:1.2069494 3:0.87545916 4:0.17932442 5:-0.82822448 6:-0.40545886 
1.009703147221379 1:-0.072399106 2:-0.001647802 3:0.6903687 4:0.36906088 5:-0.025431319 6:1.2118467 
2 1:-0.77426371 2:-0.41705295 3:-0.29404077 4:0.39052105 5:0.99477166 6:1.4353425 
0.3785332117866458 1:0.77538065 2:3.7372867 3:2.9629053 4:0.56133138 5:-0.6170515 6:-0.72580549 
2 1:-0.39907346 2:-0.79886563 3:-0.38170074 4:0.40548775 5:0.52988726 6:0.50624192 
0.157550867029226 1:0.5857755 2:1.018819 3:-0.72017349 4:-0.068219901 5:0.87883042 6:0.78861095 
2 1:0.19444327 2:0.008397236 3:0.058403229 4:-0.080731738 5:-0.1387339 6:-0.13127329 
0.1095183090707144 1:1.2870935 2:1.0974662 3:0.22560086 4:0.87531514 5:1.2141005 6:0.94322269 
2 1:-0.077484214 2:-0.75585573 3:-0.37812217 4:-1.2194673 5:-1.2855127 6:-1.2568563 
2 1:-0.51239437 2:-0.79886563 3:-0.7680817 4:-0.58991598 5:-0.19582497 6:-0.09385185 
2 1:-0.33655026 2:0.015872613 3:-0.0040360292 4:0.55214548 5:-0.42187041 6:0.31937306 
2 1:-0.41258292 2:-0.1704901 3:0.43927528 4:-0.074079875 5:-0.19942314 6:-0.75845987 
0.3468566919868514 1:1.4460507 2:-0.059955744 3:-0.086498911 4:-0.050164845 5:0.0045534852 6:-0.74598606 
2 1:-0.40866426 2:-0.79886563 3:-0.37253902 4:0.18074982 5:0.41842374 6:-0.053808521 
2 1:1.2461534 2:1.0793229 3:0.26198045 4:-1.4772269 5:-1.5978664 6:-1.665195 
2 1:-0.64140516 2:-0.58161248 3:-0.36087528 4:-0.69682092 5:-0.78760506 6:-0.89471842 
1.308640407074308 1:0.16745484 2:0.11515497 3:0.052240972 4:2.145029 5:2.2758824 6:1.1768882 
2 1:-0.32733303 2:-0.34126353 3:-0.26352646 4:0.13355327 5:0.18006454 6:0.32016757 
2 1:-0.25691915 2:-0.62937702 3:-0.56959761 4:-1.256686 5:-1.3118194 6:-1.2688534 
0.2928137776396228 1:2.2188804 2:1.506821 3:1.6040904 4:2.3494154 5:3.3838809 6:2.9709724 
1.357288870565613 1:0.056299107 2:-0.64657818 3:-0.13160218 4:0.54501848 5:0.54132146 6:0.94965823 
0.1366579203807659 1:1.0496868 2:0.77594716 3:0.42813867 4:-0.27434845 5:-0.17199704 6:0.53969081 
0.4050358117099854 1:-0.48262323 2:-0.30700917 3:-0.20094614 4:-2.3429985 5:1.690739 6:-2.3458124 
2 1:-0.39916495 2:-0.79648402 3:-0.40418184 4:0.51492672 5:0.73274445 6:0.63423756 
2 1:-0.56268128 2:-0.75995863 3:-0.58806954 4:0.15303372 5:-0.4394615 6:0.11939477 
2 1:-0.6890466 2:-0.14936437 3:0.098866244 4:-0.11937589 5:-0.030308847 6:-0.2034943 
0.4969074589399992 1:1.9205592 2:4.1134695 3:1.8624597 4:-0.18153913 5:-0.31976216 6:-0.2643538 
0.2740597041902052 1:-0.028241766 2:3.2574609 3:0.48040649 4:-0.19080423 5:-0.9347305 6:-1.1175786 
2 1:0.67451711 2:0.72011544 3:1.1740688 4:-0.83524301 5:-0.68101908 6:-0.5782649 
2 1:1.4747927 2:1.2976662 3:1.0000407 4:0.5392377 5:0.2724977 6:0.53087175 
2 1:0.80671467 2:1.9067537 3:2.4241161 4:-0.77094168 5:-1.0306019 6:-0.23797605 
0.2258972799587768 1:2.9040358 2:2.107343 3:1.8531792 4:0.35702417 5:0.55227591 6:-0.023219867 
2 1:-0.5534183 2:-0.546011 3:-0.54978187 4:-1.278067 5:-1.2274622 6:-1.2702835 
2 1:-0.69632737 2:-0.7832343 3:-0.56541767 4:-1.2120235 5:-1.1795664 6:-1.2696479 
2 1:-0.78415413 2:-0.52536805 3:-0.51183573 4:1.7003045 5:1.6389252 6:1.7001528 
2 1:0.035943428 2:-0.21397187 3:0.086615973 4:0.14812401 5:-0.34446964 6:-0.0028009478 
2 1:-0.48661051 2:-0.79886563 3:-0.42912784 4:-0.83088763 5:-0.8613277 6:-0.88470759 
2 1:-0.043626696 2:-0.29008834 3:0.80685764 4:-0.61224724 5:-0.67870025 6:-0.97138869 
1.080037572576872 1:2.4896796 2:1.7278897 3:0.93730446 4:-0.42844994 5:0.54324049 6:0.62001583 
0.3187685833879516 1:0.69098463 2:-0.79886563 3:-0.7680817 4:4.3087057 5:3.3865995 6:3.4708784 
1.06223123721743 1:1.2526337 2:1.3627643 3:0.88021078 4:1.0797807 5:0.7955926 6:0.32501408 
1.694075614085244 1:1.1043498 2:-0.11173052 3:-0.17973461 4:-0.35472513 5:-0.46161027 6:-0.34642673 
2 1:0.46813949 2:0.32711306 3:0.069614083 4:-0.00043425299 5:-0.0045618953 6:-0.061753626 
0.08136628486757133 1:1.0719484 2:0.83333625 3:0.3757966 4:0.1794036 5:0.16359289 6:-0.066759042 
1.491701484981886 1:1.7567989 2:1.8954628 3:0.82103826 4:-0.59482569 5:-1.0498722 6:0.42567856 
2 1:-0.45970594 2:-0.79375777 3:-0.44130387 4:0.75328514 5:0.57506436 6:0.87235236 
2 1:-0.78415413 2:-0.45840892 3:-0.7680817 4:1.6533455 5:1.9223816 6:1.4601312 
0.1338780353831978 1:-0.15556769 2:1.4896121 3:1.8331333 4:1.7973108 5:1.7054515 6:1.1470941 
2 1:-0.46151279 2:-0.37931787 3:-0.1285953 4:0.27482616 5:0.36876891 6:0.4399003 
0.9955253407718638 1:-0.15497303 2:-0.11037561 3:1.0886881 4:-0.6004481 5:-0.32080163 6:-0.3742346 
2 1:0.11713743 2:0.093040309 3:-0.091361898 4:0.22066099 5:0.84100958 6:0.28791044 
2 1:-0.64189308 2:-0.45694499 3:-0.7680817 4:1.3137046 5:1.6180558 6:1.1567871 
2 1:-0.36346246 2:-0.10655226 3:-0.33333073 4:-0.13347151 5:-0.43458397 6:-0.74344363 
1.025203615480395 1:0.37749191 2:0.27681 3:0.29754336 4:0.67362116 5:0.18134389 6:0.8911028 
2 1:-0.42319532 2:-0.39788951 3:-0.29464957 4:0.072102725 5:0.050370266 6:0.159597 
2 1:0.68938362 2:-0.070927417 3:0.31714379 4:-0.89859409 5:-0.90074772 6:-0.62124791 
2 1:-0.53109567 2:-0.50878985 3:-0.6164085 4:0.58825559 5:1.2445651 6:1.6592355 
0.4764645832698119 1:-0.70565134 2:2.327633 3:0.36785249 4:-0.19983175 5:-0.18159218 6:0.061713304 
1.640634850184743 1:0.34958862 2:0.27447394 3:0.34780659 4:-0.55974504 5:0.72562806 6:0.70177095 
0.2681886857102936 1:2.8242904 2:3.121814 3:1.3434195 4:1.2644491 5:1.7421529 6:1.3446888 
2 1:0.40928337 2:0.19325708 3:0.27734897 4:-0.7125795 5:-0.87500077 6:-0.88494594 
2 1:-0.78415413 2:-0.46264497 3:-0.7680817 4:1.7345141 5:1.7690992 6:1.6555013 
2 1:-0.52949466 2:-0.54316101 3:-0.41090835 4:0.8124392 5:0.61144592 6:0.75134841 
0.8734148675017657 1:0.10814129 2:0.141786 3:0.20199125 4:-0.93913877 5:-1.0381181 6:0.031521905 
1.757478445586909 1:-0.0049966475 2:-0.27824454 3:-0.16177497 4:0.57582294 5:0.66629813 6:0.83151452 
0.2870761928393978 1:1.0584542 2:1.0161715 3:1.2618253 4:-0.15358547 5:-1.6223021 6:-1.4840863 
2 1:-0.20659412 2:0.057454399 3:-0.21260988 4:0.073052991 5:0.0024745387 6:0.15125464 
1.190114250778262 1:0.6232086 2:-0.50681977 3:-0.11016049 4:-0.85567374 5:-0.95839851 6:-0.59391675 
2 1:-0.48328651 2:-0.38554735 3:-0.70116701 4:-0.35852619 5:-0.12042318 6:-0.39616309 
1.347294053416458 1:-0.56165969 2:-0.20182439 3:-0.30290551 4:1.48206 5:1.8946356 6:0.50862545 
2 1:-0.087082641 2:-0.18319824 3:0.078746103 4:0.97129201 5:1.102717 6:1.1157109 
2 1:-0.66947617 2:-0.79886563 3:-0.7680817 4:0.2943858 5:0.25658576 6:0.24500687 
0.1367546504079255 1:0.65225547 2:-0.25056229 3:0.36755551 4:1.8718275 5:1.1271046 6:2.7231645 
2 1:-0.5630396 2:-0.35439216 3:-0.25687419 4:0.8174281 5:1.2970984 6:1.180543 
2 1:-0.78415413 2:-0.79886563 3:-0.47250123 4:-0.99298719 5:-0.92817383 6:-0.85467509 
0.7914073412072371 1:0.8479597 2:0.50387458 3:1.017785 4:0.19832974 5:-0.14433106 6:-0.27031263 
2 1:1.1080855 2:0.41019876 3:0.38871507 4:0.11573578 5:-0.0087997477 6:0.25795739 
2 1:2.0566449 2:1.524575 3:1.2017618 4:-0.84284514 5:-0.95599972 6:-0.72389867 
0.7927935083290715 1:1.35121 2:1.016483 3:0.071989893 4:0.50249408 5:0.22092383 6:0.60976664 
2 1:-0.53781228 2:0.17573667 3:0.088546319 4:-0.0056607165 5:-0.38324998 6:-0.23257338 
0.1870423175720383 1:2.2026416 2:1.5963698 3:0.44974369 4:-0.33960006 5:0.065802445 6:-0.41157659 
2 1:-0.46197022 2:-0.79756156 3:-0.35003564 4:-0.018726875 5:-0.26459012 6:0.0026017235 
0.6419747715380553 1:4.9671259 2:2.6485291 3:1.2385869 4:0.008038953 5:0.63295502 6:0.69366695 
2 1:-0.78415413 2:-0.35160447 3:-0.7680817 4:1.6968202 5:1.4355883 6:1.0809114 
1.340838404331297 1:0.22059308 2:0.70259502 3:0.4320736 4:-0.3833123 5:-0.68621645 6:0.81776949 
2 1:-0.78415413 2:-0.53512498 3:-0.76699803 4:2.2786206 5:2.4932123 6:2.5018934 
2 1:-0.26179841 2:-0.43573361 3:-0.48825582 4:0.13094003 5:0.054927956 6:0.0068920802 
2 1:-0.52593432 2:-0.79772906 3:-0.52997356 4:2.4784932 5:2.5035271 6:2.2130888 
0.8894588030032328 1:-0.097374839 2:0.60845199 3:2.1973005 4:0.85377577 5:0.2940068 6:0.35631779 
2 1:0.25459545 2:-0.37451339 3:-0.1807072 4:-0.33849141 5:-0.33175608 6:-0.86031612 
0.5016587232891347 1:2.485334 2:3.7577661 3:3.4618996 4:0.033300193 5:0.30911914 6:-0.072956224 
2 1:0.97283837 2:0.69753357 3:0.74946698 4:-1.0070036 5:-0.14137256 6:0.37824628 
1.641968555561542 1:-0.26794324 2:-0.16657331 3:0.62622183 4:-0.26262851 5:-0.13705475 6:-0.19554919 
2 1:-0.32101286 2:-0.3412791 3:-0.29697341 4:-0.6529503 5:-0.44321959 6:-0.90282243 
2 1:-0.76068792 2:-0.34785121 3:-0.71679241 4:0.74861299 5:0.71211491 6:0.65362362 
2 1:0.50458149 2:1.304285 3:1.797125 4:-1.5271159 5:-1.6774581 6:-1.5212694 
0.1506563847686753 1:1.8686408 2:3.0842813 3:3.141982 4:1.414512 5:0.41714439 6:0.19098016 
0.7208458445576316 1:5.1536053 2:5.0118385 3:3.1460654 4:-0.66237377 5:-0.61489259 6:-0.68917856 
2 1:0.079628089 2:0.36472355 3:0.17028903 4:0.034488026 5:-0.014476871 6:-0.0068529513 
2 1:0.33693303 2:0.26302727 3:0.64552529 4:-0.31172559 5:-0.32719839 6:-2.3458124 
0.3698890552976385 1:0.91954765 2:8.537569 3:7.6768094 4:-0.43130074 5:-0.82582569 6:-0.9195866 
0.3275537855574457 1:-0.43512665 2:-0.54954623 3:-0.45835773 4:4.0608446 5:3.048291 6:5.8773712 
0.3311532051790013 1:3.7258869 2:0.45660839 3:2.1650043 4:0.13814622 5:0.27865458 6:-0.45678424 
2 1:-0.33050455 2:-0.30304566 3:-0.7680817 4:-0.14994278 5:-0.44697769 6:-0.14144303 
2 1:-0.58066594 2:-0.62539016 3:-0.2905513 4:-0.21392737 5:-0.017515331 6:-0.079232857 
2 1:-0.78415413 2:-0.69836853 3:-0.7680817 4:-0.4847532 5:-0.19966302 6:-0.30360262 
0.1432991701357746 1:0.99502377 2:1.9188233 3:2.2010869 4:-0.21519439 5:-0.31472471 6:-0.047055182 
2 1:-0.32573202 2:0.13205243 3:-0.25440186 4:-0.020310652 5:0.28313231 6:0.21592779 
2 1:0.92915371 2:0.69558685 3:0.49829931 4:-0.5117566 5:-0.10858918 6:-0.27007428 
0.5461377733309362 1:3.4533342 2:2.4338456 3:2.3530645 4:-1.1790018 5:-0.034306821 6:-0.73804095 
2 1:-0.78415413 2:-0.64372819 3:-0.7680817 4:-0.14020256 5:-0.08036348 6:-0.097983304 
2 1:-0.78415413 2:-0.79886563 3:-0.40040282 4:-0.28424706 5:-0.25355571 6:-0.34896917 
2 1:0.99395643 2:-0.043579996 3:-0.020443967 4:0.58968099 5:-0.028869577 6:0.43314696 
1.019391156753441 1:1.5390617 2:0.48970251 3:-0.2357666 4:-1.1425749 5:-0.94624467 6:0.53865795 
2 1:-0.78415413 2:0.27252723 3:-0.76725365 4:-0.8779258 5:-0.81551092 6:-0.82639052 
0.1149005891586736 1:0.29584048 2:0.83707394 3:0.93864086 4:0.42013768 5:0.22788031 6:0.38492017 
0.571481551770355 1:-0.13171266 2:-0.16616839 3:-0.4377847 4:2.4415912 5:2.2120748 6:2.4570035 
2 1:-0.41259817 2:-0.33487831 3:-0.050794941 4:-0.76634872 5:0.61120604 6:0.44156877 
2 1:1.4294307 2:0.55573501 3:-0.092794808 4:-0.40936543 5:-0.23836341 6:-0.15471135 
2 1:-0.46144418 2:-0.73137465 3:-0.46284207 4:0.63861969 5:-0.027030509 6:0.40081038 
0.4950035206397186 1:0.98541772 2:0.69823438 3:0.58605579 4:-0.49884882 5:-0.28489983 6:-0.10394213 
2 1:-0.35940657 2:-0.25619997 3:-0.3818121 4:1.0420076 5:0.94471703 6:1.2100193 
2 1:-0.50368793 2:-0.79886563 3:-0.40793859 4:0.58112859 5:0.64814732 6:1.1060179 
2 1:0.4962715 2:0.15229825 3:0.037614891 4:-0.88172686 5:-0.65415269 6:-0.6809951 
2 1:-0.42000855 2:-0.59893822 3:-0.58469143 4:-0.47833891 5:-0.36022165 6:0.53317583 
1.459338419696622 1:-0.78415413 2:-0.36221795 3:-0.5460177 4:1.649782 5:1.2339305 6:-0.22915699 
0.121019994280669 1:-0.18555991 2:0.036118426 3:0.09366916 4:0.49718842 5:1.8716873 6:2.5579858 
0.6240018506473556 1:0.097162944 2:-0.042077133 3:0.040361921 4:0.23950794 5:0.29904424 6:-0.24973481 
1.493943813303091 1:0.37794934 2:0.52427613 3:-0.070558711 4:0.51405565 5:0.43801382 6:0.54255105 
0.3649331357256036 1:6.6667871 2:0.033470897 3:-0.024675879 4:0.075032712 5:0.033338897 6:0.33597832 
2 1:-0.42679378 2:-0.63362086 3:-0.24194371 4:-1.3487035 5:-1.3515593 6:-1.2798971 
2 1:-0.43052184 2:-0.60514434 3:-0.49960773 4:-1.0747101 5:-1.1097618 6:-1.0059499 
2 1:0.41309529 2:0.25773221 3:0.3483263 4:0.89289506 5:0.66190035 6:0.88816312 
2 1:-0.58305221 2:-0.79886563 3:-0.47597585 4:0.058244678 5:0.10354332 6:0.23412208 
2 1:-0.67722963 2:-0.79886563 3:-0.6926126 4:-0.59252922 5:-0.58442803 6:-0.66955415 
2 1:0.54727505 2:0.32680158 3:0.25158628 4:0.59237341 5:0.77896103 6:0.47851351 
2 1:-0.47536533 2:-0.41693615 3:-0.21978928 4:-0.45363199 5:-0.7545818 6:-0.1734618 
2 1:-0.53291777 2:-0.43697172 3:-0.46407453 4:0.68058978 5:0.54076174 6:0.46317945 
0.9389476588722151 1:-0.079778993 2:0.54662439 3:0.44848154 4:0.38569054 5:-0.21149702 6:1.0419803 
2 1:-0.78415413 2:-0.79886563 3:-0.34155697 4:0.48776495 5:0.65046615 6:0.44760705 
2 1:0.87471942 2:1.2228345 3:0.67522292 4:-1.3313611 5:-1.3321291 6:-1.2383442 
2 1:-0.78415413 2:-0.78732084 3:-0.62906711 4:-0.68961474 5:-0.75586115 6:-0.69418398 
0.194314306518691 1:1.9964165 2:2.5543082 3:1.7328296 4:0.91554307 5:0.68197018 6:0.046776507 
2 1:0.19947501 2:-0.71887909 3:-0.16067616 4:-0.58548141 5:-0.58866588 6:-0.63030533 
1.693453585133159 1:2.415652 2:3.4568043 3:3.4656861 4:-0.81346608 5:-0.85301192 6:-0.17592478 
1.966803194663827 1:1.4207396 2:1.352875 3:1.4046708 4:-0.77339653 5:-0.87500077 6:-0.86977079 
0.8293600913922333 1:0.86282621 2:0.41681758 3:1.0655982 4:0.23443985 5:0.041094967 6:-0.016943235 
0.3550685010071418 1:4.0028613 2:1.2650393 3:0.92030257 4:1.6577801 5:1.6626732 6:-0.097744951 
2 1:0.31581496 2:-0.076775342 3:-0.33117765 4:-0.35686323 5:-0.4327449 6:-0.69346892 
2 1:-0.53015794 2:-0.52536805 3:-0.35150567 4:0.83223641 5:1.100638 6:1.3941868 
0.615629939144815 1:0.77721037 2:0.49110414 3:0.35226124 4:0.098789365 5:0.87795086 6:1.1012508 
2 1:0.57998137 2:0.16615884 3:-0.086149964 4:-0.76698223 5:-0.67174378 6:-0.58597165 
2 1:-0.038869413 2:-0.089031846 3:0.17934681 4:0.95727559 5:1.2028262 6:0.890785 
0.8439608100853216 1:-0.19961067 2:-0.31098047 3:0.34476259 4:1.8856856 5:0.49750367 6:-0.092739535 
2 1:-0.77993074 2:-0.43894958 3:-0.7667995 4:1.633865 5:1.641244 6:1.4145263 
1.203010165471749 1:0.51533112 2:0.78731596 3:0.71702232 4:0.076616489 5:0.55899251 6:-0.065408374 
0.01142475955261241 1:-0.48461306 2:-0.4142419 3:-0.33814917 4:1.5463614 5:2.0276082 6:2.6129659 
0.02048708634616066 1:1.1298134 2:0.78069714 3:0.41663084 4:1.5275144 5:0.59913216 6:1.3375382 
2 1:-0.41845329 2:-0.79886563 3:-0.42920951 4:0.67710547 5:0.80766648 6:0.5611426 
1.299244319964691 1:0.49406058 2:0.059323243 3:0.29375691 4:-0.94127687 5:0.48950772 6:-0.53901608 
0.2167732918943598 1:0.23164766 2:-0.11444813 3:-0.15652591 4:5.3630259 5:6.7433784 6:4.7492457 
1.38908364198603 1:0.48864765 2:1.2639491 3:2.625466 4:-0.21551114 5:-0.1657602 6:-0.31583808 
0.6661990852492288 1:-0.081067424 2:0.49055906 3:1.314687 4:0.31339112 5:0.45768385 6:0.55430981 
0.5188830156262769 1:0.44580161 2:0.81768468 3:1.4151393 4:0.61359602 5:0.40091262 6:0.35893968 
1.400551547394223 1:0.47012169 2:0.95971685 3:1.9668469 4:-0.53994783 5:-0.73635104 6:-0.93213987 
1.219337699883756 1:0.012004538 2:0.14108518 3:0.10242996 4:0.28409125 5:0.094827736 6:0.22832215 
0.1436572075185125 1:0.093579734 2:1.2022773 3:-0.7680817 4:1.6829621 5:0.97406216 6:1.2010413 
2 1:-0.73111348 2:-0.52065701 3:-0.18265982 4:-0.23229918 5:-0.20134217 6:-0.03855392 
0.4410050538201882 1:-0.310126 2:-0.26685238 3:-0.20911298 4:1.3738881 5:1.4444638 6:1.7127061 
2 1:0.66247143 2:0.50698932 3:0.29917673 4:-0.41158272 5:-0.58506771 6:-0.59661809 
2 1:-0.32336863 2:-0.79886563 3:-0.33811947 4:0.084693751 5:0.30823958 6:0.51966915 
2 1:0.40234566 2:0.96096274 3:0.95683065 4:0.69777376 5:0.67493375 6:0.57711226 
0.3697024327727013 1:7.1282587 2:7.5776838 3:6.4202286 4:-0.6366374 5:-0.5402904 6:-0.35858275 
2 1:0.4067675 2:0.028565181 3:-0.45737771 4:-0.45252335 5:-0.33831276 6:-0.41427793 
2 1:0.70684224 2:1.256318 3:1.8398896 4:-0.46669815 5:-0.32056175 6:-0.20484497 
2 1:0.27487489 2:0.0856428 3:0.052315216 4:0.25700867 5:-0.24452029 6:0.32024702 
2 1:-0.20316338 2:-0.6667617 3:-0.7680817 4:-0.094431407 5:-0.12122277 6:-0.068348063 
2 1:0.051419843 2:0.005360364 3:-0.26444708 4:-0.52498114 5:-0.40260018 6:0.49750231 
2 1:-0.78415413 2:-0.79886563 3:-0.62247424 4:0.0063759873 5:-0.090758213 6:-0.059926252 
2 1:-0.050206079 2:0.20890865 3:0.26346533 4:0.51912373 5:0.24259285 6:0.40939109 
1.384351115515962 1:0.064685342 2:-0.24233937 3:-0.47682223 4:1.1740154 5:0.96678584 6:1.9965847 
0.2120549763911202 1:0.40768236 2:2.2692316 3:2.9128648 4:0.72398526 5:0.27241774 6:0.57020002 
0.3364370949830992 1:1.2790884 2:2.5409149 3:2.882202 4:0.55143278 5:0.88042961 6:0.13695345 
2 1:0.094265881 2:-0.00055764287 3:0.11557116 4:-1.1356855 5:-1.1746089 6:-1.1503124 
0.1836143886561268 1:-0.13328317 2:0.60440283 3:1.0180078 4:-0.33096848 5:-0.54932582 6:-0.30987925 
2 1:-0.57050335 2:-0.33551683 3:-0.29534004 4:-0.25732285 5:-0.16080272 6:-0.42985034 
2 1:-0.25566121 2:-0.27079253 3:-0.20934314 4:1.0302877 5:0.53956235 6:0.35703285 
1.631621247516041 1:1.7046517 2:-0.52279839 3:0.19040918 4:-0.32875119 5:-0.47016594 6:-0.67646639 
2 1:-0.26150871 2:-0.79886563 3:-0.37514498 4:-0.55119264 5:-0.61249381 6:-0.55514464 
1.598528666381599 1:0.13634953 2:-0.045121792 3:-0.02341373 4:0.78836579 5:0.64446919 6:0.73593491 
2 1:0.27639966 2:-0.034905444 3:-0.3055189 4:-1.2700689 5:-1.1546191 6:-1.2407277 
2 1:-0.062000175 2:0.13197456 3:-0.14521854 4:-0.58437277 5:0.27625579 6:-0.050471577 
1.470183351581026 1:-0.20266021 2:0.15416709 3:1.0184532 4:0.070598137 5:0.30416165 6:-0.36327036 
2 1:-0.28740693 2:-0.27313637 3:0.61738679 4:-0.51436983 5:-0.54932582 6:-0.51875606 
2 1:-0.59647019 2:-0.65753428 3:-0.49771451 4:-0.11913833 5:-0.15384624 6:-0.1124434 
2 1:-0.39767067 2:-0.40111327 3:-0.24250054 4:-0.25898582 5:-0.49615277 6:-0.33800492 
0.02197876463438457 1:0.50183691 2:0.51937041 3:1.1748855 4:-0.25930257 5:-0.41227527 6:-0.89980329 
2 1:0.4796515 2:0.85358207 3:1.0376082 4:-0.23847591 5:0.066362162 6:0.26081763 
2 1:-0.42863875 2:-0.79886563 3:-0.42390849 4:-0.62467989 5:-1.2034743 6:-1.1628657 
1.056976473133419 1:0.40600511 2:-0.79886563 3:-0.7680817 4:-0.5408189 5:-0.50430863 6:-0.4609157 
2 1:0.26694609 2:0.23234708 3:0.30741782 4:-0.82661143 5:-0.77465163 6:-0.2758742 
2 1:0.27563727 2:-0.11384075 3:-0.16921422 4:-0.45101876 5:-0.34526923 6:-0.37908112 
2 1:-0.74173198 2:-0.62329549 3:-0.38885786 4:0.86074439 5:1.1969092 6:1.3647105 
2 1:-0.34240538 2:-0.21794317 3:-0.076973398 4:-0.41031569 5:-0.39188561 6:-0.51232052 
2 1:-0.67860955 2:-0.55926422 3:-0.25463944 4:-1.3076045 5:-1.300705 6:-1.2559029 
2 1:-0.35776744 2:-0.51661563 3:-0.46621275 4:0.50613676 5:0.66565845 6:0.37816683 
2 1:0.54986716 2:0.32968272 3:0.41121102 4:-0.31006262 5:-0.39948176 6:-0.1810891 
2 1:-0.54183005 2:-0.54545813 3:-0.35488378 4:-0.55982423 5:-0.64391788 6:0.040340972 
2 1:-0.34436471 2:-0.56300969 3:-0.42710841 4:-0.58405601 5:0.035497803 6:-0.53401066 
2 1:0.062398187 2:0.60502578 3:1.4002904 4:-1.215587 5:-0.94416572 6:-1.1112225 
2 1:-0.47433611 2:-0.36375196 3:-0.4034394 4:0.21638479 5:0.39083772 6:0.20218276 
0.5528569792014105 1:1.1712109 2:1.2372402 3:0.56073857 4:-0.21741168 5:-0.073167127 6:0.093334821 
2 1:0.040289022 2:-0.11327231 3:-0.29545883 4:0.29280202 5:0.14432265 6:0.013327615 
2 1:-0.78415413 2:-0.71213568 3:-0.7680817 4:-0.40374302 5:-0.38101112 6:-0.31885722 
0.353813123209153 1:-0.34338123 2:-0.20973583 3:-0.21440659 4:0.73016199 5:0.36828915 6:0.90778752 
0.4536820716015061 1:0.98274937 2:1.9016144 3:2.1139244 4:-1.0542002 5:-0.67134398 6:0.8110956 
2 1:-0.50164474 2:-0.27265358 3:-0.16210164 4:0.0081973307 5:-0.41251515 6:-0.15367849 
2 1:-0.73148705 2:-0.37566584 3:-0.44266254 4:0.64653858 5:0.6205613 6:0.69867236 
0.7686352352409358 1:0.67596564 2:2.0088393 3:0.053057656 4:-0.066319369 5:-0.90042789 6:-0.95629299 
0.4187532787115143 1:1.8778656 2:0.71092695 3:1.6284425 4:0.38426514 5:0.066761959 6:0.59594216 
2 1:-0.14307982 2:0.092728835 3:-0.23938229 4:1.2582724 5:1.4423049 6:1.0519117 
2 1:-0.78415413 2:-0.79886563 3:-0.48879037 4:-0.21068063 5:-0.23604458 6:-0.38607281 
0.4223347220150544 1:-0.022119815 2:-0.45808966 3:0.070059547 4:0.87872026 5:0.94439719 6:0.98811253 
0.2851733735041861 1:2.4733645 2:0.60782904 3:2.666226 4:-0.17995536 5:0.43241665 6:-0.69680586 
2 1:-0.18770222 2:-0.45915646 3:-0.13377753 4:0.23356877 5:0.27121834 6:0.1827967 
0.7306849030678484 1:0.044405901 2:0.52248515 3:0.9043401 4:-0.0082739482 5:1.0338718 6:-0.088051923 
0.6323898796044064 1:-0.43537061 2:-0.40242925 3:-0.47414944 4:1.2127388 5:1.8476994 6:2.125057 
2 1:-0.78415413 2:-0.57369325 3:-0.7680817 4:0.076378923 5:0.2050119 6:0.23833299 
2 1:-0.69669332 2:-0.59850216 3:-0.19124244 4:0.75035515 5:0.53524454 6:0.76795368 
2 1:0.12476128 2:0.21171192 3:0.058551717 4:-0.84704215 5:-1.004695 6:-0.92284409 
1.116701270820796 1:1.2075005 2:0.79144299 3:0.3976986 4:-0.80103343 5:-0.31736337 6:0.91676549 
0.4853372034149325 1:0.062474426 2:-0.79886563 3:-0.7680817 4:-0.35472513 5:-0.37845241 6:-0.57262387 
2 1:-0.50216316 2:-0.75218268 3:-0.007302768 4:-1.2534393 5:-1.3424439 6:-1.250818 
2 1:-0.3290179 2:-0.19979202 3:-0.27460367 4:-1.0385208 5:-1.1032851 6:-1.0231908 
0.2802558987373382 1:0.32412496 2:-0.10845225 3:-0.7680817 4:-2.3429985 5:1.3787371 6:1.0680403 
2 1:-0.30218957 2:-0.22505256 3:-0.23335367 4:0.47240232 5:0.52612916 6:0.61763229 
1.999189651959787 1:0.22920803 2:0.2023677 3:0.45434682 4:0.64606344 5:0.81022519 6:0.5275348 
2 1:0.17927181 2:0.041802828 3:0.0037595976 4:0.63125513 5:0.54308057 6:0.6447251 
2 1:-0.56724034 2:-0.63297455 3:-0.54980415 4:1.5808085 5:1.0825672 6:1.4091236 
0.3157019972016989 1:1.8870142 2:-0.7664147 3:0.25507576 4:0.10385745 5:0.16423256 6:-0.087257413 
0.5685495658015618 1:3.5455828 2:1.0160158 3:1.0268428 4:-1.4830077 5:-1.3252526 6:-1.1152745 
0.6676299423768797 1:2.7309744 2:3.2484282 3:3.0689258 4:0.2121086 5:-0.65807071 6:-1.0817462 
2 1:-0.49010223 2:-0.48412889 3:-0.54317415 4:0.88584725 5:0.65422424 6:0.77931518 
2 1:-0.49409713 2:-0.79886563 3:-0.44279618 4:0.29343554 5:0.17270827 6:0.27917082 
0.369599591211298 1:2.7184713 2:0.64855427 3:5.8438719 4:2.489738 5:2.2133541 6:-0.21366403 
2 1:-0.68186493 2:-0.43407501 3:-0.57724475 4:0.28757556 5:0.35533572 6:0.097625178 
0.0703716329031189 1:0.059348647 2:0.26707643 3:0.31105578 4:0.94848563 5:0.60177083 6:0.73688832 
2 1:-0.49764984 2:-0.40450834 3:-0.48695655 4:-0.72612079 5:-0.88411615 6:-0.64484487 
2 1:0.11302055 2:-0.090137579 3:-0.15241279 4:-0.095064918 5:-0.20613974 6:-0.1888753 
0.3668400864313336 1:0.77972624 2:1.8329343 3:3.4828365 4:0.18732249 5:-0.61529239 6:-0.84712725 
0.4665656073790426 1:0.90025931 2:0.028643049 3:1.362129 4:1.0427203 5:0.91641137 6:0.088249954 
2 1:-0.78415413 2:-0.57626291 3:-0.74606685 4:-0.79533184 5:-0.41667304 6:-1.0548917 
2 1:0.21434152 2:0.21163405 3:0.0041308179 4:-1.2223181 5:-1.2538488 6:-1.2537577 
1.575362886575431 1:-0.45082415 2:-0.79886563 3:-0.42301756 4:1.9131641 5:1.4550984 6:1.9066461 
2 1:0.2234139 2:0.37920709 3:0.20629741 4:-1.0167438 5:-0.99653918 6:-0.90393475 
0.3358254403927985 1:0.50000718 2:1.0036347 3:0.27230038 4:-0.11335754 5:-0.46792707 6:-0.31520247 
0.3684250169470712 1:0.25002114 2:1.3341087 3:4.461002 4:0.49053656 5:0.24307261 6:-2.3458124 
2 1:-0.2443398 2:-0.090534709 3:-0.058219347 4:-0.048660257 5:-0.11338674 6:-0.14017181 
2 1:0.21983069 2:0.27797802 3:0.22270534 4:1.0574495 5:1.6690699 6:1.5570615 
2 1:-0.36646625 2:-0.41424969 3:-0.26178915 4:-0.039078407 5:0.30927906 6:0.894837 
0.1857256070097866 1:0.75090809 2:0.46836654 3:0.50683738 4:0.11937846 5:0.73802178 6:0.94838701 
0.6425873973953988 1:0.99372772 2:0.69722209 3:-0.028848395 4:-0.27284387 5:-0.61201405 6:-2.3458124 
0.3027329858603491 1:1.1465097 2:1.0361059 3:0.82341407 4:0.38679918 5:-0.3348745 6:0.18883498 
1.35748867762245 1:0.8539063 2:0.84579521 3:0.89208983 4:-0.26254932 5:-0.10619039 6:-0.40943142 
0.5720735760997966 1:-0.48174649 2:-0.3117903 3:-0.042160356 4:0.48760657 5:0.40251181 6:0.086263678 
0.8774957688673444 1:1.2145144 2:0.5750464 3:0.98912682 4:-0.010332858 5:0.015667853 6:1.3525545 
2 1:-0.54723536 2:-0.40978782 3:-0.47740133 4:-0.27181441 5:-0.11930375 6:-0.043320983 
0.3383089223522044 1:1.2017063 2:2.3266207 3:2.3570737 4:0.21828533 5:0.0042336473 6:0.11001954 
2 1:-0.27872336 2:-0.79886563 3:-0.38950379 4:0.073924069 5:-0.39836232 6:-0.63221216 
2 1:-0.78415413 2:-0.14451316 3:-0.7680817 4:-0.92939855 5:-0.94632463 6:-1.1155923 
0.2924175240890621 1:1.5315903 2:0.72136133 3:0.15848423 4:-0.82288955 5:-0.65703124 6:-0.49182215 
2 1:0.25947471 2:0.33069501 3:0.61567918 4:-0.6486741 5:-1.050192 6:-0.3174271 
2 1:-0.21983674 2:-0.79886563 3:0.43029175 4:0.3312878 5:0.49710387 6:0.48097649 
2 1:-0.78241337 2:-0.33437217 3:-0.7680817 4:-1.062515 5:-1.1175978 6:-1.1188498 
2 1:1.8289205 2:1.4173501 3:1.6084708 4:-1.056655 5:-1.127113 6:-0.79135261 
2 1:-0.397137 2:-0.25129425 3:-0.065443295 4:-0.74425504 5:-0.8899532 6:-0.33085433 
0.7098747447431593 1:0.24445573 2:0.69247211 3:1.9089365 4:0.085485639 5:-0.076365507 6:-0.88041723 
2 1:-0.3131298 2:-0.21263254 3:-0.13720761 4:0.30285901 5:0.29584586 6:0.25771904 
2 1:-0.27017703 2:-0.33395946 3:-0.21342656 4:0.82788102 5:0.64638822 6:0.64385114 
2 1:-0.43562982 2:-0.58299854 3:-0.39421086 4:0.16768366 5:0.4281788 6:0.49273524 
2 1:0.45860968 2:-0.033340286 3:0.084759872 4:-0.73570264 5:-1.1519804 6:-0.82877405 
1.661710328807327 1:-0.7809098 2:-0.79886563 3:-0.38711313 4:2.5290157 5:2.4649866 6:2.1028902 
2 1:-0.061291157 2:0.20750702 3:0.20466404 4:0.52609235 5:0.5260492 6:0.62629246 
0.07452554452080686 1:1.3079066 2:1.5438864 3:0.59489084 4:0.15065806 5:0.18598154 6:0.4478454 
2 1:1.9180433 2:1.4750507 3:1.3578971 4:-1.4978952 5:-1.5983542 6:-1.5900263 
2 1:-0.24883025 2:-0.79886563 3:-0.7680817 4:0.50859162 5:0.4530462 6:0.49186128 
0.3298858259260047 1:2.4471385 2:2.5304026 3:3.5327285 4:-0.96004463 5:-0.56459808 6:-0.24655677 
0.9266035496011672 1:2.3188291 2:0.16717113 3:1.7184263 4:-0.39946682 5:-0.26275105 6:-0.72000557 
0.3411529321282977 1:0.56663963 2:2.7965572 3:2.9784223 4:1.7690404 5:1.4036045 6:-0.34205693 
1.196853747789259 1:1.9897075 2:0.49398528 3:1.9289824 4:-0.047947558 5:-0.29473484 6:-0.559435 
2 1:0.24041509 2:-0.60829802 3:0.00197774 4:-1.4183104 5:-1.4495096 6:-1.3970874 
2 1:1.0475521 2:0.64878788 3:0.62213841 4:-0.70466062 5:-0.55756165 6:-0.32576946 
2 1:-0.78415413 2:-0.32892916 3:-0.76620443 4:0.21876046 5:0.55147631 6:0.49893243 
0.1556768486796025 1:-0.75547854 2:-0.31648577 3:-0.29268953 4:1.2532043 5:1.9043107 6:1.1450284 
2 1:-0.21172497 2:-0.31889191 3:-0.25636191 4:-0.5167455 5:-0.61537235 6:-0.52439708 
2 1:-0.76882561 2:-0.19855391 3:-0.62634235 4:0.59134396 5:0.86171909 6:0.71376806 
2 1:-0.24903609 2:-0.2365771 3:-0.14065996 4:0.44025165 5:0.66126068 6:0.39556661 
2 1:-0.048483088 2:0.33349827 3:0.45590595 4:-1.3852095 5:-1.5803313 6:-1.6152918 
2 1:-0.11708249 2:-0.18632077 3:-0.042034141 4:-1.3469613 5:-1.4659013 6:-1.4024106 
0.2719271813095231 1:-0.78415413 2:0.31917047 3:-0.7680817 4:3.0649658 5:3.0410147 6:2.1715359 
0.3406575912614608 1:0.86625694 2:1.4581532 3:4.2698235 4:-0.34743975 5:0.32718998 6:-1.0045992 
2 1:0.25977967 2:0.14785974 3:-0.62548112 4:-1.3455359 5:-1.3585157 6:-1.3282828 
2 1:-0.30079441 2:-0.22435175 3:-0.33930738 4:-0.86295911 5:-0.85748965 6:-0.50922193 
0.9986201292683113 1:3.401797 2:2.3970917 3:2.1699044 4:-1.4157764 5:-1.2323397 6:-0.093216242 
0.3765200131346481 1:1.4628232 2:0.64575101 3:1.0266943 4:-0.19801041 5:-0.16096263 6:-0.67749926 
1.321939058085396 1:0.2174673 2:-0.79361815 3:0.03137839 4:0.11328092 5:0.19885502 6:0.082450028 
2 1:-0.63181435 2:-0.79886563 3:-0.7680817 4:-0.25027505 5:-0.1201833 6:-0.13810608 
0.4917869176964573 1:1.0177428 2:1.5467676 3:1.030852 4:0.23697389 5:0.22300278 6:0.44403175 
2 1:0.93929343 2:1.0458394 3:0.75763383 4:-0.33864979 5:-1.060107 6:-0.71190156 
2 1:-0.77832188 2:-0.63460979 3:-0.7674716 4:0.33572238 5:0.43729418 6:0.33295919 
1.159552199203333 1:0.49162095 2:-0.086065056 3:0.16806171 4:1.3681073 5:1.1801977 6:0.047253213 
2 1:-0.39529965 2:-0.19401417 3:0.26561841 4:-1.4846707 5:-1.4847718 6:-1.5161051 
2 1:-0.43282424 2:-0.29659815 3:-0.45653875 4:-1.0395502 5:-1.1531798 6:-0.86333526 
0.0292827336957184 1:-0.2441797 2:-0.20451085 3:-0.39444102 4:5.9306516 5:5.6511319 6:6.4883498 
2 1:-0.15596413 2:-0.037802152 3:-0.29819844 4:0.26009703 5:0.12337327 6:0.030091786 
2 1:-0.062434734 2:0.03853235 3:0.33897155 4:0.23206418 5:0.19693599 6:0.21139908 
2 1:-0.5062343 2:-0.3504598 3:-0.66829025 4:-0.62943122 5:-0.32567916 6:-0.25172108 
0.59064406924031 1:0.4146963 2:0.31099427 3:1.3409694 4:0.11890333 5:-0.10403149 6:-0.22756797 
2 1:-0.78415413 2:-0.79886563 3:-0.68439379 4:-0.10520109 5:-0.092997078 6:-0.030847168 
2 1:-0.69686867 2:-0.60492631 3:-0.5872677 4:0.59720393 5:0.21260805 6:0.92423389 
2 1:-0.090444759 2:-0.18390684 3:-0.51354335 4:1.7392654 5:1.3962482 6:1.0090082 
0.4350458216792801 1:1.0377173 2:1.8951513 3:1.4154362 4:-0.27371494 5:0.41706443 6:0.94695689 
2 1:-0.34140666 2:-0.41449887 3:-0.54058303 4:0.26880781 5:0.054048402 6:0.049557293 
0.2061235365454768 1:0.49101104 2:2.1376338 3:0.98756769 4:0.57352647 5:0.9220885 6:0.69636828 
2 1:0.0097173832 2:-0.52341355 3:-0.31001809 4:-0.81568337 5:-0.88859388 6:-0.74662167 
2 1:-0.23901835 2:-0.11031331 3:-0.31220087 4:0.52767613 5:0.68668779 6:0.49400646 
2 1:-0.54259244 2:-0.79886563 3:-0.63746411 4:-0.34767732 5:-0.24915794 6:-0.05825778 
2 1:-0.065766357 2:-0.034220201 3:-0.058486626 4:-0.67836992 5:-0.669345 6:-0.57262387 
2 1:-0.1685816 2:-0.31256898 3:-0.024527391 4:-0.63608308 5:-0.47224488 6:-0.43946391 
1.260730485129086 1:0.68778261 2:0.77236521 3:0.85170106 4:0.32265622 5:-0.25531482 6:0.19082126 
0.3910636516951509 1:2.6009878 2:2.333551 3:0.91146753 4:-0.71653894 5:0.40826889 6:-0.21572976 
1.835589615522428 1:-0.15950922 2:0.042581513 3:-0.0010662666 4:-0.006927738 5:0.078675921 6:0.87982076 
2 1:-0.53653148 2:-0.34715818 3:-0.28983113 4:-0.31988204 5:-0.29769334 6:-0.36684565 
2 1:-0.17308729 2:-0.014496107 3:-0.054484871 4:-0.65263355 5:-0.83302205 6:-0.74376143 
2 1:-0.24503357 2:-0.22741977 3:-0.27830103 4:-0.49029642 5:-0.15616507 6:-1.1024829 
2 1:-0.17022835 2:-0.25560817 3:-0.094858793 4:0.61391277 5:0.27457664 6:-0.50969864 
0.1008617891445496 1:2.261574 2:2.3575345 3:1.2931563 4:1.9084919 5:0.87147415 6:0.90643686 
2 1:-0.46780247 2:-0.54172044 3:-0.58651041 4:-1.1179472 5:-1.1575776 6:-1.13474 
0.9763354830903127 1:0.35523027 2:0.58758323 3:0.51478149 4:0.042961232 5:0.033498816 6:0.28369953 
2 1:-0.075242802 2:-0.27438227 3:-0.070373101 4:0.028786429 5:-0.05893434 6:0.35592054 
0.1807455196950249 1:-0.30726706 2:-0.17738146 3:-0.1163673 4:4.9274873 5:4.9535654 6:6.7568943 
0.1790341475133614 1:0.83652393 2:0.35016214 3:2.9418942 4:-0.20664199 5:-0.83062326 6:-0.066759042 
2 1:-0.61764924 2:-0.62833359 3:-0.63505118 4:1.3651773 5:1.9500475 6:1.6888708 
2 1:0.45830472 2:0.18515876 3:0.076073316 4:-0.17979698 5:-0.1872693 6:-0.20341485 
2 1:2.5688914 2:1.6845948 3:0.20555496 4:-0.96677568 5:-1.1089622 6:-1.2149062 
2 1:-0.45139594 2:-0.63483561 3:-0.60989729 4:0.86248655 5:0.8179013 6:0.99240289 
2 1:0.25650141 2:0.170208 3:0.63490839 4:-0.9793667 5:-0.36813764 6:-0.74693947 
0.6712922526516066 1:-0.060711744 2:-0.084009327 3:0.38804687 4:0.013819738 5:-0.76513645 6:-0.79484845 
0.6816069997109387 1:0.53202735 2:0.51555485 3:1.2134924 4:-0.073921497 5:-0.26339073 6:-2.3458124 
2 1:-0.26727996 2:-0.063257369 3:-0.024156171 4:0.18518439 5:0.24235297 6:0.12058653 
2 1:2.9073903 2:2.2391744 3:1.8008372 4:-0.59355867 5:-0.49575297 6:-0.39973839 
2 1:-0.49498912 2:-0.31123743 3:-0.30759774 4:0.61058684 5:0.78064018 6:0.71885293 
2 1:-0.31224543 2:-0.79597274 3:-0.3408368 4:0.56505326 5:0.43521523 6:0.56821374 
2 1:-0.45536034 2:-0.79886563 3:-0.7680817 4:-0.64059684 5:-0.70036927 6:-0.66256246 
2 1:-0.26699026 2:-0.29303177 3:-0.41478389 4:0.49093251 5:0.67293476 6:0.74856762 
2 1:-0.2275597 2:-0.041391891 3:-0.21654481 4:0.0068511204 5:-0.19510533 6:-0.45598973 
2 1:-0.38965038 2:-0.60704434 3:-0.53036705 4:0.87586946 5:0.81950049 6:0.76684136 
2 1:0.72216617 2:1.3861248 3:1.1408817 4:-0.94919576 5:-0.72107878 6:-0.87120091 
0.356732538909065 1:3.1622556 2:1.4726367 3:0.89936575 4:1.1573858 5:2.8679824 6:1.2297232 
0.1834870656435302 1:-0.17952182 2:-0.39525756 3:-0.36035557 4:6.8959635 5:6.0205447 6:5.5965117 
2 1:-0.78415413 2:-0.40997471 3:-0.7680817 4:-0.59553839 5:-0.43178539 6:-0.47156214 
2 1:-0.19619518 2:-0.56923139 3:-0.72944583 4:-1.130855 5:-1.1866029 6:-0.86508318 
2 1:0.19154621 2:-0.0030494353 3:-0.27169331 4:0.79628468 5:0.5720259 6:0.67634662 
1.515437588389128 1:1.2825192 2:1.1019826 3:0.59377718 4:1.2766442 5:0.077156691 6:0.14442185 
0.248553380646347 1:1.9305464 2:3.490132 3:3.3636747 4:0.82598049 5:-0.17639481 6:-0.34547332 
1.915358370366792 1:-0.098533664 2:0.22899873 3:0.29093564 4:0.2205818 5:1.0461056 6:2.0377403 
0.3574632077627473 1:0.44625904 2:0.6554067 3:0.71590866 4:1.6240456 5:1.3948889 6:1.4591778 
0.2283719674825042 1:2.3423868 2:-0.23058901 3:0.45419834 4:0.12040792 5:0.42641969 6:0.23229471 
0.2398672760224899 1:0.31131689 2:-0.074376992 3:-0.11569168 4:3.2301537 5:2.5138418 6:-2.3458124 
1.540813241474313 1:0.92183481 2:0.76294312 3:0.44127987 4:0.14931185 5:0.36285191 6:0.25835465 
2 1:0.0061341737 2:0.12963851 3:0.35367187 4:0.035834236 5:-0.081003156 6:-0.16130579 
2 1:-0.19289406 2:0.2671543 3:1.161967 4:-1.3713515 5:-1.2964672 6:-1.2854587 
1.311164266240322 1:0.78376688 2:1.9306593 3:1.4669616 4:-0.81718796 5:-0.48575803 6:-0.90711279 
2 1:-0.66256897 2:-0.12255424 3:-0.61991282 4:-0.57993819 5:-0.51974081 6:-0.5824758 
2 1:-0.78415413 2:-0.79886563 3:-0.44267739 4:0.89170723 5:0.92600651 6:0.66490567 
1.787900361154295 1:0.63472061 2:0.63274697 3:0.49933873 4:1.4708944 5:1.3526703 6:1.9891958 
2 1:0.090377717 2:-0.27620439 3:-0.061337598 4:-1.7103827 5:-1.4873305 6:-1.5089545 
2 1:-0.13579142 2:-0.0032830408 3:0.21906738 4:-1.1423373 5:-1.3315694 6:-1.4210816 
0.1197377262577449 1:0.90681582 2:-0.77484631 3:1.2033209 4:0.42512658 5:0.66877687 6:0.7692249 
0.6521051468671586 1:1.3294821 2:1.3189243 3:1.1111841 4:0.14456051 5:0.093868222 6:-0.050551028 
2 1:-0.77082154 2:-0.27072245 3:-0.7680817 4:0.12104143 5:0.22859994 6:0.38468182 
2 1:0.22105051 2:0.22962168 3:-0.0024769038 4:-0.85907886 5:-0.85293196 6:-0.75115038 
0.9353001384040807 1:-0.38326159 2:0.065942066 3:-0.12068088 4:0.21171265 5:1.1777989 6:1.1888853 
2 1:0.41591612 2:0.63523876 3:0.32070751 4:-0.919104 5:-0.93896836 6:-0.88597881 
0.2195587473783554 1:-0.2531301 2:-0.31933576 3:0.61412005 4:1.1353713 5:1.0724923 6:1.0046384 
2 1:-0.065194568 2:-0.11583419 3:-0.34866955 4:-0.29794673 5:-0.85237224 6:-0.52654226 
2 1:-0.62924512 2:-0.52544592 3:-0.72839379 4:-0.15350628 5:-0.19782395 6:-0.25839497 
2 1:-0.53713376 2:-0.40338703 3:-0.44743643 4:0.71464098 5:0.7529742 6:0.68389447 
2 1:-0.78106891 2:-0.79886563 3:-0.45685058 4:-0.41791782 5:-0.41555361 6:-0.29478355 
2 1:-0.78415413 2:-0.56014413 3:-0.7680817 4:0.64653858 5:0.63191555 6:0.67833289 
0.2842822428298462 1:-0.0255353 2:0.25150273 3:0.43400395 4:-0.99845122 5:0.03757675 6:0.1485533 
0.04581336237653888 1:0.74343672 2:1.046696 3:0.60469105 4:0.49623816 5:0.3691687 6:1.1811786 
2 1:-0.35533543 2:-0.43594385 3:-0.094101504 4:-0.16791865 5:-0.46488861 6:-0.5638048 
0.209707319017908 1:-0.14252328 2:-0.20908952 3:-0.35374042 4:1.7243779 5:3.494145 6:4.0527778 
2 1:-0.50242999 2:-0.28924736 3:-0.13121611 4:-1.5097736 5:-1.3971362 6:-1.363718 
2 1:-0.35872042 2:-0.58717229 3:-0.55275164 4:1.6391707 5:1.3337998 6:0.82507898 
2 1:0.24155866 2:-0.13807344 3:-0.25284274 4:-0.12816585 5:-0.14017317 6:-0.022584259 
2 1:0.0094124292 2:0.20665047 3:-0.050059925 4:-0.92821071 5:-1.0884126 6:-0.9987993 
2 1:-0.006597656 2:-0.028660389 3:0.086764462 4:-0.077089051 5:-0.32104151 6:-0.37383735 
2 1:-0.46897654 2:-0.40655628 3:-0.72470683 4:0.49267466 5:0.33526589 6:0.45388368 
1.976179867736079 1:0.16318549 2:0.55783746 3:0.43905255 4:0.13054409 5:0.31943391 6:-0.3893303 
0.2198922486291371 1:-0.33626056 2:-0.59319931 3:-0.66759235 4:3.9100691 5:4.0885638 6:2.1330022 
2 1:0.33281615 2:0.17378996 3:0.089956956 4:-0.098470038 5:-0.26275105 6:-0.2380555 
1.514173978148684 1:-0.55203839 2:-0.52233897 3:-0.46364391 4:3.5171341 5:3.4253799 6:3.7368805 
0.6113282996073754 1:0.47934655 2:0.53837033 3:0.86046186 4:0.6569915 5:0.054448199 6:-0.32743793 
1.892366563382562 1:1.2226719 2:-0.45115936 3:0.91889194 4:-0.27426926 5:-0.40899694 6:-0.14875252 
0.3226141128179442 1:1.9670647 2:3.2282602 3:3.1020386 4:-0.32407905 5:1.3903312 6:-0.67591023 
1.137545312468717 1:3.1128531 2:0.82500432 3:0.8174003 4:-0.51151903 5:-1.0688225 6:-1.1128116 
2 1:0.88485914 2:0.82181171 3:0.52124073 4:-0.046601347 5:-0.14960839 6:0.016664559 
1.90356020602878 1:-0.64832761 2:0.14163026 3:-0.40600824 4:0.39907345 5:0.05276905 6:-0.18394934 
2 1:-0.78415413 2:-0.22219479 3:-0.7680817 4:-0.47493379 5:-0.50542807 6:-0.51724649 
2 1:0.21563757 2:0.32539995 3:0.73684549 4:-1.2158246 5:-1.1973174 6:-1.2252348 
2 1:-0.021616641 2:-0.16603602 3:0.20689136 4:-0.45133551 5:0.41538528 6:-0.25887168 
2 1:-0.2949088 2:-0.24596026 3:-0.30995127 4:-0.50740121 5:-0.53085518 6:-0.59765095 
2 1:-0.00080352992 2:-0.007877283 3:0.14222478 4:-0.43288451 5:-0.61017498 6:-0.32449825 
1.13420764886629 1:0.18834419 2:0.65190262 3:0.35367187 4:-0.15604033 5:-0.072367533 6:-0.99625686 
2 1:-0.025230346 2:0.32438766 3:0.020613 4:-0.38125339 5:-0.30624901 6:-0.040858 
0.3141440459301393 1:-0.29987192 2:-0.53686145 3:-0.42936543 4:5.1367042 5:7.5981452 6:5.1519831 
0.4484115846567063 1:0.083821206 2:1.9228725 3:2.5647344 4:-0.95584762 5:-1.0629855 6:-1.3674522 
1.360027670099861 1:1.4671688 2:2.8865732 3:3.444675 4:-0.33960006 5:-0.44561838 6:-0.40506161 
1.874817827760925 1:-0.78415413 2:3.4227758 3:3.5266405 4:-0.49742342 5:-1.1713306 6:-0.89622799 
2 1:0.044100947 2:-0.11433911 3:-0.3646246 4:-1.0157144 5:-1.1120806 6:-0.69124429 
0.3589320926160726 1:0.86274997 2:1.012356 3:0.91599642 4:2.2444902 5:2.6285837 6:2.7146633 
2 1:-0.6994989 2:-0.79886563 3:-0.7680817 4:-0.21780762 5:-0.40244026 6:-0.36414432 
2 1:-0.78415413 2:-0.52542256 3:-0.7680817 4:-0.35290378 5:-0.38900707 6:-0.21183666 
2 1:0.187963 2:0.056052765 3:-0.088221374 4:-0.087621167 5:0.16631151 6:0.097942982 
1.873950267124679 1:0.79710862 2:1.1568799 3:0.98511764 4:0.017937558 5:-0.12658006 6:0.16793936 
2 1:-0.29786685 2:-0.18089333 3:-0.41847382 4:-0.2967589 5:-0.26786846 6:-0.3136929 
2 1:-0.78415413 2:-0.79886563 3:-0.49066132 4:-0.26825091 5:-0.53773169 6:-0.54497491 
2 1:-0.63762373 2:-0.69741074 3:-0.70767079 4:0.14384782 5:0.06204435 6:0.3225511 
2 1:-0.35378017 2:-0.43821761 3:-0.15537513 4:-0.50494636 5:-0.7608986 6:-1.1188498 
0.1671228436509873 1:1.2155818 2:1.479022 3:-0.06356492 4:-0.035752476 5:-0.060053773 6:0.018809738 
0.7939234812673499 1:-0.18321939 2:0.4175184 3:0.020835732 4:0.51785671 5:-0.46632788 6:-0.32187636 
2 1:-0.45187624 2:-0.27194498 3:-0.21220896 4:-0.83358005 5:-0.77521134 6:-0.88089394 
0.8090907569999289 1:0.55954945 2:1.2067158 3:1.3669549 4:-0.43914043 5:-0.71652109 6:-1.030977 
2 1:-0.68822322 2:0.52155073 3:-0.12062148 4:-0.96503352 5:-1.1127203 6:-1.1897996 
0.223381257233846 1:-0.57866087 2:-0.51786932 3:0.92059955 4:1.567188 5:1.72808 6:1.3461984 
2 1:-0.57417042 2:-0.3367238 3:-0.17339416 4:0.40944719 5:0.49870306 6:0.63201293 
0.8309440748620638 1:0.55505138 2:0.5906201 3:0.45323316 4:-0.47889323 5:-0.14904867 6:-0.67257329 
0.3082687779079692 1:-0.089255439 2:0.12403198 3:0.12811841 4:0.28203234 5:-0.13809422 6:-0.04769079 
2 1:0.5548989 2:0.10207306 3:0.05951689 4:-1.2967556 5:-1.2301808 6:-1.1360113 
2 1:1.1180727 2:0.52653432 3:0.29887975 4:0.40635882 5:0.52413017 6:0.40955 
2 1:0.18659071 2:0.72502115 3:0.054022829 4:-0.8254236 5:-1.1690917 6:-1.1352167 
2 1:-0.68491447 2:-0.79886563 3:-0.65103593 4:0.0032084337 5:-0.13193734 6:-0.011620014 
0.01415416599493168 1:-0.24202977 2:0.074351866 3:0.36087355 4:1.0215769 5:1.3350792 6:1.9042626 
2 1:-0.78415413 2:-0.79886563 3:-0.26763958 4:0.45798995 5:0.48063222 6:0.11748794 
0.8962553823924385 1:0.40204071 2:0.42732983 3:0.11713028 4:0.22010667 5:-0.5829088 6:-0.035455329 
0.4330634565655043 1:0.81334742 2:0.572321 3:0.34728688 4:1.6019519 5:1.8334666 6:1.7222402 
2 1:-0.46867159 2:-0.4633925 3:-0.27947408 4:-0.069724489 5:-0.37301517 6:-0.7032414 
0.1191390409127556 1:-0.33340161 2:-0.42557956 3:-0.49504172 4:4.895495 5:4.835945 6:6.0815604 
2 1:-0.48875281 2:-0.43373239 3:-0.27054252 4:0.54359308 5:0.47567473 6:0.63503207 
2 1:0.17934805 2:0.32360897 3:-0.17398069 4:-0.99465015 5:-0.5947428 6:-0.54632557 
2 1:-0.78268311 2:-0.7983876 3:-0.39499042 4:0.41087259 5:0.4931059 6:0.45110289 
0.9882036898498457 1:-0.7789138 2:-0.38462072 3:-0.7648275 4:-0.11058593 5:-0.31056682 6:-0.30225195 
0.2400336794435937 1:0.38671677 2:0.70532042 3:1.7572559 4:0.094513167 5:1.1162301 6:1.1019659 
2 1:1.9784242 2:1.3165882 3:1.405636 4:-0.26872605 5:-0.065810855 6:-0.1354842 
0.9479213960242682 1:1.4099899 2:1.1050974 3:0.9818509 4:0.042486099 5:0.26897948 6:1.1040316 
2 1:-0.18937184 2:0.02599552 3:0.16182521 4:-0.82962061 5:-0.95016268 6:-1.0086512 
2 1:-0.05553515 2:-0.16354423 3:-0.031981495 4:-0.24259373 5:-0.23844337 6:-0.31965173 
2 1:-0.70722948 2:-0.79886563 3:-0.75860964 4:0.3753168 5:0.70819689 6:1.0502433 
0.1590823046301506 1:1.2289997 2:0.49055906 3:0.38218159 4:-0.11240727 5:-0.68221847 6:-0.80628941 
0.3698143438346981 1:3.2255336 2:4.5531151 3:5.0470104 4:0.96178935 5:4.019159 6:3.5069491 
2 1:-0.45081653 2:-0.11352149 3:0.19412138 4:-0.33524467 5:-0.33879251 6:-0.094249105 
2 1:-0.29341452 2:-0.20906616 3:-0.28300068 4:-0.49750261 5:-1.1669328 6:-1.1979831 
1.141910542073021 1:1.1276025 2:1.0794008 3:0.61642162 4:-0.07510933 5:-0.75362229 6:-0.50477268 
0.3584117497639527 1:-0.78415413 2:-0.34169181 3:0.0087339499 4:1.3871918 5:0.54811802 6:-0.40490271 
1.339033316892212 1:0.64486033 2:0.30780166 3:0.23540108 4:-0.18193508 5:0.1919785 6:-0.26896196 
2 1:0.057900116 2:-0.4113374 3:-0.49056481 4:0.20775321 5:0.21476695 6:0.30022535 
2 1:-0.49209968 2:-0.79886563 3:-0.7680817 4:0.76943966 5:0.84052983 6:0.68405337 
1.247860146496262 1:0.16852218 2:0.68795574 3:1.3011004 4:-0.31180478 5:0.35453612 6:0.52411841 
0.4620204378620559 1:1.6052367 2:0.65174688 3:-0.2173615 4:-0.59308354 5:-0.78936417 6:-1.1640575 
0.9220090353690512 1:0.64074346 2:0.20875292 3:-0.038002689 4:0.54493929 5:0.57642367 6:0.44387285 
2 1:0.27403627 2:0.47607552 3:0.64515407 4:-0.32780092 5:-0.52749688 6:-0.42842022 
2 1:-0.48507049 2:-0.58288952 3:-0.57176554 4:1.9850676 5:0.93512189 6:0.44999058 
2 1:-0.084025478 2:0.27953539 3:0.52190892 4:-0.61834478 5:-0.49679244 6:-0.47362786 
2 1:-0.09203052 2:0.27618705 3:-0.15408328 4:-1.1394865 5:-1.2871919 6:-1.1035158 
0.124786218341308 1:-0.47664613 2:0.18453581 3:-0.017474205 4:3.0002685 5:1.7377551 6:2.979712 
0.3060542689831994 1:1.0204112 2:0.82547153 3:0.30051312 4:-0.19991094 5:-0.94208678 6:-0.4729128 
2 1:-0.76270747 2:-0.59892265 3:-0.58299867 4:-0.59363786 5:-0.62840574 6:-0.77800483 
1.690302322255405 1:-0.24918857 2:-0.098780984 3:0.13546857 4:0.69523971 5:0.51413524 6:0.72163372 
2 1:-0.43662854 2:-0.36934292 3:-0.36927228 4:-1.2075098 5:-1.1795664 6:-1.2416017 
0.3280035954597841 1:-0.040676266 2:0.29915826 3:-0.23500931 4:5.0549814 5:2.3622387 6:2.8765845 
2 1:-0.47534246 2:-0.37318183 3:-0.29163526 4:-0.83730192 5:-0.67502212 6:-0.50413707 
1.222798233807669 1:1.0493818 2:0.75741445 3:1.1545426 4:0.83865071 5:0.53092673 6:-0.082331448 
2 1:0.33868651 2:-0.067026205 3:0.44261626 4:-0.52569383 5:-0.54396853 6:-0.43700093 
2 1:-0.78200969 2:-0.61611602 3:-0.76621899 4:0.50724541 5:0.45088729 6:0.51402813 
2 1:-0.7772595 2:-0.42377301 3:-0.7680817 4:-1.020149 5:-0.8958702 6:-1.0094457 
2 1:-0.78415413 2:-0.6041632 3:-0.46803916 4:-0.90271191 5:0.12609189 6:0.086581482 
2 1:-0.56428991 2:-0.7358334 3:-0.60593266 4:1.7505894 5:1.5360174 6:1.3746419 
1.797131203793001 1:-0.31260375 2:1.0417903 3:1.7959371 4:-0.54256106 5:-0.67142394 6:-0.82654942 
2 1:-0.21048228 2:0.053638842 3:0.27118672 4:-0.78614593 5:-0.58978531 6:-0.45233498 
0.1501306696225592 1:0.84811218 2:0.97202007 3:1.1344967 4:1.9322486 5:1.1671643 6:-0.33307896 
2 1:-0.78415413 2:-0.79886563 3:-0.57766052 4:0.28282423 5:0.20357263 6:0.1978924 
2 1:-0.55193165 2:-0.5367135 3:-0.22396922 4:1.1657006 5:0.50517978 6:0.85733611 
2 1:-0.2075166 2:-0.16018809 3:0.13338973 4:-0.5805717 5:-0.77377207 6:-0.76139956 
2 1:-0.78415413 2:-0.66536006 3:-0.7680817 4:0.1021153 5:0.14840059 6:0.12670426 
0.2360426735587687 1:-0.63981177 2:-0.79886563 3:-0.7680817 4:3.6161993 5:3.3636512 6:2.2934138 
0.2634675146378874 1:1.2797746 2:0.97077418 3:0.37149045 4:-0.55705262 5:0.49510488 6:0.24206719 
2 1:-0.78415413 2:-0.52680862 3:-0.58087529 4:0.93541947 5:0.63567365 6:1.1661623 
2 1:2.1392874 2:2.3702271 3:2.2864676 4:-0.46764841 5:-0.31688362 6:-0.6995072 
2 1:-0.55933441 2:0.028253707 3:0.021726661 4:-0.68739745 5:-0.55460314 6:-0.36557444 
0.2058089854144824 1:3.4485312 2:3.6619878 3:2.6873113 4:1.296679 5:1.4176773 6:1.0597774 
0.4113932591961237 1:0.17484998 2:-0.19337565 3:0.82831418 4:0.012552717 5:0.20821028 6:0.073789863 
0.3703690102463914 1:-0.14523737 2:0.0017784125 3:0.31061032 4:0.90477339 5:0.81942053 6:1.2797773 
2 1:-0.43750529 2:-0.7980076 3:-0.76697353 4:0.52530046 5:0.59553399 6:0.25366704 
2 1:0.4083685 2:0.62340274 3:0.57684953 4:-1.2556566 5:-1.2794358 6:-1.1953612 
0.2423184237246241 1:1.817561 2:1.2359943 3:-0.25792846 4:-0.14495389 5:0.52357046 6:1.2156603 
2 1:-0.49199294 2:-0.32421811 3:-0.44402863 4:0.6825695 5:0.70227989 6:0.87028663 
2 1:0.010556007 2:-0.50699887 3:-0.090909009 4:-0.38584634 5:-0.416753 6:-0.10433939 
2 1:-0.12620062 2:0.1769047 3:0.046821155 4:-0.42068943 5:-0.52517806 6:-0.31218333 
2 1:0.16806475 2:0.0898477 3:-0.039435599 4:-0.04707648 5:-0.49911127 6:-0.26610172 
0.3697227235403566 1:2.2243696 2:3.2965509 3:4.3347871 4:-0.25534313 5:0.9617484 6:4.007888 
2 1:-0.78323721 2:-0.52757952 3:-0.59711246 4:-0.97572402 5:-0.8427771 6:-0.76664333 
2 1:-0.39626788 2:-0.47691827 3:-0.44941875 4:0.85417172 5:0.53580426 6:0.63805121 
2 1:-0.44047859 2:-0.35522535 3:0.00034437062 4:-0.40073384 5:-0.44801716 6:-0.22828302 
2 1:0.62130264 2:0.56858331 3:0.33466539 4:-0.57922549 5:-0.66158893 6:-0.38837689 
2 1:-0.77967031 2:-0.54247577 3:-0.76660372 4:2.3947114 5:2.3942224 6:2.2539266 
2 1:-0.46677325 2:-0.79886563 3:-0.7680817 4:-0.054045098 5:0.0038338499 6:-0.10338598 
2 1:-0.42807458 2:-0.50351815 3:-0.30315052 4:0.4923579 5:0.60712811 6:0.78996162 
2 1:-0.6210876 2:-0.20949443 3:-0.19346234 4:-1.0250587 5:-1.3160573 6:-0.99236376 
2 1:-0.5201097 2:-0.12010138 3:0.067461005 4:-0.26872605 5:-0.17615494 6:0.26780932 
2 1:-0.049413198 2:0.23585116 3:-0.12060663 4:0.70893938 5:0.52205123 6:0.56257272 
2 1:0.7037927 2:0.16234328 3:0.420937 4:-0.76706142 5:-0.90834388 6:-1.0888968 
2 1:-0.60607624 2:-0.70161564 3:-0.60769224 4:0.87254353 5:1.1215874 6:0.9782606 
2 1:-0.18196146 2:-0.3900793 3:-0.41548179 4:-0.57875036 5:-0.56283897 6:-0.61520963 
2 1:-0.65344322 2:-0.79886563 3:-0.7680817 4:0.15628046 5:0.11313846 6:0.015870049 
2 1:-0.14051058 2:-0.17200853 3:-0.28971976 4:0.6811441 5:0.76424849 6:0.68127258 
0.2519348268757926 1:2.1012444 2:1.9880484 3:0.86692109 4:-0.58532303 5:0.65902181 6:0.963006 
0.4460097533519961 1:0.95949663 2:1.7929878 3:1.480771 4:1.1081303 5:0.77240435 6:-0.92554543 
2 1:0.19977997 2:0.078946108 3:0.1557372 4:0.68035221 5:0.68085075 6:1.2479969 
2 1:-0.41169093 2:-0.19198181 3:-0.4744093 4:0.079071343 5:-0.1294586 6:-0.28532888 
0.2188580519083658 1:0.069564606 2:-0.79886563 3:0.39094239 4:-0.05800454 5:-0.01767525 6:-0.53766541 
0.005171083662927568 1:-0.78415413 2:1.0530812 3:0.40928068 4:0.17393957 5:0.099305467 6:-0.052140049 
2 1:0.32976661 2:0.24511751 3:0.46251367 4:-0.72018163 5:-0.79504129 6:-0.25021151 
2 1:0.024507652 2:0.21685124 3:-0.18896314 4:-0.47239974 5:0.23675581 6:0.709001 
0.3697098860824642 1:2.0677757 2:4.156375 3:6.2597872 4:3.559025 5:-0.40995645 6:-0.076531521 
2 1:1.1025963 2:0.41113318 3:0.088472075 4:-0.13679744 5:-0.21837354 6:-0.12730074 
2 1:-0.32539657 2:-0.37279249 3:0.29115837 4:-0.1803513 5:-0.34390992 6:0.16778045 
2 1:-0.37597319 2:-0.16227497 3:-0.57842523 4:-0.089838454 5:0.01454842 6:-0.035614231 
2 1:-0.78415413 2:-0.57288342 3:-0.76544521 4:-0.8098234 5:-0.58058997 6:-0.66725007 
0.272259015653962 1:-0.0032431619 2:1.954565 3:3.2240959 4:0.17671118 5:1.3404365 6:0.26796823 
0.08703551642171985 1:1.4623658 2:0.4541166 3:0.43838435 4:0.0026541118 5:0.34422135 6:0.61596382 
2 1:-0.47281134 2:-0.79886563 3:-0.7680817 4:-0.038840841 5:-0.041823012 6:0.022702839 
0.03900095236525869 1:-0.17070103 2:-0.61486233 3:-0.70638191 4:3.2216805 5:2.2833186 6:3.1227239 
2 1:-0.089438411 2:-0.3974223 3:-0.29571126 4:0.71353234 5:0.75193473 6:0.5841834 
0.8007938491755006 1:0.34082119 2:3.0922239 3:3.4414825 4:-0.81330771 5:-0.081562873 6:-0.41292726 
2 1:0.088166801 2:0.12169592 3:0.082309818 4:0.46978908 5:0.21340764 6:0.84994716 
2 1:0.53637295 2:0.78381188 3:1.0511206 4:-0.48522834 5:-0.80999372 6:-0.4610746 
2 1:-0.68913808 2:-0.79886563 3:-0.69244184 4:0.03147885 5:-0.084601333 6:-0.79008139 
2 1:-0.63530608 2:-0.77034395 3:-0.5603468 4:0.049058773 5:-0.3011316 6:0.7314062 
0.8226037734341373 1:0.36910568 2:-0.13979433 3:0.8755334 4:-1.0860341 5:-0.46360926 6:-0.35079654 
2 1:-0.78415413 2:-0.55302695 3:-0.7680817 4:-0.013183656 5:-0.041823012 6:-0.0036749094 
