svm_type c_svc
kernel_type rbf
gamma 2
nr_class 2
total_sv 16863
rho -0.64448
label 1 -1
nr_sv 9386 7477
SV
0.07802925328907495 1:-0.77783753 2:-0.32939096 3:-0.78924187 4:2.6692658 5:1.8138488 6:2.0303948 
2 1:-0.15273139 2:-0.071829365 3:-0.11356846 4:0.0087349097 5:0.21566613 6:-1.0390737 
2 1:0.6520207 2:0.5069229 3:0.3185997 4:-0.41101875 5:-0.5829104 6:-0.59589598 
2 1:-0.24901228 2:0.099299062 3:0.203543 4:-0.64014637 5:-0.21375785 6:-0.047647781 
2 1:0.16221419 2:0.75602201 3:0.80417929 4:-0.60525185 5:-0.85250819 6:-0.54359599 
2 1:0.44230816 2:0.25970261 3:0.31348262 4:-0.38592606 5:-0.69513722 6:-0.36419211 
2 1:0.82752214 2:0.78154254 3:0.82433747 4:-0.76270848 5:-0.11554949 6:0.083298227 
2 1:-0.50811992 2:-0.58235729 3:-0.53043966 4:-1.0990289 5:-1.1331148 6:-1.2974373 
2 1:-0.77783753 2:-0.80589673 3:-0.033873863 4:0.11765287 5:0.028199038 6:0.16155219 
2 1:-0.27422601 2:-0.10287673 3:-0.79591516 4:-1.07276 5:-1.0692002 6:-1.0308406 
2 1:-0.77713928 2:-0.4742943 3:-0.79574423 4:-0.28571213 5:-0.34586393 6:-0.21701507 
0.1551010636522173 1:2.5691987 2:2.8159041 3:2.5956989 4:0.33070549 5:1.1512592 6:0.02252987 
0.1032354440439166 1:0.2665053 2:0.58998203 3:0.7509927 4:4.3336953 5:3.8908764 6:3.667612 
2 1:-0.080782584 2:-0.25518572 3:-0.13473455 4:-0.24924931 5:0.019328605 6:-0.15311029 
2 1:-0.25348836 2:0.16951965 3:0.80146568 4:-1.1808154 5:-1.2046327 6:-1.1058797 
2 1:-0.77783753 2:-0.50379947 3:-0.79591516 4:-0.23685979 5:-0.31751023 6:-0.22987444 
2 1:0.6076367 2:0.86186174 3:0.77626796 4:-0.83696716 5:-0.77956473 6:-0.10402513 
2 1:-0.28723226 2:-0.80589673 3:-0.79591516 4:0.33619452 5:0.49841116 6:0.19864049 
0.002967140614590599 1:0.17864155 2:1.5772193 3:1.5726712 4:0.1617219 5:0.19428205 6:0.59194898 
2 1:0.3084026 2:-0.17946962 3:-0.33130784 4:-0.57749306 5:-0.56223913 6:-0.74895383 
2 1:-0.29137678 2:-0.27592311 3:0.21284678 4:-0.59497953 5:-0.73101495 6:-0.61095085 
2 1:-0.19673109 2:-0.58781367 3:-0.54470545 4:0.90948407 5:0.65673254 6:0.70540938 
0.1044779130306767 1:0.086030442 2:-0.083337086 3:-0.27050766 4:0.73516829 5:0.96711848 6:0.75112287 
2 1:0.0081135296 2:0.22604056 3:0.42590325 4:0.77069013 5:1.1062734 6:0.72344386 
2 1:-0.77111912 2:-0.52262673 3:-0.79591516 4:0.98656568 5:0.77006816 6:0.9135116 
2 1:-0.41925395 2:-0.43220109 3:-0.42357028 4:0.73046341 5:0.73854644 6:0.85180232 
2 1:-0.5206439 2:-0.79863896 3:-0.79591516 4:-0.96909586 5:-1.011384 6:-0.92247689 
0.4494907158902253 1:1.7167093 2:2.1095492 3:1.3518616 4:-0.033138517 5:-0.49658209 6:-0.76565533 
2 1:-0.49995146 2:-0.58732831 3:-0.70321078 4:0.096167252 5:0.04245509 6:0.15198607 
2 1:-0.62008216 2:-0.76848411 3:-0.75049955 4:1.784278 5:2.0906538 6:2.0325119 
2 1:-0.16467514 2:-0.087032083 3:-0.43751819 4:-1.0380223 5:-0.84197455 6:-1.1893088 
0.2220321970480392 1:4.2041729 2:2.6493944 3:1.3746558 4:0.46299102 5:0.77101856 6:-0.83277496 
2 1:0.37976364 2:0.4745134 3:0.23788944 4:-1.3646978 5:-1.5585788 6:-1.6414411 
0.1813286641191149 1:-0.77783753 2:0.51208964 3:-0.79591516 4:-0.50880182 5:0.2350702 6:0.19691545 
2 1:-0.27729296 2:-0.73854838 3:-0.79591516 4:-1.2513886 5:-1.2759921 6:-1.0516979 
0.2072814965475693 1:0.09688154 2:-0.065183069 3:0.49211513 4:2.7155304 5:2.4594104 6:1.4943003 
0.002686303330673045 1:-0.050768748 2:-0.2119026 3:-0.14823278 4:3.6616033 5:3.6412371 6:5.6568935 
2 1:1.9527207 2:1.3208398 3:1.4740512 4:-0.26955871 5:-0.068583717 6:-0.14079979 
0.9709054399054672 1:-0.0057517624 2:0.80432313 3:0.86170764 4:-0.18565502 5:-0.69585002 6:-0.95321392 
0.06948110557691406 1:1.4135568 2:0.9065618 3:0.0092491399 4:1.0518067 5:2.2052566 6:2.0982201 
2 1:0.77341736 2:0.52829439 3:0.39760427 4:-0.51060536 5:-0.34158712 6:0.20444289 
2 1:-0.43244859 2:-0.80589673 3:-0.79591516 4:-0.59043148 5:-0.2809989 6:-0.52030798 
2 1:0.1234818 2:-0.26374215 3:-0.30089999 4:-0.68782248 5:-0.93836131 6:-0.77028156 
1.600336401461298 1:1.0752135 2:1.9599489 3:1.8513193 4:-0.86935241 5:-1.2961882 6:-0.059017345 
2 1:-0.77783753 2:-0.80589673 3:-0.2733143 4:0.4500526 5:0.47267107 6:0.10886014 
1.818451428283292 1:1.0084491 2:0.61777279 3:0.87806678 4:0.18007093 5:-0.47804922 6:0.3390742 
2 1:0.14812284 2:0.049432269 3:-0.11663095 4:-1.0414726 5:-0.20868903 6:-0.51262373 
1.052461178451995 1:0.59927231 2:-0.21188694 3:-0.40707159 4:0.67408327 5:0.6713054 6:0.46962816 
2 1:-0.77783753 2:-0.20967151 3:-0.79272994 4:-0.73251884 5:-0.92854047 6:-0.64372656 
2 1:-0.19052185 2:-0.25275893 3:-0.39874471 4:0.10259725 5:-0.076978948 6:-0.070778962 
0.4204342846024097 1:0.56408159 2:0.84323019 3:2.2636316 4:-0.81587362 5:-1.3943966 6:-0.2550443 
2 1:-0.65096257 2:-0.80589673 3:-0.44515504 4:-0.45367632 5:-0.46157556 6:-0.51528969 
0.3561539473826729 1:-0.63774533 2:1.7991539 3:2.8272854 4:-1.3733234 5:-1.4037422 6:0.11160452 
2 1:-0.29347164 2:-0.799491 3:-0.41200259 4:-0.74584933 5:-0.70875967 6:-0.65219492 
0.4585553089557862 1:-0.073578661 2:0.35716596 3:0.65462108 4:0.33486147 5:0.86043569 6:1.0204639 
0.5322473638375248 1:-0.085153165 2:-0.014760462 3:0.41900295 4:1.8771993 5:1.1886417 6:1.4437253 
2 1:1.6136239 2:2.1439941 3:1.7898368 4:-0.84849412 5:-0.42395542 6:-0.56068954 
1.367335072744121 1:3.6194192 2:1.66294 3:0.87636108 4:-0.43909119 5:-0.4441515 6:-0.25629888 
2 1:-0.21954854 2:-0.29615165 3:-0.27676445 4:0.10463603 5:0.27015593 6:0.31280659 
0.5056381499856797 1:2.4875894 2:-0.38663208 3:2.0670894 4:-0.56792647 5:-0.47511881 6:-0.43625162 
2 1:-0.48335079 2:-0.80589673 3:-0.49438753 4:0.22931534 5:0.43639734 6:0.24113913 
0.05347824386816884 1:-0.39460538 2:1.0906853 3:2.8729515 4:-0.56769123 5:-0.070009322 6:-0.86257105 
2 1:0.26808775 2:0.47584423 3:0.67989634 4:-0.32805604 5:-0.5258862 6:-0.42990035 
2 1:-0.32230994 2:0.2398968 3:0.83635485 4:-0.62281673 5:-0.55614071 6:-0.72174529 
0.01806279417745591 1:1.5071475 2:0.70991284 3:0.056853462 4:-0.49256999 5:-1.1411933 6:-1.0715358 
2 1:0.48307513 2:0.021798081 3:-0.46318886 4:-0.81320752 5:-0.69355321 6:-1.0664391 
2 1:-0.77783753 2:-0.65342334 3:-0.79591516 4:0.64663814 5:-0.40344255 6:-0.38904833 
2 1:-0.19054445 2:-0.49624509 3:-0.76774488 4:-0.12119818 5:-0.30206617 6:-0.14558285 
2 1:0.11865909 2:-0.25954613 3:0.49583664 4:-0.47179011 5:-0.4999085 6:-0.58413436 
2 1:0.24955046 2:0.10462236 3:-0.10453604 4:-0.28422225 5:-0.83223292 6:-0.95838903 
2 1:0.65382922 2:0.727057 3:0.97878015 4:-0.83626143 5:-0.96695261 6:-1.0170403 
2 1:-0.77781199 2:-0.54301967 3:-0.79591516 4:0.47185187 5:0.51282562 6:0.52075199 
0.8300989767762741 1:3.5366796 2:0.77668894 3:0.71253709 4:-0.84441655 5:-0.51265975 6:-0.72456808 
0.3550502878343142 1:0.62285838 2:6.1658253 3:2.945676 4:2.1763513 5:-0.23062751 6:0.040642761 
0.4128168332463517 1:0.3916697 2:0.65652328 3:1.8248035 4:1.7481288 5:0.32749694 6:0.094824612 
2 1:-0.47497133 2:-0.58862782 3:-0.69500795 4:-1.1276503 5:-1.2902482 6:-1.2395701 
2 1:-0.61420448 2:-0.80589673 3:-0.48823153 4:0.063781999 5:-0.097808624 6:0.07553556 
0.3094925839460649 1:0.026650822 2:0.13883239 3:0.64841857 4:0.42558722 5:2.2614096 6:2.0999452 
2 1:-0.14325175 2:-0.46842302 3:-0.37855551 4:0.017517351 5:-0.3351719 6:-0.39696782 
2 1:-0.40264574 2:-0.80409221 3:-0.47490387 4:0.40237649 5:0.49270874 6:0.13912671 
1.398838732734883 1:0.28813214 2:0.13836269 3:0.27890359 4:1.0071887 5:1.0578028 6:0.87689377 
2 1:0.21179768 2:0.87610939 3:0.84162699 4:0.092638592 5:-0.27529648 6:-0.097124986 
2 1:1.4728611 2:1.7071704 3:1.9363713 4:-0.23725187 5:-0.31331262 6:-0.49223692 
2 1:-0.24153708 2:-0.27260387 3:-0.79591516 4:0.95496457 5:0.42222048 6:0.054756702 
2 1:-0.42856028 2:-0.56177647 3:-0.5588782 4:0.011322593 5:0.24639584 6:0.1776264 
2 1:-0.5103655 2:-0.19543169 3:-0.19182097 4:0.30631853 5:-0.14041838 6:-0.44323018 
2 1:0.54072159 2:0.32867065 3:0.43559469 4:-0.31049116 5:-0.39908653 6:-0.18580758 
0.1019630971586125 1:-0.043625109 2:0.043404415 3:0.88419176 4:3.6824616 5:3.9098845 6:3.4488459 
2 1:-0.45895842 2:-0.80171309 3:-0.49510857 4:-0.31056957 5:-0.32891507 6:-0.38865628 
2 1:-0.25692454 2:-0.079696889 3:-0.11013382 4:-0.44348241 5:-0.51764936 6:-0.40653394 
0.1424602590463594 1:3.9472882 2:2.0759655 3:-0.064948475 4:0.50557017 5:0.63257646 6:0.48570237 
0.007435000141488061 1:-0.3882605 2:-0.80483943 3:-0.7957917 4:1.7085294 5:1.611492 6:1.5037096 
2 1:0.421887 2:0.17883542 3:0.075848671 4:-0.30868762 5:-0.36510961 6:-0.69524244 
2 1:-0.51324405 2:-0.76404933 3:-0.57611345 4:-0.18824271 5:-0.27521728 6:-0.21309453 
0.868645449759926 1:0.57048676 2:1.5113826 3:4.8777602 4:-1.7796682 5:-1.620458 6:-1.6513208 
2 1:-0.43814541 2:-0.35989033 3:0.0065355385 4:-0.40027594 5:-0.44716111 6:-0.23238359 
2 1:-0.16320572 2:-0.21117456 3:-0.0059470279 4:-1.0377871 5:-1.0543897 6:-0.96819038 
2 1:0.59068186 2:0.26275567 3:0.20129459 4:0.4564826 5:0.87865176 6:0.72038584 
0.8761098295464196 1:0.48420546 2:0.68556658 3:0.18183419 4:-0.077834871 5:-0.03405239 6:0.018766152 
2 1:0.59573063 2:1.4410054 3:0.94272802 4:-0.78317471 5:-0.39314651 6:-0.6433345 
2 1:0.091682055 2:0.41666166 3:0.67966375 4:-0.32491945 5:-0.29683895 6:-0.24202811 
2 1:-0.3190094 2:-0.80555957 3:-0.79591516 4:0.59488447 5:0.39497558 6:0.44688903 
2 1:-0.42693261 2:-0.2666543 3:0.11461441 4:-0.38310313 5:-0.58821682 6:-0.71249282 
0.01855200754954872 1:-0.64106095 2:1.9570524 3:1.8288352 4:0.064879804 5:0.26873032 6:0.52867148 
2 1:0.0068324972 2:-0.11176194 3:0.32077058 4:-0.26603005 5:-0.29375014 6:-0.26210127 
0.09568283434119715 1:-0.17193181 2:-0.30318936 3:0.11577738 4:1.8676328 5:1.9920494 6:0.97827891 
0.9655634192780813 1:0.0325285 2:0.36139329 3:0.58282694 4:0.19889045 5:0.19309404 6:0.45739608 
2 1:-0.74018648 2:-0.61608978 3:-0.52248493 4:-0.4252118 5:0.10138011 6:0.077887883 
0.2079876911829089 1:1.8112043 2:1.5452012 3:1.7118402 4:-0.058858524 5:0.052909529 6:1.0193662 
0.08264144875385439 1:-0.14399023 2:0.30745573 3:0.53716091 4:-2.3235522 5:0.84522924 6:0.71795511 
2 1:0.57048676 2:0.16427463 3:-0.083788622 4:-0.76294373 5:-0.66876352 6:-0.58538894 
2 1:-0.68886606 2:-0.80589673 3:-0.60338126 4:0.017752595 5:-0.17843452 6:-0.270256 
2 1:0.46280468 2:0.33172372 3:-0.10946704 4:-0.25622821 5:-0.39370091 6:-0.42833214 
2 1:-0.63674311 2:-0.58748488 3:-0.37067832 4:-0.69346834 5:-0.78352474 6:-0.89009324 
0.3504205522360515 1:0.96557222 2:2.6443843 3:1.418151 4:-2.3235522 5:1.6317673 6:0.8807359 
2 1:0.11941264 2:-0.098531976 3:-0.10529585 4:-0.48629682 5:-0.39908653 6:-0.36238867 
2 1:0.94115725 2:0.3095694 3:0.0075434476 4:0.23111888 5:0.1807388 6:0.33570254 
0.08154329078921017 1:0.20569394 2:1.0761245 3:2.5724395 4:0.52242932 5:-0.37770245 6:-0.33141641 
0.8686132632742375 1:-0.29517466 2:-0.30235955 3:0.20881514 4:0.12220092 5:0.089262462 6:0.078750402 
2 1:-0.075417319 2:-0.099800173 3:-0.43093577 4:-0.089518655 5:-0.0027682756 6:-0.034631591 
0.6070591096208916 1:-0.021199506 2:0.82592946 3:-0.51221201 4:0.67565156 5:-0.47963323 6:-0.44965987 
0.01512223688975721 1:0.98915829 2:0.6651345 3:0.48746324 4:-0.17561795 5:-0.22936031 6:-0.21160473 
1.969212685949721 1:0.061314052 2:-0.56666921 3:0.12748463 4:-0.45085339 5:-0.86407144 6:-0.39398821 
2 1:-0.57062677 2:-0.14215955 3:-0.25396244 4:-1.2001054 5:-1.2883474 6:-1.2261619 
2 1:-0.51858671 2:-0.80589673 3:-0.79591516 4:-0.35071788 5:-0.25613001 6:0.012101236 
2 1:0.27524646 2:-0.80565875 3:-0.79566069 4:-0.68405858 5:-0.78027753 6:-0.84822188 
0.2343743537065194 1:0.31164286 2:-0.80589673 3:0.14996876 4:1.05659 5:1.1210838 6:0.95616707 
0.5484753503393713 1:2.443959 2:3.7289283 3:4.8112382 4:-0.54793074 5:-0.26341643 6:-0.59519028 
2 1:-0.40924683 2:-0.17126547 3:-0.15225666 4:0.74050048 5:0.75961372 6:0.22153644 
2 1:-0.77071228 2:-0.46104868 3:-0.78701532 4:2.0811559 5:1.9271052 6:1.9109752 
2 1:-0.68257393 2:-0.80589673 3:-0.79591516 4:-0.4214479 5:-0.36978242 6:-0.47302628 
2 1:-0.40773973 2:-0.52011382 3:-0.32768712 4:0.19120582 5:0.25067265 6:0.46719742 
0.5140982055403329 1:-0.77783753 2:-0.48047872 3:-0.79430266 4:1.5561697 5:1.8336489 6:1.6634323 
2 1:-0.77671278 2:-0.38810382 3:-0.79121505 4:0.24201851 5:0.58751149 6:0.55995738 
2 1:-0.69649197 2:-0.80589673 3:-0.70955286 4:-0.61474002 5:-0.68927639 6:-0.57017724 
2 1:0.20056981 2:0.71257449 3:0.5041325 4:-0.99952074 5:-0.79397918 6:-0.92075186 
1.051523510478829 1:0.20335794 2:0.721264 3:0.75122529 4:-0.28971127 5:-0.2534372 6:-0.24641912 
2 1:-0.025992074 2:-0.088957865 3:-0.63403721 4:0.55504982 5:-0.22302428 6:-0.2186617 
0.08370980887931564 1:0.33937344 2:1.2972763 3:1.3669027 4:0.30004536 5:0.62742844 6:0.18609476 
2 1:0.51796443 2:0.58794666 3:0.76262242 4:0.4725576 5:-0.1195095 6:0.079769742 
0.3346499142435058 1:-0.69771272 2:0.67452856 3:-0.70566853 4:1.2397666 5:0.89900623 6:0.99450994 
2 1:-0.26958415 2:-0.44243279 3:-0.47668709 4:0.26232791 5:0.31949771 6:0.55446863 
2 1:0.47448468 2:0.036515439 3:-0.037680658 4:-0.33197677 5:-0.1179255 6:-0.47561384 
2 1:-0.67857259 2:-0.68260754 3:-0.50262137 4:0.44307369 5:0.50482639 6:0.037741562 
1.025401348349666 1:0.11526812 2:-0.10192166 3:-0.16320411 4:0.92116785 5:0.99127457 6:0.71395616 
0.6143390611375953 1:1.4033085 2:1.4536874 3:1.8589174 4:-0.11484659 5:0.70829193 6:1.5039448 
0.2862595665297155 1:1.0851604 2:-0.36530757 3:-0.28609924 4:-0.76466885 5:-1.0406881 6:-0.56382597 
2 1:-0.55871317 2:-0.40250804 3:-0.74921641 4:-0.6001549 5:-0.44787391 6:-0.32310486 
2 1:-0.11648571 2:-0.13155209 3:0.63120658 4:-1.1791687 5:-1.1229772 6:-0.77075203 
0.008181508986941904 1:-0.13836122 2:0.77214848 3:0.82247671 4:-0.50519475 5:-1.0055232 6:-1.0549127 
2 1:-0.16843534 2:-0.80589673 3:-0.28531617 4:-0.22760687 5:-0.49206767 6:-0.83614662 
2 1:-0.23814611 2:-0.35030056 3:-0.30925789 4:-0.41854655 5:-0.43781547 6:-0.64905849 
0.08051355525142176 1:0.22475872 2:-0.27249428 3:-0.4806412 4:5.1673215 5:5.2008492 6:4.4051438 
2 1:0.70913968 2:0.17734803 3:0.3644208 4:-0.77792092 5:-1.167963 6:-1.0479341 
2 1:-0.50166955 2:-0.71449254 3:-0.63774321 4:1.0687442 5:0.69514469 6:-0.099869363 
2 1:-0.35264027 2:-0.085529033 3:-0.072259693 4:-0.41415533 5:-0.62504496 6:0.20177692 
0.3538995360650463 1:-0.18083121 2:0.56039075 3:-0.10615645 4:2.052064 5:-0.92291725 6:-2.3221878 
2 1:-0.18655065 2:-0.15578093 3:-0.79591516 4:-0.21686406 5:0.17471958 6:0.1514372 
2 1:-0.41221581 2:-0.32618915 3:-0.29941139 4:0.95033811 5:0.91175748 6:0.85391941 
0.214129830864847 1:2.8152323 2:2.2398135 3:0.87209685 4:1.0489053 5:-0.39615612 6:-0.64631411 
2 1:-0.44846149 2:-0.58981773 3:-0.45339664 4:0.17473874 5:-0.11095587 6:-0.66097693 
2 1:-0.45580859 2:-0.49924336 3:-0.42375636 4:1.2644672 5:1.5749807 6:1.8243313 
1.693207389484022 1:-0.32559541 2:-0.32059968 3:-0.5662747 4:1.216007 5:2.0876442 6:1.3274421 
2 1:-0.50442 2:-0.80218623 3:-0.50580791 4:0.27118877 5:0.24291103 6:0.26317256 
0.3510381751330852 1:-0.18939906 2:-0.042472933 3:0.29735608 4:3.4501189 5:5.043003 6:2.3234943 
0.4305193795726386 1:2.5582723 2:1.3099583 3:0.31503325 4:0.62648557 5:0.67383981 6:0.64346487 
2 1:0.28941318 2:-0.02797477 3:-0.21451443 4:-0.47343681 5:-0.53531103 6:-0.46863528 
0.6121231502657192 1:3.005654 2:3.6098586 3:4.0986464 4:-0.32374323 5:-0.4732972 6:-0.62765235 
2 1:-0.31369688 2:-0.31466577 3:-0.25804835 4:0.74387232 5:0.16569074 6:0.025352658 
2 1:-0.29814364 2:0.028843625 3:0.17183263 4:-0.50958597 5:-0.42142101 6:-0.36395688 
0.3416293502501054 1:4.4527685 2:6.2091162 3:3.8696185 4:0.31063134 5:0.21210211 6:0.032174396 
2 1:0.40048622 2:0.4251946 3:-0.18148603 4:-1.3639921 5:-1.1453117 6:-1.1675106 
1.982393847381823 1:0.087763603 2:1.0877888 3:1.0242911 4:-0.82630277 5:-1.1578253 6:-1.0357805 
2 1:0.29732543 2:0.85238939 3:0.28882762 4:-0.99599208 5:-0.80498802 6:-1.0786712 
2 1:-0.21401749 2:-0.35784712 3:-0.15000825 4:-0.77039312 5:-0.81179924 6:-0.46306811 
2 1:-0.77554908 2:-0.80589673 3:-0.50749034 4:-0.39016045 5:-0.36566401 6:-0.30318852 
2 1:-0.29712635 2:-0.30192899 3:-0.35217155 4:1.1477862 5:1.0300035 6:1.3485346 
2 1:-0.77783753 2:-0.68867454 3:-0.79591516 4:0.078994442 5:0.040237482 6:-0.025692762 
2 1:-0.77772414 2:-0.39566604 3:-0.79566041 4:0.31980585 5:0.17654118 6:0.033272147 
2 1:-0.010499118 2:-0.1693162 3:-0.33194359 4:-0.24125102 5:-0.23221152 6:-0.86743252 
2 1:0.92111286 2:1.2309699 3:1.1006596 4:-1.1831679 5:-1.2645873 6:-1.1944839 
0.05866323516707644 1:0.47086765 2:-0.80589673 3:1.0234383 4:0.15591922 5:0.18675802 6:1.3196011 
0.7302064579896933 1:1.4240311 2:1.0761245 3:1.2761133 4:0.80087977 5:0.39766839 6:0.68282708 
1.031571882066674 1:0.16349523 2:0.72110743 3:0.53452484 4:-1.0620956 5:-0.87888189 6:-0.24696799 
2 1:-0.60301428 2:-0.50131005 3:-0.39799265 4:0.86431723 5:1.005293 6:0.64103413 
0.01850907116954735 1:0.10743122 2:0.42245466 3:0.79619355 4:-0.20408247 5:-0.088700591 6:0.31625667 
2 1:-0.56144855 2:-0.60006509 3:-0.79591516 4:-0.52158341 5:-0.71081887 6:-0.54618354 
0.479191739994283 1:4.2167571 2:3.0967082 3:0.53576534 4:1.3305708 5:0.0450687 6:0.4706475 
1.184600678970535 1:0.56664366 2:0.76557264 3:-0.49379829 4:-1.1286697 5:-1.1110971 6:-2.3221878 
0.3766838398512458 1:2.9770945 2:4.0484828 3:3.3627953 4:-0.38553398 5:-0.15617924 6:-0.49741204 
2 1:-0.77783753 2:-0.6523665 3:-0.79591516 4:-0.083245482 5:-0.077374949 6:-0.093988554 
2 1:-0.37217224 2:-0.088362908 3:0.24572012 4:0.78009989 5:0.91373749 6:1.2825912 
2 1:-0.30389322 2:-0.41568321 3:-0.22119764 4:0.38151819 5:0.53096248 6:0.40070508 
2 1:-0.41021891 2:-0.80589673 3:-0.79591516 4:0.55552031 5:0.56628581 6:0.72524731 
0.3234771445692314 1:3.0756587 2:5.399505 3:3.1462499 4:0.90548492 5:0.1528603 6:-0.82336566 
2 1:0.19499355 2:-0.22405225 3:0.11515713 4:-0.67598187 5:0.11373535 6:-0.057684362 
2 1:-0.77783753 2:-0.48721896 3:-0.79591516 4:0.37744062 5:0.27221513 6:0.23886522 
2 1:0.0066817875 2:-0.41697489 3:0.23626128 4:-0.75039738 5:-0.84894418 6:-0.98638168 
2 1:-0.44447522 2:-0.37215741 3:-0.53350991 4:-0.13319562 5:-0.16980169 6:0.27971724 
2 1:-0.57524602 2:-0.60557627 3:-0.61464659 4:0.23472595 5:0.071759198 6:0.19338697 
2 1:-0.064053808 2:0.12990803 3:-0.14547266 4:-0.58211953 5:0.27023513 6:-0.056900254 
0.2290888506674314 1:0.82420653 2:0.6216087 3:1.0108782 4:1.0674896 5:0.60477715 6:0.56983714 
2 1:1.7116606 2:1.1602797 3:0.75424902 4:-1.1009893 5:-1.3357884 6:-1.2990055 
0.3334663494711286 1:-0.028863094 2:1.7557847 3:0.19206834 4:2.6537397 5:4.0103104 6:3.7762893 
2 1:0.77055388 2:0.56923682 3:0.58755636 4:-0.054545718 5:-0.49167167 6:-0.13915317 
0.2049486638457356 1:1.6225158 2:1.2881171 3:0.49482873 4:0.18508947 5:-0.033339588 6:-0.21293771 
1.781510592667935 1:0.17381884 2:0.36225441 3:0.34325471 4:0.47655675 5:0.66932539 6:0.63687836 
0.3008216419533079 1:3.0777686 2:2.4529021 3:2.3091426 4:2.0737849 5:2.0125623 6:1.9083876 
2 1:0.22890323 2:-0.17653397 3:0.27432923 4:-0.39102301 5:-0.45508114 6:-0.35250891 
2 1:0.18836232 2:0.17186816 3:0.08895149 4:-0.19271234 5:-0.059792485 6:-0.48243558 
1.10670804475196 1:0.22121704 2:0.58019656 3:1.0420458 4:0.49443529 5:0.86574211 6:0.51361661 
2 1:0.069452375 2:0.68783681 3:0.042587671 4:-0.17514746 5:-0.30776859 6:-0.39641895 
2 1:-0.12190372 2:-0.36049312 3:-0.29720174 4:0.32670634 5:0.67558221 6:0.57399291 
0.3030899086554433 1:-0.30207716 2:-0.14705229 3:-0.20869182 4:0.63087679 5:1.711918 6:3.4334774 
2 1:0.0063803681 2:-0.80589673 3:-0.79591516 4:-0.66939504 5:-0.52287658 6:-0.35564534 
0.5618078913423794 1:0.90860396 2:0.75007244 3:0.58143138 4:0.34082098 5:-0.093373408 6:-0.014166377 
2 1:-0.77505565 2:-0.49996357 3:-0.79591516 4:0.14282397 5:0.22239815 6:0.44241962 
2 1:-0.77581712 2:-0.45523219 3:-0.79500161 4:0.28059852 5:0.14256426 6:0.44100822 
2 1:-0.45771507 2:-0.40278204 3:-0.46795705 4:0.89184077 5:0.890611 6:0.66792903 
0.138467340808489 1:-0.41583284 2:-0.80586474 3:-0.48899909 4:1.6604612 5:1.3337366 6:1.707656 
2 1:0.27615072 2:-0.016639273 3:0.017002287 4:-0.3037475 5:-0.12038071 6:-0.1691845 
2 1:-0.53964086 2:-0.63930876 3:-0.58782845 4:-0.23834967 5:-0.18041453 6:-0.1371929 
2 1:0.022657015 2:-0.0092805944 3:-0.071639441 4:0.17975728 5:-0.30293738 6:-0.54249824 
2 1:0.01044953 2:0.098124804 3:0.14593712 4:0.64852009 5:0.71328155 6:0.62566562 
0.3279689940317188 1:-0.26602741 2:-0.18568535 3:0.55724156 4:2.2662929 5:2.0634089 6:-0.90334466 
0.9323180662549296 1:1.4112961 2:1.52336 3:1.5263074 4:-0.63324588 5:-0.37279203 6:-0.088735032 
2 1:0.10901367 2:0.20451251 3:-0.14539513 4:-0.065837429 5:-0.24654677 6:0.039623421 
1.032357995310757 1:0.68909529 2:1.3462037 3:0.56654534 4:0.17912996 5:0.060037555 6:-0.10645587 
2 1:-0.56311389 2:-0.64424064 3:-0.61284786 4:-0.11868891 5:-0.016945128 6:-0.42127516 
2 1:-0.77783753 2:-0.54074944 3:-0.79478351 4:2.252884 5:2.4661424 6:2.4620462 
0.06178129635337556 1:-0.14718528 2:0.35074669 3:0.20602401 4:0.74104939 5:1.1902257 6:0.87375734 
2 1:-0.77783753 2:-0.80589673 3:-0.31925169 4:-0.080814628 5:-0.018687534 6:-0.035572521 
2 1:-0.29350932 2:-0.32866292 3:-0.79591516 4:0.43382076 5:-0.085136578 6:-0.16008884 
1.665433792551775 1:0.33500286 2:0.48171551 3:-0.045829215 4:0.73234536 5:-0.24329956 6:-0.18878719 
1.905159176696502 1:0.0094699168 2:0.37376213 3:-0.30407103 4:0.65463644 5:0.15111789 6:0.45041752 
2 1:-0.77217152 2:0.041134185 3:-0.79591516 4:-0.7387136 5:-0.88490111 6:-0.93713971 
2 1:-0.57605232 2:-0.64734851 3:-0.79591516 4:-0.19765247 5:-0.23205312 6:-0.25088853 
2 1:-0.25846178 2:-0.31658372 3:-0.36944556 4:-0.52589622 5:-0.69379081 6:-0.53771518 
2 1:-0.61145403 2:-0.79645648 3:-0.51626691 4:1.4190225 5:1.4534083 6:1.6469661 
2 1:-0.34766685 2:-0.30730709 3:-0.44702355 4:-1.125141 5:-0.84648897 6:-1.2433338 
2 1:-0.37309157 2:-0.80589673 3:-0.30379967 4:0.25919132 5:0.15111789 6:0.3964709 
0.1883389289395587 1:2.4725185 2:1.085362 3:0.18198925 4:1.9337363 5:1.8441033 6:1.3717442 
2 1:-0.22592356 2:0.4034317 3:0.023437399 4:-0.37416386 5:-0.46450597 6:-0.41907966 
0.6767921634408561 1:-0.2385681 2:0.046066065 3:0.0014184616 4:0.49216127 5:0.91492549 6:1.4823034 
2 1:-0.7775492 2:-0.32956318 3:-0.3165691 4:-0.59309758 5:-0.74162779 6:-0.73601605 
0.7474958374236849 1:-0.66500118 2:-0.28000169 3:-0.04298381 4:0.82910905 5:0.086569652 6:-0.39485073 
2 1:-0.77731774 2:-0.71400718 3:-0.79591516 4:-0.63873491 5:-0.76182386 6:-0.63400362 
2 1:-0.77783753 2:-0.28391589 3:-0.53367272 4:-1.1855987 5:-1.2682305 6:-1.2577614 
0.3552897112845603 1:7.1757913 2:11.957575 3:20.297529 4:0.22068973 5:-0.40764016 6:-0.74989476 
2 1:-0.45776781 2:-0.10171813 3:-0.22432216 4:0.54069994 5:0.24980145 6:-0.027025745 
2 1:-0.34194741 2:-0.49193165 3:-0.36161489 4:-0.58376624 5:-0.51067974 6:-0.28523246 
1.153113630294801 1:-0.4449801 2:0.87665738 3:0.51025749 4:-2.3235522 5:0.17590758 6:0.22255578 
2 1:-0.77246322 2:-0.4331953 3:-0.79591516 4:0.36803087 5:0.07777842 6:0.33930944 
1.392325964837954 1:0.084975474 2:-0.24842983 3:-0.17368636 4:1.4201987 5:1.0309539 6:0.85290007 
0.4771943420341946 1:0.032603855 2:0.57166362 3:0.96125804 4:-0.1507605 5:0.12355619 6:-0.46330334 
2 1:-0.77783753 2:-0.48285072 3:-0.79591516 4:-1.0988721 5:-1.0235808 6:-1.0651845 
2 1:-0.022028409 2:0.26862696 3:0.41535897 4:0.71799548 5:0.79644186 6:0.64432738 
1.484944863039914 1:-0.77783753 2:0.13797127 3:-0.79591516 4:0.026142963 5:0.12363539 6:-0.076267717 
2 1:-0.4641353 2:-0.80589673 3:-0.79591516 4:-0.056976572 5:0.00039973601 6:-0.10912184 
2 1:0.17419561 2:0.1997372 3:0.084842322 4:-0.88127144 5:-0.56730795 6:-0.38097202 
2 1:0.17396955 2:0.25571013 3:0.25424858 4:-1.0787195 5:-0.91713563 6:-0.77992609 
1.318838796783531 1:1.841497 2:1.630374 3:0.97707446 4:-1.1565853 5:-0.64951785 6:-0.52901158 
1.302279745516809 1:-0.57818486 2:0.13938038 3:-0.79591516 4:0.3543083 5:-0.15285283 6:0.39709818 
2 1:-0.61950946 2:-0.62255603 3:-0.17689616 4:0.59190471 5:0.57072103 6:0.57885438 
2 1:-0.6290946 2:-0.42113176 3:-0.65904111 4:-1.2165725 5:-1.2540537 6:-1.2385508 
2 1:-0.17667916 2:0.20294684 3:0.44551871 4:-0.21200235 5:-0.035953197 6:-0.0013070082 
2 1:0.53115153 2:-0.5222588 3:-0.48416113 4:-0.58902002 5:-0.7455086 6:-0.81795532 
0.4820147331310703 1:7.240069 2:4.0217881 3:3.3282938 4:-1.2437824 5:-1.4187111 6:-1.427756 
2 1:0.71305813 2:0.70200618 3:0.69633301 4:-0.099242072 5:-0.5259654 6:-0.78619895 
2 1:-0.59435601 2:-0.54622148 3:-0.441356 4:0.49655249 5:0.63946688 6:0.79197489 
1.672912854609249 1:1.9375744 2:3.1951109 3:4.4112533 4:-0.064425965 5:-0.3091942 6:-0.9806577 
0.0544279277401369 1:0.80408678 2:1.0246138 3:0.95846691 4:-0.30178713 5:-0.28662212 6:-0.33910066 
0.06157780913732423 1:0.25535278 2:-0.30157672 3:0.86131998 4:0.14690153 5:0.91896471 6:0.63656472 
1.152714772734086 1:0.43522481 2:1.0443413 3:0.33472624 4:0.69737242 5:0.50656879 6:0.12242521 
2 1:-0.47924395 2:-0.80513013 3:-0.79591516 4:-0.37322288 5:-0.45508114 6:-0.39061655 
2 1:0.59316857 2:0.61119695 3:0.52258499 4:-0.86935241 5:-0.90430518 6:-0.72409761 
0.1685481502609685 1:1.9962005 2:-0.06783689 3:-0.19253426 4:0.63542485 5:0.4801159 6:0.65757881 
2 1:-0.49911502 2:-0.7589648 3:-0.0014502027 4:-1.244645 5:-1.3330956 6:-1.2415304 
0.3550765955888113 1:-0.71503981 2:1.5574917 3:6.5346077 4:0.248919 5:0.5906003 6:1.2241751 
0.2102998908262531 1:3.7205454 2:2.8310912 3:1.9236562 4:1.1716243 5:0.6720182 6:1.0381063 
2 1:-0.77783753 2:-0.65191246 3:-0.79591516 4:-0.10676988 5:0.087995257 6:0.01853092 
2 1:-0.77783753 2:-0.54848388 3:-0.79591516 4:0.19120582 5:0.048236712 6:0.094118915 
2 1:-0.52261066 2:-0.8047541 3:-0.54726399 4:2.4508026 5:2.4763592 6:2.177023 
0.388722088297016 1:-0.1690005 2:1.1265393 3:2.5599569 4:-0.15915087 5:0.020754211 6:0.32660689 
2 1:-0.62100149 2:-0.80589673 3:-0.79591516 4:0.14580373 5:0.16774995 6:0.28261844 
2 1:-0.26990818 2:-0.80533019 3:-0.43706076 4:0.10761579 5:-0.014252318 6:0.16782505 
2 1:-0.20807199 2:0.094445465 3:0.36829737 4:-0.87115595 5:-1.0661114 6:-0.94607854 
0.2222760633340704 1:-0.77783753 2:1.0311114 3:0.2050161 4:0.19402874 5:1.322411 6:1.2526382 
2 1:-0.27482885 2:-0.1393883 3:-0.4189339 4:0.25809352 5:0.16489874 6:0.061656851 
2 1:-0.56089092 2:0.27261944 3:0.96521215 4:-0.60258575 5:0.33700097 6:0.16860916 
2 1:0.12596851 2:-0.048766952 3:0.032120923 4:-0.53342403 5:-0.67834675 6:-0.39477232 
2 1:-0.7772798 2:-0.80589673 3:-0.46782525 4:-0.12323696 5:-0.34459673 6:-0.30930457 
2 1:-0.77783753 2:-0.70059717 3:-0.79591516 4:-0.0096925346 5:0.097024091 6:-0.073052875 
2 1:-0.77783753 2:0.19433562 3:-0.79406603 4:0.56673361 5:0.51844884 6:0.44806519 
2 1:-0.64332913 2:-0.80589673 3:-0.62867978 4:0.86761064 5:1.3961465 6:1.2949801 
2 1:-0.58703906 2:-0.80589673 3:-0.61146004 4:0.27385486 5:0.024080623 6:0.12634575 
2 1:-0.12817325 2:-0.41482991 3:-0.18796766 4:1.6540312 5:1.0403788 6:1.1198888 
2 1:-0.33347753 2:0.022267784 3:0.29130862 4:-0.74639823 5:-0.74067738 6:-0.57982177 
0.484256612817238 1:1.1850055 2:2.3362592 3:2.4676169 4:0.21269143 5:0.00079573746 6:0.10148953 
0.9370074569815956 1:-0.38470375 2:-0.044210834 3:-0.059234406 4:1.7925115 5:1.4720203 6:0.84113845 
2 1:1.2456662 2:1.1088472 3:1.0999618 4:-1.0280637 5:-0.82241208 6:-0.51278055 
2 1:-0.77783753 2:-0.80589673 3:-0.4529237 4:-0.49625548 5:-0.38696889 6:-0.62200677 
2 1:0.84681298 2:1.1192589 3:1.1339982 4:-0.70264285 5:-0.81892727 6:-0.65109717 
1.082612990893154 1:4.0637868 2:4.9734062 3:3.2854964 4:-0.67331577 5:-0.40589775 6:-0.15342393 
0.2897401988257605 1:0.27193085 2:1.7308121 3:4.2340164 4:-1.2736584 5:-1.3593109 6:-0.98638168 
2 1:-0.39164394 2:-0.51899436 3:-0.70538942 4:0.93551774 5:1.0702373 6:0.69858765 
1.338527762965043 1:2.2488653 2:2.2930465 3:1.0698796 4:-0.41972277 5:-0.59859206 6:-0.21160473 
0.4543412070928337 1:0.82631646 2:0.71523614 3:0.74494524 4:0.90673956 5:0.27577915 6:-0.1073968 
2 1:0.035391984 2:0.030252734 3:-0.16352974 4:-0.60595758 5:-0.99403911 6:-1.0364862 
0.6201748940487666 1:1.4523645 2:1.3150468 3:0.98273426 4:-0.10230024 5:0.054889536 6:0.12767873 
2 1:-0.7692403 2:-0.4927458 3:-0.79044477 4:-0.26030578 5:-0.06113889 6:-0.25198628 
2 1:-0.77783753 2:-0.80589673 3:-0.51111106 4:-0.69033175 5:-0.68737559 6:-0.49255057 
2 1:-0.36334066 2:-0.76377456 3:-0.30726533 4:-0.53899147 5:-0.53879584 6:-0.59550393 
2 1:0.58902405 2:0.3153624 3:0.18772658 4:-0.17193246 5:-0.15285283 6:-0.54634036 
2 1:-0.31518891 2:-0.48239668 3:-0.36359969 4:0.32866671 5:0.77331537 6:0.76061058 
2 1:-0.12624416 2:-0.086875515 3:-0.0083505034 4:0.043629432 5:0.035168664 6:0.12415025 
0.2727252264594028 1:2.1998846 2:0.89888998 3:-0.35807945 4:3.6342366 5:2.5801116 6:2.9150253 
0.2647942778242102 1:0.71471593 2:-0.80589673 3:4.4985538 4:0.095696764 5:0.25075185 6:-0.08653953 
2 1:0.53944056 2:-0.031004354 3:0.14965863 4:0.1285525 5:0.33304096 6:0.24051185 
0.05893384976084843 1:0.32829628 2:0.79054518 3:0.80797833 4:-1.0633503 5:-1.4274231 6:-1.2858325 
2 1:0.41909887 2:0.65949807 3:0.62345343 4:-0.18706649 5:-0.49159247 6:-0.47733888 
2 1:-0.33902365 2:-0.80589673 3:-0.79591516 4:-0.47092754 5:-0.64619144 6:-0.26359108 
2 1:0.023485918 2:0.081763486 3:-0.20347395 4:0.044727237 5:0.0450687 6:0.24623584 
2 1:-0.40669983 2:-0.80589673 3:-0.38285851 4:0.17552288 5:0.41105324 6:-0.060193507 
0.9775076191287683 1:-0.080624339 2:-0.11535517 3:0.19354144 4:-0.098222682 5:0.13258502 6:1.2494234 
2 1:1.479643 2:1.7982928 3:1.7501407 4:-0.68178456 5:-0.73046055 6:-0.636748 
2 1:-0.55981335 2:-0.43185665 3:-0.2250277 4:0.71823072 5:0.63368526 6:0.41654406 
1.807283131933695 1:0.87687957 2:0.51741293 3:1.2981323 4:-1.3349786 5:-1.5400459 6:-1.6379596 
0.2233812105840168 1:0.30410737 2:-0.80589673 3:0.49040943 4:2.9880214 5:2.1470444 6:2.4070018 
2 1:-0.40811651 2:-0.33483168 3:-0.37168622 4:-0.0018510689 5:-0.19308657 6:-0.33024025 
2 1:-0.2852655 2:-0.097772623 3:-0.25488507 4:-0.34930641 5:-0.43472666 6:-0.48776751 
2 1:-0.77783753 2:0.044265537 3:-0.79591516 4:0.38873234 5:0.33090255 6:0.49675829 
2 1:-0.37022055 2:0.0087246838 3:0.29952696 4:-1.1707784 5:-1.1788134 6:-1.0317815 
0.7249748881470147 1:1.4995367 2:-0.19485239 3:0.35705531 4:-0.52777817 5:-0.56010072 6:-0.55645536 
2 1:0.60733528 2:0.89137473 3:0.39814699 4:0.29432109 5:-0.59787926 6:-0.71853045 
2 1:-0.58923942 2:-0.16672501 3:-0.22839256 4:0.023241621 5:0.16006752 6:0.16327723 
2 1:-0.77783753 2:-0.53323419 3:-0.79591516 4:-0.25395419 5:0.089896064 6:-0.067956174 
2 1:-0.39685849 2:0.10931939 3:0.36682427 4:-0.36820434 5:-0.62821297 6:-0.40606347 
2 1:-0.48948467 2:-0.46361639 3:-0.11353745 4:-0.25277797 5:-0.34800234 6:-0.32522196 
2 1:0.43884184 2:0.61886876 3:0.66842169 4:-0.031099736 5:-0.022093147 6:-0.020752883 
2 1:0.4554199 2:0.77113079 3:0.69517004 4:-0.371733 5:-0.34776474 6:-0.52085686 
2 1:-0.26620826 2:0.0463792 3:-0.26584802 4:-0.82246045 5:-0.62710417 6:-0.22320953 
2 1:-0.45958387 2:-0.67372233 3:-0.64189115 4:1.777848 5:1.7020972 6:1.8337406 
2 1:-0.77783753 2:-0.58570783 3:-0.79591516 4:1.0893673 5:0.83121078 6:0.88630306 
0.22025130605776 1:0.28700182 2:2.333441 3:4.07655 4:0.23441229 5:-0.43947868 6:-0.10967071 
2 1:-0.72662939 2:-0.77946107 3:-0.71768591 4:0.25166352 5:0.48573912 6:0.36941918 
0.1679409369279969 1:0.15347303 2:0.097733385 3:0.057628776 4:0.72591536 5:0.89694703 6:0.99552928 
0.2235159515562544 1:1.9647775 2:0.2998622 3:0.53126852 4:1.5455053 5:0.17329397 6:1.4477243 
0.3618798413138854 1:-0.77783753 2:-0.80589673 3:1.1809822 4:0.34419281 5:0.046335905 6:-0.77600555 
2 1:-0.030867533 2:-0.20702552 3:-0.31234364 4:0.30678902 5:0.042771891 6:0.31382593 
2 1:-0.086343772 2:0.13546619 3:0.25525649 4:-0.47382889 5:-0.58774162 6:-0.01745963 
2 1:-0.060157962 2:-0.18494165 3:0.051193664 4:0.91207175 5:0.93092395 6:0.89265434 
2 1:0.056943471 2:-0.31766404 3:-0.50404795 4:-1.0331606 5:-1.2351248 6:-1.1088593 
2 1:-0.260632 2:0.036358872 3:0.41233524 4:-1.0734658 5:-1.2102559 6:-0.99532051 
1.900527789900262 1:1.2331573 2:1.0230481 3:0.60523354 4:0.245704 5:-0.37786085 6:0.033585791 
0.2886345250241061 1:1.9888911 2:2.3040845 3:2.7866589 4:1.1223014 5:0.63210125 6:-1.0558536 
2 1:-0.55070295 2:-0.80589673 3:-0.69259673 4:-0.039176445 5:-0.06105969 6:0.032958504 
2 1:-0.77659809 2:-0.80537173 3:-0.11202558 4:0.076955661 5:0.090133665 6:0.31602143 
0.5741446283592853 1:-0.53226362 2:-0.29410844 3:-0.29040999 4:-1.7251543 5:-1.8335464 6:-1.7739318 
0.3200427059390803 1:2.3631032 2:5.1479008 3:3.4466068 4:1.5869083 5:0.78915543 6:-0.65807573 
2 1:0.02039637 2:-0.15434051 3:-0.57096536 4:-0.53514915 5:-0.38269207 6:-0.13860429 
1.969562063400156 1:0.15550761 2:0.38425216 3:0.74006076 4:0.047001262 5:-0.35338796 6:0.90904219 
0.2977927043531123 1:0.47192262 2:-0.21069703 3:1.2796798 4:3.1861752 5:3.0736878 6:0.74398749 
2 1:-0.46666722 2:-0.23284352 3:-0.014087832 4:-0.17350075 5:-0.19340338 6:-0.29605314 
2 1:1.4678876 2:1.4473464 3:0.5280122 4:-0.25905114 5:-0.20156101 6:-0.22062197 
2 1:-0.77783753 2:-0.36085322 3:-0.79591516 4:0.44479881 5:0.71454876 6:0.56058467 
2 1:-0.32005683 2:-0.19908754 3:-0.15249701 4:0.50486444 5:0.65467334 6:0.3979607 
2 1:-0.77783753 2:-0.80589673 3:-0.588565 4:0.13004238 5:0.15024669 6:0.31774647 
2 1:-0.43947919 2:-0.37225917 3:-0.17491911 4:-0.8232446 5:-0.66543711 6:-0.60820647 
2 1:0.80755311 2:0.37830259 3:-0.13969656 4:-0.99442379 5:-1.0989003 6:-0.44762119 
2 1:-0.034175611 2:-0.2526415 3:-0.6447288 4:-1.5183121 5:-1.4218791 6:-1.4401449 
0.3158053456093994 1:0.45956442 2:0.20983581 3:0.47412782 4:1.9796089 5:1.4179265 6:0.79024985 
2 1:-0.69640155 2:-0.51215236 3:-0.7239396 4:-0.32162604 5:-0.51044214 6:-0.67524769 
1.691703035421694 1:-0.51292756 2:-0.7102339 3:-0.48927045 4:0.64036497 5:0.73640804 6:-2.3221878 
1.194023886596729 1:0.28715253 2:0.47091235 3:0.33472624 4:0.61989874 5:1.2926317 6:1.960766 
0.5913934179243323 1:-0.023912281 2:1.3249888 3:1.0395648 4:0.40810076 5:0.83018118 6:0.52333954 
1.088562530104143 1:-0.1211125 2:0.15315833 3:0.40264381 4:2.2722524 5:1.4475474 6:-0.17490848 
2 1:-0.245237 2:-0.082757786 3:-0.31441373 4:-0.76670763 5:-0.24567557 6:-0.13421329 
0.0875781602337654 1:0.42618222 2:-0.75187307 3:1.976145 4:1.2491764 5:1.3573383 6:1.1635636 
2 1:-0.55666352 2:-0.28589647 3:-0.72921406 4:-0.99356123 5:-1.2731409 6:-1.2528999 
0.178208294726152 1:0.098388637 2:0.1789137 3:0.036850343 4:0.42833174 5:2.1568652 6:2.5618631 
2 1:-0.2375282 2:-0.046661118 3:0.15981525 4:0.50831469 5:0.40764763 6:0.27814902 
0.004071846342120378 1:0.64938328 2:-0.076784731 3:-0.33637064 4:2.8093928 5:2.9035656 6:3.0821186 
2 1:0.29491408 2:-0.1064543 3:-0.1009851 4:-1.0463343 5:-0.8807827 6:-1.0876884 
2 1:-0.5280136 2:-0.51492361 3:-0.45218715 4:0.12910141 5:0.08062963 6:0.069105875 
1.766290950839929 1:0.25964801 2:0.55404976 3:0.37535273 4:-2.3235522 5:-1.0188288 6:-0.93180778 
2 1:-0.64617 2:-0.80589673 3:-0.66298746 4:0.12392604 5:0.089420863 6:0.15253495 
1.208479144213007 1:-0.74949431 2:-0.32094413 3:-0.29947341 4:1.2374926 5:1.8828322 6:1.1229468 
2 1:0.052120761 2:-0.66327144 3:-0.53135453 4:-0.44191412 5:-0.50830373 6:-0.45122808 
1.246913039003827 1:1.089757 2:1.9265999 3:1.6134528 4:0.14156934 5:0.30856807 6:-0.4179035 
2 1:0.26213472 2:-0.01288165 3:-0.12348473 4:0.60719557 5:0.32337852 6:-0.21199678 
2 1:-0.7766733 2:-0.80526812 3:-0.29755839 4:-0.69338993 5:-0.75255743 6:-0.74456283 
0.3404521587336856 1:-0.21618771 2:-0.15733095 3:-0.43809193 4:6.4432064 5:7.2121406 6:3.8000478 
2 1:1.5568064 2:1.8141061 3:0.95086882 4:-0.64085211 5:-0.72808454 6:-0.73695698 
2 1:-0.77783753 2:-0.80589673 3:-0.48909213 4:-0.32256701 5:-0.35346716 6:-0.28962346 
2 1:-0.072614119 2:-0.19911103 3:-0.067049578 4:-0.92965329 5:-0.38229607 6:0.29822219 
2 1:-0.42747517 2:-0.80540941 3:-0.79503448 4:0.28702853 5:0.35672184 6:0.42140553 
2 1:-0.27826503 2:-0.80589673 3:-0.40057445 4:0.069741513 5:-0.39797773 6:-0.63102401 
0.1479418735807582 1:1.3871826 2:1.5130265 3:-0.4889138 4:-0.95545171 5:-1.014552 6:-2.3221878 
2 1:-0.40507217 2:-0.62780887 3:-0.56301838 4:1.7191154 5:1.9058003 6:1.1674841 
2 1:-0.1994514 2:-0.4648063 3:-0.75323409 4:0.031945648 5:-0.015202721 6:0.3586769 
2 1:-0.12709567 2:0.45924806 3:-0.12215895 4:-0.75933665 5:-0.56057592 6:-0.7305273 
2 1:-0.40940507 2:-0.23313317 3:-0.091340187 4:-0.11131793 5:-0.18587935 6:-0.31792975 
2 1:-0.33658215 2:-0.68224744 3:-0.38406025 4:-0.74208543 5:-0.69767163 6:-0.78784558 
2 1:-0.095356211 2:-0.23840167 3:-0.41200259 4:-0.093204144 5:0.14248506 6:0.070752502 
2 1:-0.12763069 2:0.10313497 3:0.23843216 4:0.40323905 5:0.70940074 6:0.77143126 
2 1:-0.30290607 2:-0.18559141 3:-0.35457503 4:-0.59678307 5:-0.68088116 6:-0.56806015 
2 1:0.26929343 2:0.86781131 3:0.48994424 4:-1.0372382 5:-0.98603988 6:-0.80282204 
2 1:-0.58893046 2:-0.40727553 3:-0.13120687 4:-0.032275956 5:-0.39362171 6:-0.3495293 
2 1:-0.59710646 2:-0.4101094 3:0.11050524 4:-0.43556253 5:-0.38110806 6:-0.61157814 
0.7806359457970641 1:-0.27923711 2:-0.22110878 3:0.1163201 4:1.3656221 5:0.76848415 6:0.70603667 
2 1:0.063273278 2:-0.0088891753 3:-0.10241168 4:1.065294 5:1.1724848 6:0.79362152 
2 1:0.16733832 2:-0.043388854 3:0.43807569 4:-0.41658619 5:-0.67874276 6:-0.56163047 
2 1:-0.067746195 2:0.011386334 3:-0.20846698 4:0.069898342 5:0.098370495 6:-0.23583366 
2 1:-0.55660323 2:-0.37277585 3:0.027779161 4:0.30177048 5:0.15040509 6:-0.13084162 
2 1:-0.77708104 2:-0.54096863 3:-0.79527622 4:-0.12268805 5:0.10534012 6:0.14963375 
2 1:0.10765728 2:0.47012951 3:1.080734 4:-0.058936939 5:0.2623151 6:0.06659673 
0.1787875936907861 1:-0.77566987 2:0.94131981 3:0.66547549 4:2.1965822 5:2.4301063 6:2.0870858 
2 1:0.016327208 2:0.55491088 3:0.067630336 4:-1.0206927 5:-1.3486188 6:-1.4187387 
0.3150250160220012 1:-0.13736654 2:-0.1004421 3:1.2965816 4:0.14995971 5:0.06692798 6:0.35969624 
2 1:-0.22666203 2:-0.33710191 3:-0.065312873 4:0.0045789329 5:-0.0083914962 6:0.071144556 
2 1:-0.05553871 2:-0.10297067 3:-0.010909042 4:-1.1543113 5:-1.3087811 6:-1.2616819 
0.2334766492094594 1:-0.35793771 2:-0.15855218 3:0.088873958 4:1.4952416 5:0.54363453 6:0.57234628 
1.496178205298033 1:0.43010068 2:0.93732734 3:1.2116072 4:0.085032371 5:0.14802908 6:0.17143195 
1.76471749897107 1:1.1644337 2:2.4797534 3:3.4413347 4:-0.75518067 5:-0.8262929 6:-0.8294817 
2 1:-0.44589189 2:-0.18772073 3:-0.16595647 4:-0.22690113 5:0.39101557 6:-0.0064037091 
2 1:0.25520207 2:-0.33797869 3:-0.0080403776 4:-1.01489 5:-0.91705643 6:-0.79435367 
2 1:-0.18829134 2:-0.36657577 3:0.12841501 4:-0.82269569 5:-0.84506337 6:-0.84092968 
1.908582478035617 1:-0.44373674 2:-0.39940017 3:-0.43264146 4:1.9424403 5:2.6927344 6:2.1424438 
0.116883782535599 1:0.39528674 2:0.91564272 3:0.091820154 4:0.97237262 5:-0.0071242916 6:0.48695694 
2 1:-0.38291784 2:-0.40765912 3:-0.39856638 4:1.0936017 5:0.99388818 6:0.9367212 
2 1:-0.52282919 2:-0.44132116 3:-0.62691207 4:0.57520239 5:-0.036507599 6:-0.0049139042 
2 1:0.0087917232 2:0.37454497 3:0.39163434 4:0.30757317 5:0.33850578 6:0.28606851 
2 1:-0.77783753 2:-0.65359556 3:-0.79591516 4:-0.2540326 5:-0.23854754 6:-0.00036607878 
2 1:0.10057393 2:0.28177864 3:-0.094759325 4:-0.38592606 5:-0.35885278 6:-2.3221878 
2 1:-0.079750223 2:-0.11582487 3:-0.14023928 4:0.068486878 5:-0.036824401 6:-0.00067972191 
0.01299999348117928 1:0.64109425 2:1.7042739 3:0.61011802 4:-0.23239016 5:-0.075870144 6:0.013434219 
0.2345766291002821 1:1.491323 2:0.3477719 3:1.4413329 4:-0.76874641 5:-0.35417997 6:0.64934567 
2 1:0.8439495 2:0.82115415 3:0.56321148 4:-0.8184613 5:-0.84728097 6:-0.8127018 
2 1:1.0732543 2:0.95822912 3:0.56755324 4:-1.0333959 5:-1.0266696 6:-0.82164063 
1.297015854561669 1:-0.24847726 2:0.34628451 3:0.98281179 4:-0.32742872 5:-0.074048537 6:0.23455263 
0.4357610461001507 1:0.074275086 2:-0.079853457 3:-0.11018809 4:1.4812837 5:1.2109762 6:1.6439865 
2 1:-0.34834504 2:-0.57066951 3:-0.39594582 4:0.23958766 5:0.28282797 6:0.13497093 
1.380222905857014 1:-0.10180659 2:-0.28373583 3:-0.37920678 4:2.6043385 5:2.085981 6:1.8829825 
1.551288405822521 1:0.015950434 2:0.25970261 3:1.2314552 4:-1.4724395 5:-1.4710625 6:-1.1779392 
2 1:-0.17285867 2:-0.09652791 3:0.20462844 4:-0.87978156 5:-0.75065662 6:-0.62961262 
2 1:0.71614768 2:0.32350392 3:0.011187427 4:-0.63912698 5:-0.75216143 6:-0.67979552 
2 1:-0.38881813 2:-0.77877217 3:-0.17943144 4:-0.05862328 5:-0.67042673 6:-0.72872385 
2 1:-0.77783753 2:-0.74385602 3:-0.79591516 4:-0.2406237 5:-0.23427073 6:-0.24093036 
1.215568691331061 1:0.13388077 2:0.6380483 3:0.84123933 4:0.63119045 5:0.12244738 6:-0.14001568 
2 1:-0.11607126 2:-0.15850521 3:-0.58309903 4:-0.64689003 5:-0.74146939 6:-0.59377889 
2 1:0.02039637 2:0.17460809 3:0.1439213 4:-0.92604621 5:-1.0231056 6:-0.31996843 
2 1:-0.41660146 2:-0.8041052 3:-0.27967963 4:-0.36710654 5:-0.27688048 6:-0.44965987 
0.1034171073808624 1:0.8704744 2:0.83438412 3:0.15338014 4:-0.21059088 5:-0.58496961 6:-0.46197036 
2 1:-0.090495824 2:0.063914776 3:-0.1431157 4:-0.89224949 5:-0.97590225 6:-0.88625111 
2 1:-0.4716105 2:-0.36846241 3:-0.41512711 4:0.21080948 5:0.38372914 6:0.19244604 
1.256901045078825 1:0.34080518 2:1.5747925 3:3.4726574 4:-0.23270382 5:-0.22167788 6:-0.50329284 
2 1:-0.011026602 2:-0.074592784 3:-0.20541999 4:-0.29080908 5:-0.55843751 6:-0.47185012 
2 1:-0.43865029 2:-0.05995371 3:-0.1305556 4:-0.24187833 5:-0.32075744 6:-0.70418127 
2 1:0.011805917 2:1.0358867 3:0.32883385 4:-0.80481715 5:-0.18231533 6:-0.49317785 
2 1:-0.51837572 2:-0.68045474 3:-0.51840678 4:-1.2504476 5:-1.1038899 6:-1.097725 
2 1:-0.35160791 2:-0.80589673 3:-0.79591516 4:0.57175214 5:0.5896499 6:0.62848841 
2 1:-0.53986692 2:0.36358523 3:0.1175606 4:-0.86300083 5:-0.80641362 6:-0.53159914 
2 1:-0.3249775 2:-0.48145727 3:-0.65932797 4:-1.2294325 5:-1.2904858 6:-1.3300561 
0.2839599265357663 1:0.31616415 2:0.068768372 3:5.0318152 4:0.15787959 5:0.033901459 6:-0.23442227 
0.05672912136664227 1:-0.18021331 2:-0.40013604 3:-0.37013559 4:6.8250858 5:5.959984 6:5.5161462 
0.2906389325220549 1:3.0415983 2:3.9279258 3:0.6457825 4:0.30592646 5:1.6443602 6:1.3375571 
2 1:0.15874787 2:0.054285866 3:-0.14754275 4:0.13349263 5:0.014101386 6:0.047621321 
2 1:-0.77556596 2:-0.52731593 3:-0.79591516 4:-0.46528169 5:-0.47947482 6:-0.38551985 
2 1:-0.66768381 2:-0.80540455 3:-0.47895876 4:1.0337713 5:0.063918369 6:0.88724399 
2 1:-0.47989953 2:-0.44543106 3:-0.22312818 4:-1.1290618 5:-1.2216607 6:-1.123679 
2 1:-0.49004983 2:-0.80460184 3:-0.4354326 4:0.51756762 5:0.30698406 6:0.28826402 
2 1:0.43861577 2:0.14720876 3:0.022351958 4:-0.89209266 5:-0.99902873 6:-0.98779308 
2 1:-0.099930251 2:-0.37541401 3:-0.48658011 4:-0.39729618 5:-0.31157021 6:-0.51873977 
2 1:-0.77783753 2:-0.80589673 3:-0.66368524 4:0.11788811 5:0.092272073 6:0.14916329 
0.140812392516774 1:2.7217923 2:2.409846 3:1.488317 4:1.1175966 5:1.1190246 6:0.099137206 
0.2234191806803867 1:0.40206867 2:-0.20362017 3:-0.089099528 4:4.3785485 5:3.6703828 6:5.6349385 
0.1406731590718863 1:1.6545416 2:4.1774163 3:1.5453801 4:0.57982885 5:1.0526548 6:1.0528476 
0.2997670193237785 1:3.0365495 2:0.79837356 3:0.62981101 4:0.85231979 5:0.96355447 6:1.1822254 
2 1:-0.55721361 2:-0.66396034 3:-0.58884411 4:0.76065305 5:0.39259958 6:0.56340746 
2 1:-0.47962826 2:-0.80589673 3:-0.559607 4:-0.29088749 5:-0.32463826 6:-0.24030308 
2 1:-0.093547695 2:0.14611278 3:0.4045821 4:0.53677921 5:0.32385372 6:0.078907223 
2 1:0.0869347 2:0.12074883 3:0.10089134 4:0.66710437 5:0.59416431 6:0.51416548 
2 1:-0.77710176 2:-0.50342371 3:-0.79358247 4:-0.56902428 5:-0.52176778 6:-0.48314127 
2 1:1.0832011 2:0.69934453 3:1.3289898 4:-0.91522499 5:-1.0479745 6:-1.3068466 
2 1:0.23756904 2:0.33047118 3:0.4725772 4:0.75861427 5:1.2302218 6:1.0020374 
0.3459849876441426 1:0.19356181 2:0.54810019 3:1.0189415 4:1.0368295 5:3.1068727 6:3.8343133 
2 1:-0.7751616 2:-0.55809713 3:-0.79515814 4:-0.66688577 5:-0.60524489 6:-0.56774651 
0.2989520403525249 1:2.2110371 2:0.88847823 3:1.4631968 4:0.05993968 5:0.5084696 6:-0.10120235 
2 1:-0.77783753 2:-0.48000119 3:-0.79591516 4:-0.024512905 5:-0.06676211 6:0.010768252 
0.07976652839592629 1:-0.57472607 2:-0.52340174 3:0.96753809 4:1.5484067 5:1.7082748 6:1.3214829 
2 1:0.031322823 2:-0.06527701 3:0.088873958 4:-0.43336692 5:-0.32455906 6:-0.52030798 
2 1:-0.085100417 2:-0.28049488 3:-0.22990443 4:0.24413571 5:0.043405494 6:0.0030055849 
2 1:-0.4370377 2:-0.58738311 3:-0.62964893 4:0.13482568 5:0.17289797 6:0.38141603 
2 1:0.077213925 2:0.72533476 3:0.32162343 4:-1.0314355 5:-0.88307951 6:-0.49074712 
2 1:0.32784415 2:0.33485507 3:0.36457586 4:-1.2852638 5:-0.47646521 6:-0.79686282 
2 1:-0.29647076 2:-0.24006129 3:0.012272867 4:-0.41509631 5:-0.4191242 6:-0.38426528 
2 1:0.47810171 2:0.034166925 3:0.26967734 4:-0.68217663 5:-0.76617988 6:-0.62333975 
2 1:0.1243107 2:-0.14894675 3:0.046309182 4:0.58076983 5:0.92300392 6:0.75810143 
2 1:-0.3219407 2:-0.28414291 3:-0.48564198 4:0.10251884 5:0.33375376 6:0.17221606 
2 1:-0.53127647 2:-0.5350582 3:-0.48223059 4:-0.85413997 5:-0.93741091 6:-0.81230974 
2 1:-0.12880623 2:-0.28595909 3:-0.47660956 4:-0.082618165 5:0.33153615 6:0.14767348 
2 1:-0.77521134 2:-0.41291979 3:-0.79357797 4:-0.29818006 5:-0.5003837 6:-0.46400904 
0.5411630046081821 1:0.76927284 2:1.7146074 3:0.43381146 4:1.2534108 5:1.5105909 6:1.6675881 
2 1:-0.365963 2:-0.43346929 3:-0.22636124 4:-0.73722372 5:-0.68008916 6:-0.36380006 
0.9479896500862881 1:1.1000806 2:1.0397226 3:0.9227249 4:1.6663423 5:0.70298551 6:0.13810737 
0.2405812275867211 1:-0.14474378 2:1.8766549 3:2.4274556 4:-0.21968698 5:0.22786297 6:0.50946084 
0.354696674663605 1:0.10976722 2:4.8396191 3:2.7409154 4:1.5656579 5:-0.57451517 6:1.2081793 
2 1:-0.20486941 2:-0.23957593 3:-0.052039486 4:0.83561746 5:0.7795722 6:0.5768157 
2 1:0.11232928 2:-0.18310981 3:0.086780608 4:-0.58392306 5:-0.73624217 6:-0.9486661 
2 1:-0.032721262 2:-0.25100537 3:-0.79491562 4:0.0077939338 5:0.097499292 6:-0.34388372 
2 1:-0.37119263 2:-0.035239509 3:-0.14840335 4:-0.98156379 5:-0.81274965 6:-0.87935096 
1.405617130147468 1:1.7336642 2:1.9028017 3:0.86356839 4:-0.59247026 5:-1.0433017 6:0.41301557 
2 1:-0.42009793 2:-0.64942303 3:-0.34586825 4:0.14980288 5:0.21226051 6:0.1056453 
1.470362414853311 1:0.55541579 2:-0.80589673 3:-0.41132031 4:-0.58023758 5:-0.5551111 6:-0.62678983 
2 1:-0.10660669 2:0.20333826 3:0.18051615 4:-0.36365629 5:-0.34229992 6:-0.49647111 
2 1:0.76203878 2:1.1371076 3:0.40791595 4:-0.22172577 5:0.10304331 6:-0.0016206513 
2 1:2.1876771 2:1.8436191 3:0.34092876 4:-0.56980843 5:-0.24947718 6:-0.47090919 
2 1:-0.29035949 2:-0.13264024 3:0.11678529 4:-0.22376455 5:-0.097650224 6:0.51487118 
0.0532217064165965 1:-0.17303199 2:-0.80589673 3:-0.79591516 4:-0.07124804 5:0.09140087 6:-0.028986015 
1.311537616307899 1:0.31827408 2:1.2398943 3:1.6402786 4:-0.52652354 5:-0.77425831 6:-0.038787363 
2 1:0.62609863 2:0.37689348 3:0.21951448 4:-0.065210111 5:-1.0107504 6:-1.2125184 
0.8172579561632419 1:-0.046790012 2:0.83328814 3:0.50769895 4:2.4208482 5:1.4918204 6:1.5135109 
2 1:-0.53430573 2:-0.48651441 3:-0.38950296 4:0.83310819 5:0.74266486 6:0.68282708 
2 1:-0.43483733 2:-0.80589673 3:-0.79591516 4:-0.15248562 5:-0.15649604 6:-0.085206547 
0.2087500508036596 1:0.71305813 2:1.7766864 3:2.2074989 4:0.44424991 5:-0.27957329 6:-0.41782509 
2 1:-0.36499093 2:-0.41922947 3:-0.26720482 4:-0.042156202 5:0.30294485 6:0.87603125 
0.612485636624964 1:0.65028754 2:0.30330669 3:0.44233992 4:1.5277052 5:2.0188191 6:1.4096166 
0.6774744688307336 1:0.056189922 2:0.63491695 3:0.36178473 4:0.69580413 5:2.1562316 6:1.5843943 
2 1:0.92985402 2:0.90483955 3:0.62097243 4:0.66483034 5:0.76880096 6:0.67529964 
0.2156805304311271 1:-0.65697589 2:-0.32863943 3:0.06732021 4:3.4669781 5:2.5483523 6:1.1602703 
2 1:-0.56250352 2:-0.80571169 3:-0.51580947 4:-0.40458875 5:-0.26848525 6:-0.31298987 
2 1:-0.32520357 2:-0.0080280533 3:0.34263445 4:-0.34758129 5:-0.32741027 6:-0.45899075 
2 1:-0.49747228 2:-0.80066346 3:-0.79513736 4:-0.48770828 5:-0.46529797 6:-0.46910574 
0.3235767312810109 1:0.70605013 2:2.6587102 3:3.9676183 4:0.33164647 5:1.9004147 6:0.8400407 
2 1:-0.52479595 2:-0.80589673 3:-0.79591516 4:0.51686188 5:0.51551843 6:0.69035451 
2 1:-0.46066898 2:-0.29029602 3:0.14942603 4:-0.62171893 5:-0.69751322 6:-0.66811231 
2 1:-0.65148252 2:-0.80589673 3:-0.79591516 4:-0.59356807 5:-0.83643053 6:-0.66905324 
2 1:-0.24871086 2:-0.071704111 3:-0.084835297 4:-1.4250771 5:-1.514781 6:-1.3513839 
0.2229895576139012 1:0.22619046 2:-0.11782894 3:-0.1572807 4:5.3071348 5:6.6759546 6:4.6799736 
2 1:-0.77783753 2:-0.46828211 3:-0.79591516 4:-0.64273406 5:-0.65339866 6:-0.67979552 
0.1069663968353668 1:0.22890323 2:0.34190061 3:0.21788632 4:1.7237419 5:1.761339 6:1.2990574 
0.5517993615357959 1:1.3465663 2:1.0062954 3:0.23649387 4:1.1675467 5:0.55020815 6:0.99176557 
1.346016077714541 1:0.13960774 2:0.020310689 3:1.1933097 4:-0.97999549 5:-1.008216 6:-1.0909033 
0.4364739272723001 1:0.51223746 2:0.14728704 3:0.93683563 4:-0.091635851 5:-0.0030850768 6:-0.044981815 
0.2994067610252903 1:1.3242613 2:3.1956589 3:0.82092608 4:0.18485423 5:-0.52430219 6:-1.0411124 
2 1:-0.31744955 2:-0.66496237 3:-0.56624369 4:0.10345981 5:-0.051634855 6:0.054443059 
0.2791043392615473 1:0.97875932 2:0.59366137 3:3.4059028 4:1.0640394 5:0.1533355 6:-0.97979518 
0.3556092788604225 1:0.62338586 2:7.1555676 3:9.1203597 4:1.3363735 5:-0.81346245 6:-0.51066346 
2 1:0.095073024 2:0.076127051 3:-0.13333123 4:-0.51248731 5:-0.17669211 6:-0.30656019 
0.1242128500892269 1:2.423161 2:1.1681863 3:1.4564515 4:-0.93733792 5:-0.54497347 6:-0.63196494 
2 1:-0.77783753 2:-0.38549697 3:-0.79591516 4:0.15693861 5:0.39077797 6:0.52498617 
2 1:-0.44367646 2:-0.31458749 3:-0.37832292 4:-0.60862368 5:-0.37057443 6:-0.20062722 
2 1:-0.43323228 2:-0.75552031 3:-0.63976678 4:0.79076428 5:0.82178595 6:0.53290566 
0.1123298802429907 1:-0.54811828 2:0.4527505 3:1.7965821 4:1.5709117 5:1.3411815 6:0.44861407 
2 1:-0.48673422 2:-0.80587019 3:-0.53556449 4:0.44871955 5:0.46736465 6:0.51808602 
0.1630880847979562 1:0.13930632 2:1.9189281 3:2.8219358 4:0.12016214 5:1.1222719 6:1.8757687 
2 1:0.41050842 2:0.081528635 3:-0.2203448 4:0.46283419 5:0.19729166 6:0.28520599 
2 1:0.98591803 2:1.5693126 3:2.0640656 4:-0.73918408 5:-1.3115531 6:-1.3945098 
2 1:-0.24317228 2:-0.28790836 3:-0.097410901 4:0.09208969 5:-0.060346887 6:0.22286942 
2 1:-0.18603823 2:-0.096825388 3:-0.069398782 4:-0.45744022 5:0.13108022 6:-0.027653031 
2 1:-0.64250776 2:-0.80589673 3:-0.66365423 4:0.029593208 5:-0.011480308 6:0.048327018 
2 1:0.31902763 2:0.32968834 3:0.049643035 4:-0.5220539 5:-0.28487971 6:-0.47381039 
2 1:2.2432137 2:2.1369486 3:1.4723455 4:-0.52973854 5:-0.45413073 6:-0.62694665 
0.2989116267011249 1:0.31759589 2:-0.11180108 3:-0.79591516 4:-2.3235522 5:1.3622487 6:1.0469668 
0.1112108020740351 1:0.1273249 2:-0.39404556 3:1.6961788 4:0.56516531 5:0.54664414 6:-0.19098269 
2 1:-0.17236133 2:-0.40931091 3:-0.72419312 4:-0.14668294 5:0.13686184 6:-0.25575 
2 1:-0.25877073 2:0.11346843 3:0.13547037 4:-0.57325867 5:-0.73014374 6:-0.73170346 
2 1:1.267067 2:1.5447315 3:2.1921476 4:-0.2796742 5:-0.77996073 6:-1.0478557 
2 1:0.86617918 2:0.98359307 3:0.13353208 4:-0.76490409 5:-0.3909289 6:-0.58664351 
1.173666810298899 1:-0.29011835 2:-0.27146093 3:-0.15573783 4:1.7132343 5:1.8490137 6:1.6421046 
1.230071815451022 1:0.57952934 2:-0.10405881 3:-0.79591516 4:-0.173736 5:-0.37207923 6:-0.22477774 
2 1:0.17449703 2:0.32256451 3:-0.17550835 4:-0.98838586 5:-0.59249364 6:-0.54626195 
2 1:0.50364701 2:0.54958758 3:0.47319745 4:-0.72538311 5:-0.91634363 6:-0.94239323 
2 1:-0.53435095 2:0.17390354 3:0.098642923 4:-0.0090652173 5:-0.38300887 6:-0.23661777 
2 1:0.049483341 2:0.58364105 3:0.31030383 4:-1.0866394 5:-0.93899491 6:-0.99469323 
2 1:1.6004368 2:1.0772205 3:1.3996985 4:-0.64445918 5:-0.41508499 6:-0.82924647 
2 1:-0.31568625 2:-0.80523228 3:-0.36516583 4:0.32584378 5:0.12102178 6:0.32778305 
2 1:0.17457239 2:-0.15201548 3:-0.31627448 4:-0.015103146 5:-0.0014218707 6:-0.061291258 
0.6822812964241098 1:3.8317692 2:3.9608832 3:2.7466527 4:0.94492749 5:0.64794131 6:0.78421222 
2 1:-0.47104534 2:-0.41073567 3:-0.37219018 4:1.5857321 5:1.3551207 6:1.0931507 
0.4214843463130998 1:-0.17445619 2:7.699875 3:5.1118277 4:0.59582544 5:0.83303239 6:0.84913635 
2 1:-0.029955739 2:0.0074721427 3:-0.37881137 4:1.2349833 5:0.93013195 6:1.0132501 
2 1:0.5961074 2:0.49901624 3:0.75463668 4:-1.114163 5:-1.399703 6:-1.2242016 
0.2148314590111301 1:-0.097262689 2:-0.092879884 3:-0.12070911 4:2.7468963 5:2.6688159 6:1.9262653 
2 1:-0.28467019 2:-0.13437814 3:-0.55427283 4:-1.3643841 5:-1.3770517 6:-1.3881585 
2 1:-0.18368716 2:-0.19052329 3:-0.48086604 4:0.099147009 5:-0.049021245 6:0.14516434 
2 1:-0.46738309 2:-0.80546065 3:-0.79591516 4:0.34874086 5:0.35022742 6:0.38635591 
0.2951234951644529 1:0.27080053 2:0.63389926 3:0.75192308 4:4.3300098 5:5.415878 6:3.5828499 
2 1:-0.65506188 2:-0.72264972 3:-0.073097033 4:-0.33636799 5:0.33256575 6:-0.21364341 
0.819075101415661 1:1.1364017 2:1.9121957 3:0.038168378 4:0.79499867 5:0.80040187 6:1.3749591 
0.1038801410665568 1:1.2583258 2:0.80948986 3:0.56429692 4:0.0028538105 5:-0.41627299 6:0.17621501 
2 1:-0.43115248 2:-0.43606831 3:-0.12914453 4:0.050059434 5:0.33874338 6:0.29681079 
2 1:1.3113003 2:1.3231883 3:1.1665614 4:0.13968739 5:0.089579263 6:-0.056978665 
2 1:0.36996751 2:0.21367172 3:0.38667233 4:-1.0724464 5:-1.2858922 6:-1.231337 
0.2340628194860438 1:0.63310663 2:0.94359004 3:1.2799899 4:1.3045371 5:0.25225666 6:-0.57472507 
2 1:-0.37052951 2:-0.45033163 3:-0.34849656 4:1.362956 5:0.73133922 6:0.76649138 
0.2536409304585285 1:-0.3312847 2:-0.61596453 3:-0.32608997 4:5.2701231 5:6.501714 6:7.07064 
2 1:-0.31546019 2:-0.71373319 3:-0.43968132 4:-0.084421702 5:0.11563616 6:0.21197032 
1.425091557544488 1:-0.057965136 2:0.32702669 3:0.79906221 4:0.074603221 5:-0.17574171 6:-0.33478807 
2 1:0.21518865 2:0.013343429 3:-0.30176835 4:0.13043446 5:0.14319786 6:0.13191291 
2 1:-0.30346369 2:-0.40118505 3:-0.31950755 4:-0.1662866 5:-0.52897501 6:-0.64356974 
2 1:0.2338013 2:0.35724424 3:0.23060148 4:-0.66578797 5:-0.59906726 6:-0.76863494 
2 1:0.10893832 2:-0.093388729 3:-0.15298546 4:-0.097595365 5:-0.20758023 6:-0.19349184 
2 1:-0.52551182 2:-0.80589673 3:-0.79591516 4:-0.1753827 5:-0.33089508 6:-0.3641137 
2 1:0.38217499 2:0.38699209 3:0.38845555 4:0.20320326 5:-0.035794797 6:0.13316749 
2 1:0.30357989 2:0.35246893 3:0.43551715 4:0.20704558 5:0.16347313 6:0.2234183 
2 1:-0.77783753 2:-0.49907113 3:-0.79591516 4:-0.34052397 5:-0.24488356 6:-0.27488223 
0.2007293216368881 1:0.3651448 2:-0.16486968 3:0.88395917 4:0.5559908 5:-0.38079126 6:-0.4077101 
2 1:0.40960416 2:0.15566341 3:0.21509519 4:-0.59082355 5:-0.23712194 6:-0.52250349 
2 1:0.13094193 2:0.34330972 3:0.27905865 4:0.61691899 5:0.69086787 6:0.091688181 
2 1:0.50651049 2:0.48915248 3:0.87899715 4:0.066369682 5:0.11191375 6:0.22992639 
2 1:0.28865963 2:0.070490616 3:0.069103434 4:0.89238967 5:0.79469945 6:1.3869559 
2 1:-0.77783753 2:-0.52778564 3:-0.79591516 4:-0.47108437 5:-0.3904537 6:-0.50909524 
2 1:1.1596863 2:0.32694841 3:-0.0040862727 4:-0.86817619 5:-1.020492 6:-1.1828007 
0.06097313945488721 1:0.76392265 2:1.0015984 3:1.6288815 4:1.8044305 5:1.8790306 6:1.7479592 
2 1:-0.26598219 2:-0.53274883 3:-0.59493033 4:-0.42654485 5:-0.21613386 6:-0.23308928 
2 1:0.10999328 2:-0.063515624 3:-0.17691942 4:-0.69731066 5:-0.64825064 6:-0.57903766 
2 1:0.37192673 2:-0.25980447 3:0.11011758 4:-0.88142827 5:-1.0897923 6:-0.82093493 
1.207818678850806 1:0.0064557229 2:-0.25849713 3:-0.38733983 4:1.3915774 5:1.2167578 6:0.97169241 
2 1:-0.51530878 2:-0.62562475 3:-0.45759884 4:-0.82073533 5:-0.78186153 6:-0.91510628 
2 1:-0.26240284 2:0.033384087 3:0.15872981 4:-0.053839986 5:-0.050130049 6:0.093256397 
0.186562316937752 1:1.0901338 2:-0.80589673 3:-0.79591516 4:2.0039958 5:2.2863577 6:2.081597 
2 1:-0.77502981 2:-0.44219011 3:-0.79591516 4:-0.25113126 5:-0.25755561 6:-0.29809182 
2 1:-0.35413983 2:-0.44694194 3:-0.34257316 4:0.736815 5:0.75668331 6:0.79032826 
2 1:-0.77783753 2:-0.80589673 3:-0.54573662 4:-0.52887598 5:-0.62694577 6:-0.58123316 
2 1:-0.77783753 2:-0.55976458 3:-0.65776184 4:-1.0529995 5:-1.2833578 6:-1.1817814 
2 1:0.16990039 2:-0.17056875 3:-0.57033735 4:0.46448089 5:0.55749458 6:-0.47443768 
2 1:-0.60858301 2:-0.31995776 3:-0.48871998 4:0.55520665 5:0.79050184 6:0.45057434 
1.137333391042487 1:-0.088046791 2:0.18118394 3:0.5056056 4:1.1631555 5:0.029466243 6:1.4197316 
2 1:-0.77783753 2:-0.48939525 3:-0.79591516 4:-0.18000917 5:-0.013777116 6:0.16155219 
2 1:0.76821788 2:0.56908026 3:0.10112393 4:-1.3661877 5:-1.3096523 6:-1.1993454 
2 1:-0.41731733 2:0.12419332 3:0.72633769 4:-0.01635778 5:-0.70377005 6:-0.77075203 
2 1:-0.77625108 2:-0.11926153 3:-0.79428816 4:0.35407306 5:0.28116477 6:0.26152594 
0.3555864302625394 1:19.723428 2:11.954366 3:12.832256 4:-0.75118153 5:-0.47733642 6:-0.65454725 
2 1:-0.68890374 2:-0.56248102 3:-0.60098554 4:0.58445532 5:0.39204517 6:0.93068357 
0.1160150135006682 1:0.21172233 2:1.3359485 3:-0.77896523 4:-0.081755604 5:-0.60413608 6:-0.53450034 
2 1:0.94560319 2:0.44085136 3:0.034446867 4:0.43570271 5:0.4809079 6:0.4335592 
2 1:-0.77783753 2:-0.63703853 3:-0.59089095 4:1.3914205 5:1.2975421 6:1.2887856 
2 1:-0.77476659 2:-0.80589673 3:-0.55214072 4:0.44762174 5:0.51686483 6:0.46163026 
1.126524708743339 1:3.9555772 2:4.0304776 3:4.0949249 4:0.44244638 5:-0.042606022 6:0.76382542 
1.757951848345778 1:-0.55869056 2:-0.10188252 3:0.22750022 4:0.21096631 5:0.2079045 6:1.0328528 
2 1:-0.77705271 2:-0.43477663 3:-0.79336709 4:0.31447366 5:0.2900352 6:0.26254528 
2 1:0.1623649 2:-0.80050313 3:-0.79591516 4:-0.31417665 5:-0.6909396 6:-0.58342867 
2 1:-0.63971963 2:-0.66104818 3:-0.69189119 4:0.3939077 5:0.25550387 6:0.28254003 
2 1:0.24751588 2:0.1025087 3:0.28572636 4:0.63291558 5:0.74171446 6:-0.03651345 
2 1:-0.77783753 2:-0.49609635 3:-0.79591516 4:-0.34083763 5:-0.30301658 6:-0.3110296 
0.2059168263150031 1:-0.62877811 2:-0.42167975 3:0.12314287 4:5.2130373 5:4.4867002 6:5.064108 
2 1:-0.6072869 2:-0.79668038 3:-0.6375804 4:0.50392347 5:0.42134928 6:0.41889638 
2 1:-0.77352203 2:-0.19514204 3:-0.25827319 4:-0.25034712 5:-0.35140795 6:-0.30130667 
0.6248202905170456 1:2.733623 2:0.074091672 3:-0.16529746 4:-0.019651196 5:-0.32075744 6:-0.64121741 
2 1:-0.42443837 2:-0.53013415 3:-0.65124144 4:1.3692292 5:1.1402503 6:1.298587 
2 1:-0.14209129 2:-0.41058693 3:-0.33037746 4:0.49349432 5:0.5094992 6:0.33656506 
0.3551538335034638 1:-0.77783753 2:7.5236581 3:3.985373 4:0.46887211 5:-1.2654585 6:-1.3941962 
2 1:0.38209964 2:0.22619713 3:0.63004361 4:-0.71762005 5:-0.78003993 6:-0.68010916 
2 1:-0.29262767 2:0.5625827 3:-0.02846992 4:0.32317768 5:0.12062578 6:0.34009354 
0.04940721835196919 1:-0.11628979 2:-0.25203871 3:-0.2071722 4:1.5295872 5:1.4089769 6:1.5644779 
2 1:-0.77783753 2:-0.71133771 3:-0.79591516 4:-0.034942054 5:-0.072781333 6:-0.061134436 
2 1:0.056265277 2:-0.027841688 3:0.044448427 4:-0.43266119 5:-0.87333787 6:-0.66042805 
2 1:0.53009656 2:0.34417085 3:0.76440564 4:-1.2759324 5:-1.2514401 6:-1.141635 
2 1:-0.77758993 2:-0.41423496 3:-0.79581728 4:0.032024063 5:0.14692027 6:0.096157596 
0.9171870656491 1:1.6928219 2:2.6943294 3:2.4980868 4:0.15835007 5:0.22675417 6:-0.24281222 
2 1:-0.30008026 2:-0.22831872 3:-0.34815542 4:-0.85798229 5:-0.85274579 6:-0.50964412 
2 1:-0.32296553 2:-0.29764687 3:-0.53329282 4:0.5254875 5:0.63915008 6:0.72767805 
2 1:1.005661 2:0.38276477 3:0.19555726 4:-0.77054995 5:-0.89630595 6:-0.53967545 
0.3550701318973316 1:4.0450234 2:3.3357087 3:1.3270515 4:3.0686316 5:3.5983897 6:2.5866409 
0.5770638105173547 1:1.5793375 2:1.7987625 3:1.7250205 4:0.74779305 5:-0.008866698 6:0.33852533 
2 1:-0.77783753 2:-0.47682287 3:-0.79591516 4:-0.65128125 5:-0.79350398 6:-0.61589073 
2 1:-0.66118069 2:-0.80589673 3:-0.67075611 4:-0.75980714 5:-0.80783923 6:-0.67854095 
2 1:0.30945756 2:-0.023598705 3:-0.37084113 4:-0.31480396 5:-0.17574171 6:-0.41515912 
0.02669766288391371 1:0.93136112 2:0.65315708 3:0.039719007 4:0.66647705 5:0.73268562 6:0.1914267 
2 1:-0.43767821 2:-0.51686504 3:-0.69378296 4:0.16815191 5:0.28084797 6:0.44430147 
0.4079766500976326 1:0.20689962 2:0.24381099 3:-0.15426473 4:0.63589533 5:0.44439657 6:0.25486102 
1.118297149420451 1:0.32015795 2:0.51208964 3:0.49281291 4:0.30624012 5:0.59487712 6:0.01751158 
1.476091906947493 1:1.390875 2:1.1082209 3:1.0315016 4:0.038610894 5:0.2630279 6:1.0824868 
2 1:-0.48729184 2:-0.80115962 3:-0.53348665 4:1.6636762 5:1.7685462 6:1.8215869 
2 1:0.5362003 2:0.87681394 3:0.6177161 4:-0.66029894 5:-0.98342627 6:-0.87292128 
2 1:-0.091550792 2:-0.80589673 3:0.10608594 4:0.32317768 5:0.41643886 6:0.39443222 
0.4987893212030804 1:-0.77783753 2:-0.3376499 3:-0.79550734 4:2.8609112 5:3.2642437 6:3.9500476 
0.839055887029888 1:0.81983595 2:0.6457984 3:0.32456962 4:-0.30790347 5:0.79660026 6:-0.40582824 
1.346330442086232 1:1.1092739 2:1.5300141 3:0.79270463 4:-0.39431643 5:-0.22936031 6:-0.4716933 
2 1:0.1972542 2:-0.036092802 3:0.12577894 4:0.57104641 5:0.42483409 6:0.4372445 
2 1:0.026952241 2:-0.17807616 3:-0.071716973 4:-1.1659166 5:-1.2206311 6:-1.099058 
1.559729171508468 1:-0.32758478 2:-0.41583195 3:-0.09415458 4:0.94257505 5:0.35941465 6:0.37929894 
2 1:-0.59354971 2:-0.27041976 3:0.23393534 4:-1.1282776 5:-1.1337484 6:-0.99547733 
0.3556017612735515 1:2.8608973 2:0.53995867 3:5.8707057 4:0.51082396 5:1.3768216 6:1.6137983 
2 1:0.85766408 2:0.89317526 3:0.9005509 4:-0.10104561 5:0.12339779 6:0.10156794 
2 1:-0.46628291 2:-0.46989475 3:-0.32491149 4:0.53121177 5:0.6183996 6:0.50608917 
2 1:-0.47040482 2:-0.39554078 3:-0.47588076 4:0.74442122 5:0.67922543 6:0.69662738 
2 1:1.1719691 2:0.16599687 3:0.14221561 4:-1.3533277 5:-1.4424712 6:-1.5126749 
0.1793344399952918 1:0.71155103 2:1.3773607 3:0.87729146 4:0.59143422 5:0.36535468 6:-0.25167264 
2 1:-0.54297908 2:-0.5721569 3:-0.38251737 4:0.19975301 5:0.10842893 6:0.38078874 
0.9524124264845472 1:0.48978171 2:-0.80589673 3:-0.79591516 4:0.6234274 5:-0.12465752 6:0.056795382 
2 1:-0.77783753 2:-0.56093883 3:-0.79591516 4:0.03045577 5:0.14921708 6:0.10086224 
0.4141393605248168 1:1.4333751 2:1.5277439 3:1.5210352 4:2.2026986 5:2.7252065 6:2.4216646 
2 1:-0.77783753 2:-0.49962695 3:-0.79591516 4:-0.12645196 5:0.13408983 6:0.16147378 
2 1:-0.12636473 2:-0.087752294 3:-0.092580691 4:-0.48167035 5:-0.55146789 6:-0.63086719 
0.3290294959427524 1:0.89963673 2:-0.80589673 3:0.93443215 4:4.1323265 5:3.9176461 6:3.1221866 
2 1:-0.77783753 2:-0.80589673 3:-0.50051251 4:-0.16315002 5:-0.23537953 6:-0.25637729 
0.2566399247758701 1:4.6812444 2:1.8976349 3:0.82612069 4:1.0323598 5:0.15032589 6:0.95240335 
0.3799465565514983 1:2.0605535 2:4.2720614 3:2.2103675 4:-0.78144958 5:-0.70725486 6:-0.75232549 
2 1:-0.30565652 2:-0.24745911 3:-0.37374081 4:-0.43038717 5:-0.48660285 6:-0.63737528 
0.0007947063379383004 1:0.093565927 2:1.1394562 3:0.72703548 4:0.2612301 5:1.0337259 6:1.9350473 
0.4286785078460048 1:1.8804554 2:1.0065302 3:2.5960091 4:0.45765882 5:0.31569609 6:0.55486068 
2 1:-0.24400118 2:-0.14972959 3:-0.026050938 4:-0.49735328 5:-0.51527336 6:-0.50454742 
0.9960443478355342 1:0.90521299 2:0.72768327 3:1.3104598 4:-0.43015192 5:0.73791284 6:0.86450486 
2 1:-0.55350615 2:-0.59323091 3:-0.79591516 4:-0.080108896 5:-0.035557196 6:-0.05752754 
2 1:0.64847902 2:1.3660095 3:1.0367737 4:-0.81697142 5:-0.71216528 6:-0.89534676 
0.2372190808511132 1:1.1238928 2:4.1028901 3:2.0582508 4:0.2794223 5:0.50142077 6:0.63664313 
0.03648446863808372 1:2.6032591 2:0.41290404 3:1.2434726 4:0.39829892 5:0.43093252 6:-0.018635791 
2 1:-0.10329108 2:-0.56980839 3:-0.51565441 4:-1.0893839 5:-0.83785614 6:-0.96724945 
2 1:-0.77783753 2:-0.54940763 3:-0.79591516 4:-0.30359067 5:-0.2265091 6:-0.15985361 
2 1:-0.77783753 2:-0.71765521 3:-0.79591516 4:-0.085441093 5:-0.048387643 6:-0.18102452 
2 1:-0.5522854 2:-0.80589673 3:-0.72446681 4:0.04966736 5:-0.0014218707 6:-0.095086305 
0.3531489743076278 1:-0.13809748 2:-0.80589673 3:-0.16948415 4:3.5471963 5:4.6921458 6:1.1593294 
2 1:-0.23642049 2:-0.23615493 3:-0.50373782 4:0.69666669 5:0.4812247 6:0.87109137 
2 1:-0.43094902 2:0.023363758 3:-0.15062075 4:-0.24987663 5:-0.54972548 6:-0.36850471 
2 1:-0.52154816 2:-0.1760721 3:-0.4526911 4:-0.64704686 5:-0.62179775 6:-0.72299986 
2 1:-0.29978638 2:-0.52822403 3:-0.55405574 4:0.5565397 5:1.0653268 6:0.83392466 
0.7253317501338906 1:0.82352833 2:2.4430383 3:4.9873897 4:0.29338011 5:-0.2825829 6:-0.28570292 
0.8434640766897149 1:0.41826996 2:0.67022295 3:0.26634349 4:0.32686317 5:-0.18271134 6:-0.33125959 
2 1:-0.70839502 2:-0.80589673 3:-0.64120887 4:-0.09634073 5:0.006656559 6:-0.14683742 
2 1:-0.57858424 2:-0.69878098 3:-0.45445107 4:0.43578113 5:1.1976705 6:1.4597995 
2 1:-0.69055401 2:-0.80589673 3:-0.65052815 4:-0.66923821 5:-0.73537096 6:-0.40833739 
2 1:-0.77783753 2:-0.55620266 3:-0.79591516 4:-0.72357957 5:-0.54481506 6:-0.55669059 
1.129275264262116 1:-0.065960285 2:1.0714275 3:-0.16630536 4:-0.71267993 5:-0.78336634 6:-0.32537878 
2 1:-0.77783753 2:-0.5948827 3:-0.79591516 4:0.038610894 5:-0.048070842 6:-0.26147399 
2 1:-0.77783753 2:-0.68164465 3:-0.79591516 4:-0.47429937 5:-0.57506958 6:-0.37054339 
2 1:-0.77771503 2:-0.22567272 3:-0.79089849 4:-0.95678476 5:-0.79785999 6:-0.87715546 
2 1:0.20471433 2:-0.80589673 3:-0.79591516 4:-0.53663903 5:-0.64429063 6:-0.64827438 
2 1:-0.29178369 2:-0.47740217 3:-0.41582489 4:-1.125141 5:-0.87824829 6:-0.81050629 
0.2797800654776975 1:1.4604275 2:0.73097119 3:0.45521015 4:4.1509891 5:3.3451864 6:2.9282767 
2 1:-0.76803085 2:-0.32682325 3:0.031578203 4:-0.069679747 5:-0.19633379 6:-0.21591732 
2 1:0.27810995 2:-0.13145815 3:-0.24342592 4:-0.31943043 5:-0.18730495 6:-0.33894384 
2 1:-0.46565747 2:-0.45532613 3:-0.072019345 4:0.25354547 5:-0.044190028 6:0.084003924 
0.6862715611423393 1:0.13968309 2:-0.029963179 3:0.71346747 4:-0.49813743 5:-0.5261238 6:-0.31071596 
2 1:-0.25278002 2:-0.026643945 3:-0.2848975 4:-0.25246431 5:-0.31758943 6:-0.42025582 
2 1:-0.1446006 2:1.1013319 3:1.7600648 4:-1.1395693 5:-0.69497882 6:-0.32898567 
2 1:-0.066224027 2:-0.11338242 3:0.069413559 4:0.87082564 5:0.42150768 6:1.1096954 
2 1:-0.77440655 2:-0.40570202 3:-0.72603992 4:-0.044900715 5:-0.12521192 6:0.27030795 
2 1:-0.14449511 2:-0.25416803 3:0.33449365 4:-0.31911677 5:-0.29089893 6:-0.10214328 
0.08872668622755292 1:0.063951472 2:0.23880083 3:0.86349086 4:1.6530118 5:0.80190668 6:2.4810216 
2 1:0.51065501 2:1.2196971 3:0.16663802 4:-1.0178698 5:-1.3761013 6:-1.4177194 
0.1387999700255206 1:1.3516151 2:1.4699704 3:0.5166926 4:-0.38169167 5:-0.12069751 6:-0.24430203 
2 1:-0.77783753 2:-0.55586604 3:-0.35406332 4:-0.64649796 5:-0.67985156 6:-0.58938788 
0.01229405585504981 1:2.3590341 2:2.3292919 3:1.9674614 4:2.0017218 5:1.917126 6:1.2354663 
0.4277935110321367 1:0.0057775293 2:1.0246921 3:1.517934 4:0.54352287 5:0.62133001 6:0.15378952 
0.3474301505887158 1:0.9023495 2:0.80267917 3:0.56600262 4:0.22884485 5:-0.064306901 6:-0.47639795 
2 1:-0.69551236 2:-0.80589673 3:-0.79591516 4:0.16321178 5:-0.018212332 6:0.13975399 
2 1:0.033055984 2:-0.80589673 3:-0.17095725 4:0.3184728 5:0.57824506 6:0.32927286 
0.2730628701855184 1:1.9308678 2:1.6165177 3:0.63671131 4:0.17160215 5:0.3186265 6:-0.37242525 
2 1:-0.67665104 2:-0.80589673 3:-0.79591516 4:-0.22823418 5:-0.20797623 6:-0.097830683 
0.2166915566691492 1:1.6026221 2:1.6428994 3:1.7837119 4:0.50086529 5:0.74607047 6:0.0015941908 
2 1:-0.2270162 2:-0.038527429 3:0.068483182 4:-0.65818174 5:-0.67161473 6:-0.88876026 
0.9114767604856332 1:2.0416394 2:0.90374358 3:0.95071376 4:-0.64641955 5:-0.83571773 6:-0.457893 
0.6982941953296394 1:0.7763562 2:0.85927837 3:1.1530709 4:0.23056997 5:0.13298102 6:-0.13405646 
0.7419967580303981 1:0.035768759 2:0.94499915 3:1.3713995 4:-0.63191283 5:-0.14366559 6:0.89100771 
2 1:0.042701405 2:0.049353986 3:-0.00098501393 4:-0.25481675 5:-0.094244611 6:-0.11476741 
1.876940831441374 1:0.3621306 2:0.3105088 3:0.38504417 4:-0.38733752 5:-0.84585537 6:-0.10700474 
1.536286992979912 1:0.35519796 2:0.17773945 3:0.15733424 4:-0.083323897 5:0.37707632 6:0.472843 
2 1:-0.77783753 2:-0.67238368 3:-0.79591516 4:0.10048006 5:0.14018825 6:0.19244604 
2 1:0.84003105 2:1.0839529 3:1.3498458 4:0.081111638 5:-0.17875132 6:0.064479639 
2 1:-0.20938317 2:-0.062670158 3:-0.10009349 4:0.64248216 5:1.1004918 6:0.79260218 
2 1:-0.041394605 2:0.34988556 3:0.16555258 4:-1.1238864 5:-0.75121102 6:-0.59503346 
0.4147800511978214 1:5.6616863 2:3.079564 3:2.0507302 4:-0.77784251 5:-0.39837373 6:1.1234957 
2 1:-0.77783753 2:0.012795442 3:-0.79591516 4:-0.68688151 5:-0.91856124 6:-0.86774617 
2 1:-0.77558947 2:-0.55263292 3:-0.79576588 4:0.25111461 5:0.24409903 6:0.53078857 
2 1:-0.19684412 2:-0.3227838 3:-0.42933862 4:-0.25113126 5:-0.19633379 6:-0.22477774 
2 1:0.33718815 2:0.43748516 3:0.49064203 4:0.17097483 5:0.21519092 6:0.19174034 
2 1:0.88735389 2:0.55585029 3:0.28665673 4:-0.16322843 5:0.1280706 6:0.081730012 
0.3501411623558611 1:0.61434328 2:0.86663705 3:0.50087618 4:0.53811226 5:0.67471101 6:0.56568137 
2 1:-0.081754662 2:-0.3197229 3:-0.6197404 4:-0.23411528 5:-0.1460416 6:-0.22556185 
2 1:-0.56607534 2:-0.39933755 3:-0.34742663 4:0.15348837 5:0.61538999 6:0.37655456 
2 1:-0.53878181 2:-0.60201435 3:-0.20697837 4:0.089502006 5:-0.071672528 6:0.43144211 
2 1:-0.30491051 2:-0.38425226 3:-0.79591516 4:-0.3577752 5:-0.21312425 6:-0.020047185 
2 1:-0.68362136 2:-0.65148973 3:-0.56657708 4:0.50078688 5:0.52209205 6:0.90778762 
1.169283339299684 1:0.83505763 2:0.98609815 3:0.87891962 4:0.41178624 5:-0.4171442 6:0.61617791 
2 1:-0.53094491 2:-0.80589673 3:-0.79591516 4:-0.21513893 5:-0.1719401 6:-0.21129109 
2 1:-0.42141664 2:-0.59961104 3:-0.51505742 4:-0.23976114 5:0.40574682 6:-0.45710889 
2 1:-0.41173354 2:-0.80589673 3:-0.40122571 4:-0.2946514 5:-0.46355557 6:-0.6847354 
2 1:-0.77783753 2:0.21500254 3:0.14655737 4:-0.83979009 5:-1.0273032 6:-0.9865385 
1.177516647350286 1:-0.36370989 2:-0.14138454 3:0.56197098 4:0.76135878 5:0.64786211 6:0.42665905 
1.127680310713237 1:-0.59519999 2:2.1662267 3:0.81968558 4:0.22766863 5:0.25091026 6:0.23714018 
0.3516100012749118 1:3.4799374 2:3.0316543 3:4.1662539 4:0.59049325 5:0.96585128 6:3.0697297 
2 1:0.22008672 2:0.32812266 3:0.56235864 4:-0.75392604 5:-0.29264134 6:-0.23512796 
0.8714269756269603 1:0.23191743 2:0.34377943 3:0.49824011 4:0.92822517 5:0.58180907 6:0.59461495 
2 1:-0.73970119 2:-0.41043819 3:-0.61839136 4:0.24758595 5:0.35323703 6:0.59226262 
2 1:0.90483621 2:0.90147335 3:0.54692987 4:-0.24885724 5:-0.35837758 6:0.21095098 
2 1:-0.62745186 2:-0.80589673 3:-0.73627408 4:-0.58321733 5:-0.82423369 6:-0.74064229 
2 1:-0.17740257 2:-0.14323204 3:-0.21552234 4:-0.20180844 5:0.27902636 6:0.085415318 
2 1:-0.24501847 2:-0.33383748 3:-0.4181896 4:0.10408713 5:0.21534932 6:0.14500751 
0.2551489636699955 1:0.37742764 2:0.42253295 3:-0.12898172 4:2.9706133 5:4.8467447 6:4.1499167 
2 1:-0.77659417 2:-0.80589673 3:-0.42424481 4:-0.38710228 5:-0.21320345 6:-0.36583874 
2 1:-0.3118959 2:-0.31164401 3:-0.14340257 4:0.78919599 5:0.62798284 6:1.7052253 
2 1:-0.77783753 2:0.10485721 3:-0.79497416 4:0.42143125 5:0.38792676 6:0.3557757 
2 1:-0.11693784 2:-0.21803222 3:-0.013390049 4:0.16752459 5:-0.030013176 6:0.0011237261 
2 1:-0.77535549 2:-0.50206157 3:-0.79591516 4:0.70403767 5:0.36852269 6:0.19299491 
2 1:-0.77783753 2:-0.80589673 3:-0.25044251 4:0.19340143 5:0.17123476 6:0.41332922 
2 1:0.14480722 2:-0.087079053 3:-0.19207682 4:-0.26822566 5:-0.10224384 6:-0.39916332 
2 1:-0.77783753 2:-0.80589673 3:-0.49349591 4:-0.3385636 5:-0.44731951 6:-0.33972795 
0.3051078044542761 1:1.4852946 2:1.7261934 3:2.527006 4:0.061507974 5:1.0191531 6:1.3395174 
0.2050875630565067 1:-0.77783753 2:0.14274658 3:0.91714264 4:1.9567118 5:1.3458543 6:0.21785113 
2 1:0.087688249 2:-0.16185576 3:0.14159536 4:0.52807518 5:1.2795636 6:0.21236238 
0.9230009399528272 1:-0.30210731 2:-0.28611566 3:0.33333068 4:1.1666057 5:1.2676836 6:1.0403803 
1.853189108147941 1:0.59256573 2:0.88432919 3:1.6408214 4:-0.46418388 5:0.33201135 6:0.12273885 
2 1:0.50236597 2:0.4982334 3:0.66857675 4:-0.55561537 5:-0.61253131 6:-0.65180287 
2 1:0.12657135 2:-0.056462252 3:-0.18068745 4:-0.012593877 5:0.23863421 6:-0.50360649 
0.09344293856435643 1:-0.42856028 2:-0.13347004 3:0.11135808 4:3.7153173 5:3.2552941 6:4.8072343 
2 1:-0.32569337 2:-0.42681517 3:-0.55464498 4:-0.054153645 5:0.039999881 6:0.11262386 
2 1:-0.65805346 2:-0.80589673 3:-0.59741134 4:0.073427001 5:0.096311288 6:0.030214127 
2 1:-0.77783753 2:-0.52470125 3:-0.79591516 4:-0.064190721 5:-0.23918114 6:-0.22869828 
2 1:-0.30889678 2:-0.18345426 3:-0.33043948 4:-0.58274684 5:-0.87919869 6:-0.57213751 
2 1:-0.0030389878 2:-0.040617607 3:-0.0891538 4:0.79695904 5:0.9447048 6:1.186538 
2 1:-0.093163385 2:0.00019174762 3:-0.065018254 4:0.68035644 5:-0.18952256 6:0.54678437 
0.3428454660445373 1:-0.48794743 2:-0.15073163 3:0.34961229 4:0.95731701 5:0.73925925 6:1.1887335 
2 1:-0.5516901 2:-0.29212786 3:-0.72725794 4:-0.32115555 5:0.041900688 6:0.0205696 
2 1:-0.77570793 2:-0.14305198 3:-0.79428289 4:0.41437393 5:0.37390831 6:0.35530524 
0.283165620352576 1:0.72948548 2:0.75805739 3:2.7824722 4:1.63678 5:1.2122434 6:2.162909 
1.096528972727475 1:0.94251364 2:-0.033642519 3:0.98064091 4:-0.6991142 5:-0.57839599 6:-0.23528479 
0.5743749452221224 1:0.41096054 2:2.4827282 3:1.0796486 4:0.90219151 5:1.6750899 6:1.4994754 
1.784794182235946 1:-0.18273016 2:-0.53750849 3:-0.30599381 4:1.3750319 5:0.98818576 6:1.6790361 
2 1:0.11745341 2:-0.28942707 3:-0.56510398 4:0.30153524 5:0.014101386 6:-0.078855273 
0.1831460177161058 1:0.32807021 2:2.8172349 3:3.4566084 4:-1.3388994 5:-1.2730617 6:-1.1530046 
2 1:-0.77783753 2:-0.66252774 3:-0.70841315 4:0.23574534 5:0.087520056 6:0.0445633 
0.6949626648318633 1:0.46483926 2:1.2405206 3:0.74781391 4:-0.62901149 5:0.25787988 6:-2.3221878 
0.776830063307612 1:0.59422353 2:0.39450734 3:0.59709273 4:0.55528507 5:0.51749843 6:0.58144194 
0.3080766548113045 1:5.8757694 2:3.6545587 3:1.1504348 4:-0.32562519 5:-0.32550946 6:0.00057485063 
2 1:-0.47151254 2:-0.055593301 3:0.23432299 4:-0.67911846 5:-0.50965014 6:-0.51285896 
2 1:0.069301666 2:-0.80271167 3:-0.79307976 4:-0.93137841 5:-0.97804065 6:-0.87786116 
2 1:0.36152776 2:-0.067578554 3:-0.19427096 4:-0.42803473 5:-0.53998385 6:-0.27331402 
1.336402877879636 1:1.0397214 2:0.22619713 3:-0.32354694 4:-0.16605136 5:-0.0035602785 6:0.23212189 
2 1:-0.1211351 2:-0.39323141 3:-0.37053876 4:0.53426994 5:0.70100551 6:0.71027085 
2 1:-0.20185522 2:-0.49265186 3:-0.79441438 4:-0.10763244 5:0.041108685 6:0.20679521 
2 1:-0.1806579 2:-0.088026287 3:0.43443171 4:-1.168818 5:-1.1143444 6:-1.0412692 
0.2771375373795281 1:0.34675821 2:0.4711472 3:0.72680288 4:0.21386765 5:0.14153465 6:-0.29017233 
2 1:-0.15078724 2:-0.11659988 3:-0.18742494 4:0.14439227 5:0.052117526 6:-0.069838033 
2 1:1.2715883 2:1.1756233 3:0.90636576 4:0.09781396 5:-0.068029315 6:-0.019184667 
2 1:0.36589835 2:0.14971384 3:0.13485012 4:-0.36451886 5:-0.29303734 6:-0.20642962 
0.1448138920285294 1:-0.77489138 2:2.3012663 3:-0.78241616 4:0.22523778 5:0.03429746 6:0.10407708 
2 1:-0.60468716 2:-0.59647969 3:-0.53073428 4:1.1751529 5:1.1909385 6:1.0702548 
2 1:-0.51641649 2:-0.80589673 3:-0.54189106 4:-0.41501789 5:-0.31584702 6:-0.21387864 
0.07768250586064918 1:1.5292265 2:1.6195708 3:1.4549784 4:1.5007306 5:0.95365443 6:0.14798712 
2 1:-0.77783753 2:-0.57296323 3:-0.79591516 4:-0.3658519 5:-0.45888275 6:-0.58013541 
2 1:1.7390144 2:0.5306429 3:0.72036777 4:-0.50613573 5:-0.73727177 6:-0.46432269 
2 1:-0.56749954 2:-0.63801708 3:-0.16342895 4:0.18030618 5:0.37477951 6:0.026999285 
1.383082102401636 1:-0.1578932 2:0.1407112 3:-0.20253582 4:1.2759942 5:0.20402368 6:-0.12660744 
1.892468259458277 1:-0.37135088 2:-0.17207179 3:0.090424587 4:1.6639899 5:1.9929206 6:1.5557743 
0.007260836178416217 1:1.1760383 2:1.6465787 3:1.3044899 4:1.2701915 5:1.3272422 6:0.64636606 
2 1:-0.66263504 2:-0.80589673 3:-0.61233615 4:-0.0095357053 5:-0.10145184 6:-0.0089128542 
2 1:0.2805213 2:0.33360253 3:0.32875632 4:-0.60211526 5:-0.53649903 6:-0.27166739 
0.3624265979248137 1:2.600471 2:7.3187894 3:7.5443775 4:-0.73251884 5:-0.64943865 6:-0.52281713 
2 1:-0.37887883 2:-0.50717351 3:-0.47895101 4:-0.86166778 5:-0.98675269 6:-1.0284099 
2 1:-0.5926982 2:-0.58431438 3:-0.47964104 4:1.1213605 5:1.2225394 6:1.1078919 
2 1:-0.77474173 2:-0.063828759 3:-0.79539446 4:-0.64500808 5:-0.64452823 6:-0.77498621 
1.15480232091953 1:-0.7743547 2:0.17085047 3:-0.7905734 4:-0.65167333 5:-0.32653906 6:-0.67367948 
1.950754267111314 1:-0.2030835 2:0.15221892 3:1.0697246 4:0.066448097 5:0.29787603 6:-0.36560351 
2 1:-0.039322347 2:-0.3079177 3:-0.3051022 4:0.32262878 5:0.022417417 6:0.39192307 
0.08401988071968236 1:2.5108741 2:0.56383524 3:-0.021484334 4:0.63918875 5:0.35965225 6:0.55384134 
0.03483881154276054 1:2.3980679 2:1.8863621 3:2.0348363 4:1.2888542 5:0.88126537 6:0.092315467 
2 1:-0.45849122 2:-0.37414581 3:-0.24737227 4:-0.076501822 5:0.35315783 6:0.59712409 
2 1:-0.38104904 2:-0.49270666 3:-0.045069407 4:0.59323776 5:0.87651335 6:0.54513774 
2 1:-0.19624882 2:-0.2980148 3:-0.40186147 4:1.0203624 5:0.98113693 6:1.0850744 
2 1:-0.60544825 2:-0.80589673 3:-0.78442034 4:-0.68233346 5:-0.70242364 6:-0.7342126 
2 1:0.11134967 2:0.041603887 3:-0.073841335 4:-0.10786768 5:-0.28994853 6:0.018295688 
2 1:-0.77783753 2:0.17280757 3:-0.79591516 4:0.15960471 5:0.39220357 6:0.43653881 
0.6278174379505572 1:0.74749529 2:1.1880704 3:1.2757257 4:0.27957913 5:0.94906082 6:0.86536738 
2 1:-0.50516601 2:-0.80589673 3:-0.79591516 4:0.77155269 5:0.91223268 6:0.98141534 
0.9129707985695267 1:-0.33021466 2:-0.22192293 3:-0.11594092 4:1.432353 5:2.4148206 6:3.3414231 
2 1:-0.26510054 2:0.2205607 3:0.69462732 4:-1.0007754 5:-1.0356985 6:-0.59707214 
2 1:0.33583176 2:0.17100704 3:0.13779631 4:-0.82951777 5:-0.65419067 6:-0.68849912 
0.05590819936602413 1:1.8427026 2:1.5796461 3:0.48707558 4:-0.086460483 5:-1.1554493 6:-0.92090868 
2 1:-0.29314008 2:0.20858327 3:0.0045197203 4:0.097500301 5:0.069066388 6:0.013669451 
2 1:-0.77783753 2:-0.56565935 3:-0.79591516 4:-0.50378329 5:-0.48335564 6:-0.58938788 
0.9863044235974547 1:-0.071144699 2:-0.10116231 3:-0.034455349 4:1.4326667 5:0.3982228 6:0.82373126 
2 1:-0.23823654 2:-0.13894991 3:0.023747525 4:-0.63716662 5:-0.3909289 6:-0.16346051 
2 1:0.29574298 2:-0.19515769 3:0.025375685 4:-0.46034157 5:-0.84244976 6:-0.92475081 
2 1:-0.15512014 2:-0.27402864 3:-0.49747328 4:-0.28312444 5:-0.11673749 6:-0.06152649 
2 1:-0.67673393 2:-0.43916053 3:-0.59662827 4:0.28130426 5:0.34856421 6:0.089257447 
2 1:-0.7000864 2:0.079023553 3:0.10476791 4:-0.6708065 5:-0.52034217 6:-0.83881259 
2 1:-0.39881772 2:-0.1842919 3:0.43745544 4:-0.30649201 5:-0.12394472 6:-0.46487156 
2 1:-0.77453465 2:-0.80553835 3:-0.40038837 4:-0.30664884 5:-0.27624688 6:-0.4411915 
2 1:-0.18994915 2:0.023363758 3:0.17516648 4:-0.82496972 5:-0.94453893 6:-1.0025343 
2 1:0.051065793 2:0.26087686 3:0.36542871 4:0.58429849 5:0.19578685 6:0.18633 
2 1:-0.56052168 2:-0.35837163 3:-0.53737873 4:-0.025689125 5:-0.50450212 6:-0.01753804 
0.01760544275176439 1:0.30282634 2:0.44265189 3:0.2020699 4:2.7706559 5:2.2865161 6:3.1045441 
2 1:-0.76165357 2:-0.66124389 3:-0.79591516 4:-0.075874505 5:0.29843043 6:0.37859324 
0.8680767020569313 1:0.73204755 2:1.049508 3:0.63764169 4:0.48792688 5:0.36226586 6:1.1586237 
0.08993032148518708 1:-0.32890349 2:-0.35632842 3:-0.18102859 4:6.1358209 5:5.7611913 6:6.8259983 
2 1:-0.2565553 2:0.073465402 3:-0.09124715 4:-0.44755998 5:-0.56849595 6:-0.1575797 
0.5267828348990299 1:1.4712032 2:1.1072032 3:0.87543071 4:0.61848728 5:1.0823549 6:1.566203 
2 1:-0.77288174 2:-0.36018781 3:-0.51595678 4:-0.93459341 5:-1.2653793 6:-0.9537628 
2 1:-0.042984592 2:-0.16307698 3:0.10515557 4:-0.067170478 5:-0.024389955 6:-0.14628855 
0.3559817457058801 1:10.649122 2:2.1661484 3:2.8420939 4:-0.1780488 5:0.43117012 6:0.62347012 
2 1:-0.40335408 2:-0.80084359 3:-0.55188486 4:0.98123348 5:0.54664414 6:0.85987863 
1.464514730120906 1:0.16123458 2:0.039490224 3:-0.49265857 4:0.029436379 5:0.41200365 6:0.10062701 
1.800924565660437 1:1.2859057 2:0.64493727 3:0.68191216 4:-1.039669 5:-1.2378968 6:-1.2222413 
0.3190601073622512 1:-0.29885951 2:1.0646168 3:1.1350836 4:1.0297722 5:0.52232965 6:2.1332698 
2 1:0.161536 2:-0.27385642 3:-0.28836316 4:-0.89115169 5:-0.80966084 6:-0.83324542 
2 1:-0.0071835045 2:-0.07582184 3:0.065459455 4:0.78464794 5:0.67677022 6:0.61210055 
0.7931435712846073 1:0.51615591 2:0.39255024 3:0.23463312 4:0.92767627 5:1.6764363 6:0.46108138 
0.2087758811187226 1:2.7436452 2:0.98226225 3:-0.37927655 4:0.1103603 5:0.068987188 6:0.17260811 
1.902153719659754 1:-0.41275836 2:-0.51125992 3:-0.48761128 4:1.4778335 5:1.318055 6:1.5760827 
2 1:0.12529032 2:0.3608453 3:0.42427509 4:0.74614634 5:0.4818583 6:0.49064225 
2 1:-0.0218777 2:0.28044782 3:-0.16670853 4:-0.18298893 5:-0.48145483 6:-0.4847879 
2 1:-0.77783753 2:-0.4777701 3:-0.79591516 4:0.21676899 5:0.12086338 6:0.27015112 
1.7529546256914 1:0.4484119 2:-0.76765508 3:-0.42514417 4:0.19136264 5:0.11381455 6:0.3615781 
2 1:0.52738378 2:0.78522188 3:1.1038384 4:-0.48394438 5:-0.80570082 6:-0.46212718 
2 1:0.51615591 2:0.65127826 3:0.015761783 4:-0.3107264 5:-0.58362321 6:-0.33259257 
2 1:-0.53415502 2:-0.66525985 3:-0.65104761 4:0.53991579 5:0.27855116 6:0.74728074 
2 1:-0.44901912 2:-0.80589673 3:-0.79591516 4:-0.91640121 5:-0.82961931 6:-0.90154121 
2 1:-0.77783753 2:-0.71119679 3:-0.79591516 4:0.039159796 5:-0.085453379 6:0.12109222 
0.2793109374727839 1:0.51125785 2:-0.091627343 3:1.5532883 4:-0.58917685 5:-0.5279454 6:-0.72990001 
2 1:0.35308802 2:0.62356579 3:1.2793697 4:-0.60666332 5:-0.87159546 6:-0.85621978 
2 1:0.83558511 2:0.38738351 3:-0.100737 4:-0.42748582 5:-0.46165476 6:-0.70418127 
2 1:-0.7764782 2:-0.42612627 3:-0.79372242 4:0.43178198 5:0.48787752 6:0.60159351 
2 1:0.18301213 2:0.053581312 3:-0.08595175 4:-0.090224387 5:0.16133473 6:0.08957109 
1.674286426730998 1:0.53190507 2:-0.14298153 3:0.79859702 4:-0.75612165 5:-1.0095624 6:-0.81136881 
2 1:-0.52612973 2:-0.54882833 3:-0.42292677 4:0.8010366 5:0.60224274 6:0.73442137 
0.7895097004932534 1:-0.084241371 2:0.3255393 3:1.0432863 4:-0.38859216 5:0.24932625 6:-0.31275464 
2 1:-0.24192139 2:-0.10077089 3:0.079182524 4:1.1927178 5:0.88570058 6:0.84090322 
0.6643248583701774 1:0.16756439 2:0.24944743 3:0.11500206 4:0.51129444 5:0.37414591 6:0.015943364 
2 1:0.54448933 2:0.74662795 3:0.56204851 4:-0.60384039 5:-0.18999776 6:0.13371636 
2 1:-0.77783753 2:-0.66226941 3:-0.79591516 4:-0.095242925 5:0.086173651 6:0.29116521 
2 1:-0.70992171 2:-0.45725974 3:-0.51328195 4:-0.39933496 5:-0.20266981 6:-0.62545685 
2 1:-0.39413065 2:-0.13473824 3:0.61174618 4:-0.38059386 5:-0.3635256 6:-0.4803969 
2 1:0.26484749 2:0.25336162 3:-0.4390068 4:-0.35095312 5:-0.21692586 6:-0.24861462 
2 1:0.059430181 2:-0.14676264 3:-0.09193718 4:-0.95709842 5:-0.90565159 6:-1.0048866 
2 1:0.69964496 2:0.76925198 3:0.8727171 4:-0.52213232 5:-0.6894348 6:-0.81717121 
0.2752085920237531 1:-0.099154096 2:0.17562578 3:0.033206364 4:0.21833729 5:0.21051811 6:0.25015637 
2 1:-0.77783753 2:-0.17553977 3:-0.18733965 4:-1.0119887 5:-0.9629926 6:-0.4847879 
0.7884052587152581 1:0.89624576 2:1.5520119 3:0.98273426 4:-0.2802231 5:1.5235797 6:0.54537297 
2 1:0.054833535 2:-0.25982795 3:-0.015095741 4:0.30773 5:0.48684792 6:-0.030397409 
2 1:-0.5820581 2:-0.80270643 3:-0.79591516 4:0.55575555 5:0.44289176 6:0.52208497 
0.6008150465180927 1:1.769307 2:0.88299837 3:0.33418352 4:0.093579568 5:0.81426192 6:1.2487177 
2 1:-0.77783753 2:-0.73112942 3:-0.79591516 4:-0.30798189 5:-0.37049522 6:-0.34529512 
2 1:0.37524235 2:-0.14086786 3:-0.082959036 4:-0.36177434 5:-0.66828832 6:-0.56061113 
0.02055807597836334 1:0.487295 2:0.68086955 3:-0.72295572 4:1.1728789 5:1.0384779 6:1.2535008 
2 1:-0.48222046 2:-0.58876873 3:-0.59090645 4:1.9622008 5:0.92284552 6:0.43700927 
2 1:-0.46012642 2:-0.29051521 3:-0.34928738 4:0.6255446 5:0.14802908 6:0.51973265 
0.3543150900712265 1:1.0387418 2:2.4884429 3:1.7793701 4:3.4468255 5:1.4312322 6:-0.26610022 
2 1:0.22174452 2:-0.080268361 3:-0.75309143 4:-1.1152608 5:-1.2323528 6:-1.2536056 
2 1:-0.14057666 2:-0.30459064 3:-0.45265234 4:0.49294541 5:0.51947844 6:0.94918851 
1.519433306948147 1:0.34856673 2:0.79821699 3:1.9907984 4:-1.246919 5:-1.2051079 6:-1.1491625 
1.908846618021669 1:0.27064982 2:0.032053262 3:0.2865792 4:-0.2224315 5:-0.13756717 6:-0.13750654 
2 1:-0.77783753 2:-0.7456769 3:-0.71054526 4:-0.80693435 5:-0.75857665 6:-0.81105517 
0.1624381199281792 1:0.27193085 2:1.3528578 3:0.73874273 4:-0.063877062 5:0.19285644 6:0.020255957 
1.121110978290788 1:-0.20801924 2:-0.80589673 3:0.83309852 4:0.46110906 5:0.28876799 6:0.35593252 
2 1:-0.00010014879 2:-0.31721782 3:-0.14468184 4:-0.6799026 5:-0.56786235 6:-0.41774668 
2 1:-0.016828925 2:0.063836492 3:0.41039696 4:-0.30790347 5:0.72928001 6:0.21573404 
2 1:-0.77783753 2:-0.80589673 3:-0.40284612 4:0.96704043 5:0.84443723 6:0.9629104 
0.4421805442478575 1:8.2572087 2:8.0984962 3:5.0624401 4:-0.80411142 5:-0.93432209 6:-1.2062455 
0.4612450963054356 1:1.0917162 2:1.2422428 3:0.58104372 4:0.44785699 5:0.30246964 6:0.65836291 
2 1:-0.50172983 2:-0.80296054 3:-0.44659713 4:0.92030529 5:0.96854409 6:0.84145209 
2 1:-0.77783753 2:-0.38289012 3:-0.036424648 4:0.096245666 5:-0.24591317 6:-0.21380023 
2 1:-0.18270755 2:-0.36807099 3:-0.51488685 4:0.56304812 5:0.49350075 6:0.65977431 
0.3722284152935265 1:0.49656365 2:0.17828743 3:0.16113329 4:-0.0076537535 5:-0.1195887 6:0.67098705 
2 1:-0.11689263 2:-0.80425394 3:-0.79591516 4:0.28749901 5:0.25368227 6:0.27195457 
2 1:-0.52511244 2:-0.51441476 3:-0.52736166 4:1.8730434 5:2.7089705 6:2.2043099 
2 1:-0.43557581 2:-0.35413647 3:-0.18954155 4:0.73320792 5:0.76373214 6:0.37036011 
2 1:-0.0053749881 2:-0.0072452151 3:0.21889423 4:-0.66084784 5:-0.58584082 6:-0.67736478 
0.4385462121555745 1:2.5481747 2:1.385737 3:0.53041567 4:0.77249366 5:-0.85163699 6:-0.58789808 
0.564434626846691 1:1.9047197 2:1.5113043 3:1.6657865 4:1.044122 5:1.2278458 6:0.47613625 
0.5549328211384026 1:0.14782142 2:-0.14624596 3:1.2358745 4:0.58516105 5:0.55915779 6:1.4359627 
2 1:1.1103289 2:0.66020262 3:0.012893119 4:-1.1685827 5:-0.96101259 6:-0.83449999 
2 1:-0.63106889 2:-0.80589673 3:-0.57498924 4:-0.39031728 5:-0.40344255 6:-0.11743338 
2 1:-0.2334289 2:-0.42937505 3:-0.41930605 4:-0.60917258 5:-0.3098278 6:-0.39822239 
0.005978575495356589 1:-0.51081763 2:-0.71553372 3:-0.65952955 4:2.8567552 5:3.1253264 6:3.5746952 
0.6092178790079321 1:0.89782821 2:0.51185478 3:0.30766776 4:-0.15993502 5:0.23895101 6:1.1915562 
2 1:0.33553034 2:0.20576505 3:-0.14546491 4:1.1875424 5:0.87207813 6:1.193987 
0.3385595710754353 1:0.84334666 2:1.7765299 3:3.1184936 4:-0.64759577 5:1.0105202 6:1.377625 
2 1:-0.012307634 2:-0.25967139 3:-0.2993106 4:0.20837863 5:0.36218666 6:0.12344455 
0.1457212657508327 1:2.0836874 2:2.4871904 3:3.4589343 4:-1.3741076 5:-1.1855454 6:-0.0039729748 
2 1:0.021677402 2:0.18924717 3:-0.0095910069 4:0.67965071 5:0.45144539 6:0.56497567 
0.2558453913350713 1:-0.68311649 2:3.3645954 3:-0.061250224 4:-0.91695011 5:-0.6912564 6:-0.8410865 
2 1:-0.20468102 2:-0.38028327 3:-0.20082237 4:0.25331022 5:0.010299772 6:0.033193737 
2 1:-0.36869085 2:-0.35089552 3:-0.50790901 4:-0.31754848 5:0.014734989 6:-0.54728129 
2 1:-0.047008541 2:0.1591079 3:0.27983396 4:0.41272722 5:0.27047273 6:-0.034161126 
2 1:0.19521962 2:0.43404067 3:0.072669881 4:-0.30625677 5:0.18359001 6:0.22475128 
1.943791708918762 1:0.02258166 2:0.035341182 3:0.24176601 4:0.86855162 5:0.86685092 6:0.77198014 
2 1:-0.26382704 2:-0.4436227 3:-0.5039239 4:0.34066415 5:-0.46450597 6:-0.40457367 
1.70105887006137 1:-0.27549197 2:-0.061973432 3:0.67795806 4:0.28177474 5:1.2338651 6:0.44492876 
2 1:-0.09751136 2:-0.22994702 3:-0.3185229 4:0.7320317 5:0.79921387 6:0.52969082 
0.402170256634355 1:-0.56410104 2:0.57581266 3:0.44016904 4:-0.19326125 5:0.18533241 6:0.30284842 
2 1:1.7901803 2:1.78428 3:1.6918371 4:-0.49633389 5:-0.66836752 6:-0.51756361 
2 1:-0.77783753 2:-0.61159629 3:-0.48597536 4:1.1692718 5:1.0038674 6:0.73355886 
2 1:-0.14252081 2:-0.451592 3:-0.50191583 4:0.40645405 5:0.1536523 6:0.28520599 
1.26547760759537 1:2.3264054 2:1.7128851 3:-0.34375164 4:-0.64093052 5:-0.59154324 6:-0.66309402 
2 1:0.30290169 2:0.42409862 3:0.26549064 4:-0.83712399 5:-0.93424289 6:-0.89793432 
2 1:-0.70671838 2:-0.41705318 3:-0.53191276 4:0.23056997 5:0.37628432 6:0.52357478 
0.2729622307533696 1:-0.77783753 2:5.1462568 3:0.71300228 4:0.14172617 5:-0.053535662 6:0.10148953 
2 1:-0.40439398 2:0.64438929 3:0.53103592 4:-1.1063215 5:-1.1487965 6:-1.1058013 
2 1:-0.20479406 2:0.11738262 3:-0.32068602 4:-0.35291349 5:-0.18397854 6:-0.36105568 
2 1:0.63792934 2:0.28068267 3:0.47350757 4:-0.43948327 5:-0.34055752 6:-0.5102714 
2 1:0.34901886 2:-0.80589673 3:0.28758711 4:-0.88793669 5:-0.98318867 6:-0.68277513 
0.589884746913628 1:-0.42243393 2:0.13233483 3:0.35961385 4:0.70960511 5:0.74440727 6:0.48742741 
2 1:1.1929178 2:1.1598882 3:0.96746056 4:-0.24924931 5:-0.91959084 6:-0.20439094 
2 1:-0.41296936 2:-0.44802225 3:-0.58098242 4:0.37383355 5:0.1549987 6:0.42689428 
1.163698225341897 1:0.072843344 2:0.14900929 3:0.31534338 4:0.9668836 5:1.164644 6:0.97263333 
2 1:-0.10158806 2:-0.31810243 3:-0.52765628 4:0.54164092 5:0.096469689 6:0.091766592 
2 1:0.010977014 2:-0.47610266 3:0.16981681 4:-0.21247284 5:0.019962208 6:-0.23959738 
2 1:-0.77783753 2:-0.2640318 3:-0.79235949 4:0.86478772 5:0.52518086 6:0.32919444 
2 1:-0.77783753 2:-0.48280375 3:-0.79591516 4:-0.97019366 5:-0.98207987 6:-0.93400328 
2 1:-0.35198468 2:-0.48044741 3:-0.52919916 4:-0.66296504 5:-0.64634984 6:-0.52195461 
2 1:-0.62583927 2:-0.59360667 3:-0.43227707 4:1.2147523 5:1.4302818 6:1.9931497 
2 1:-0.77783753 2:-0.80589673 3:-0.79591516 4:-0.75094628 5:-0.71248208 6:-0.52054322 
1.918546776341176 1:0.33658531 2:0.70349357 3:0.57887284 4:0.068878951 5:0.68112623 6:0.25352804 
2 1:-0.17001026 2:0.05499042 3:0.094378692 4:-0.38247581 5:-0.38601848 6:-0.26178763 
0.2301137324683892 1:3.6235638 2:3.1165923 3:2.4717261 4:1.637721 5:0.97369211 6:1.2900402 
0.7850639109853425 1:1.3076832 2:1.1260696 3:0.62391862 4:0.063233096 5:0.4802743 6:0.72305181 
0.2342595116229604 1:3.3604246 2:0.33900411 3:-0.30644349 4:1.115793 5:1.1379535 6:1.1677978 
2 1:-0.40958593 2:-0.29793652 3:-0.39326323 4:1.5262938 5:1.9488061 6:1.6086232 
2 1:-0.65425558 2:-0.59651883 3:-0.53713062 4:-0.13052952 5:-0.26658444 6:-0.16981178 
2 1:-0.28860372 2:-0.54072595 3:-0.64310064 4:0.64193326 5:0.72452799 6:0.81126394 
2 1:-0.77709961 2:-0.80589673 3:-0.44510852 4:-0.44144363 5:-0.40502655 6:-0.42574458 
0.6726914815519454 1:1.3001477 2:0.74365317 3:0.86201776 4:0.20006667 5:0.0099829712 6:-0.05250925 
0.4704736855346388 1:-0.092658508 2:0.15871648 3:0.5553808 4:1.4100832 5:1.2017097 6:0.5419229 
2 1:-0.47476787 2:-0.42206334 3:-0.47812918 4:0.19559704 5:0.5079152 6:0.46962816 
1.496669220134359 1:1.045373 2:0.81904049 3:0.56701052 4:0.52195884 5:0.78242341 6:1.3024291 
2 1:-0.49083352 2:-0.28512146 3:-0.1129327 4:-0.365303 5:-0.32424226 6:-0.44440635 
0.535576275527209 1:0.67085941 2:-0.15769889 3:-0.77363184 4:0.63589533 5:0.74717928 6:0.66463578 
2 1:-0.27735324 2:-0.48349265 3:-0.61768582 4:0.33737074 5:0.13868344 6:-0.29950322 
0.0217331937058269 1:-0.3788939 2:-0.27719913 3:-0.47809041 4:2.4290817 5:2.1518756 6:2.0430974 
2 1:-0.53363508 2:-0.80589673 3:-0.56919764 4:0.96900079 5:1.1517344 6:1.1656807 
2 1:-0.42864317 2:-0.80589673 3:-0.41505733 4:0.057822485 5:0.053463931 6:0.2009144 
2 1:-0.70788261 2:-0.39382637 3:-0.52854789 4:-0.67653077 5:-0.55843751 6:-0.62451592 
2 1:-0.57625578 2:-0.53814259 3:-0.47733836 4:1.1882482 5:1.0705541 6:1.1923404 
2 1:-0.060911511 2:0.0064544531 3:-0.063444365 4:-0.35291349 5:-0.34649754 6:-0.21693666 
2 1:-0.4139339 2:-0.80589673 3:-0.39310817 4:-0.60227209 5:-0.62757937 6:-0.60303136 
2 1:-0.56983554 2:-0.40379972 3:-0.071546403 4:-0.25771809 5:0.16830435 6:0.031155056 
2 1:0.65413064 2:0.3637418 3:0.12771722 4:0.24256742 5:-0.27331647 6:-0.056116146 
0.6266846789329236 1:1.3291594 2:0.50222587 3:0.78084231 4:0.53395628 5:0.65506934 6:1.0094864 
2 1:-0.1284596 2:0.043404415 3:0.093913504 4:0.85020259 5:1.0472692 6:1.0417916 
2 1:-0.14004164 2:0.92715044 3:2.1018235 4:-0.44889303 5:-0.36732721 6:-0.45624637 
0.3481220977178252 1:4.7365549 2:5.8491672 3:1.9584678 4:-1.6526521 5:-1.6911046 6:-1.7427164 
1.619724301478587 1:0.88524395 2:1.011697 3:1.0359208 4:0.1274547 5:-0.081097363 6:-0.038708952 
1.249619474776279 1:3.9529398 2:2.7503806 3:1.6460935 4:0.043551017 5:0.39410438 6:-0.18314162 
2 1:-0.64371344 2:-0.6193777 3:-0.61481716 4:0.77955098 5:0.91397509 6:0.86176049 
0.2800293888661912 1:-0.4328555 2:-0.5552476 3:-0.47247713 4:4.0176842 5:3.0159508 6:5.7933283 
2 1:-0.77765941 2:-0.52307295 3:-0.79359061 4:-0.2566987 5:-0.32661826 6:-0.4295083 
2 1:-0.46977938 2:-0.5535645 3:-0.39058064 4:0.88603809 5:0.049979118 6:0.49660147 
2 1:-0.75919474 2:-0.55799536 3:-0.36375476 4:-0.84653375 5:-0.59439445 6:-0.33188687 
2 1:-0.30795484 2:-0.32417725 3:-0.24099143 4:-0.037216079 5:-0.060901289 6:-0.038944184 
2 1:-0.326251 2:0.12168823 3:0.31348262 4:-0.26759834 5:-0.47797002 6:-0.5509666 
2 1:-0.14029031 2:-0.096888015 3:-0.23387404 4:0.083699321 5:-0.10335264 6:0.1514372 
2 1:0.057772374 2:-0.80589673 3:-0.79591516 4:-1.0242998 5:-0.9892871 6:-0.87150988 
1.659737729453396 1:-0.55168256 2:-0.25567891 3:-0.017964406 4:-0.039098031 5:0.25883028 6:0.58081465 
2 1:-0.33120181 2:-0.80589673 3:-0.79591516 4:0.28546023 5:0.3447626 6:0.35436431 
1.653501706434167 1:1.0204306 2:1.3293727 3:1.5013423 4:0.63628741 5:0.65079252 6:0.5317295 
0.5383681982349802 1:0.096580121 2:0.42746483 3:1.3761289 4:0.35305367 5:0.10423132 6:0.12658098 
2 1:0.71448987 2:0.28428372 3:0.17501142 4:0.053274435 5:-0.18445374 6:-0.11625722 
2 1:-0.5540261 2:-0.14403053 3:-0.11671624 4:-1.3513673 5:-1.3850509 6:-1.2294551 
0.239068306115464 1:1.4473158 2:0.32921864 3:0.40093812 4:-0.82128423 5:-0.86771465 6:-0.46330334 
0.2289409281615671 1:-0.24143158 2:-0.34269138 3:-0.04771323 4:0.12988555 5:0.089104061 6:0.5026391 
2 1:-0.34597136 2:-0.28339921 3:-0.26652254 4:0.40598356 5:0.57040423 6:0.61492334 
0.04948673866384631 1:-0.55224019 2:-0.44219011 3:0.076701517 4:3.5871093 5:4.4392592 6:4.0533146 
0.3560543456018828 1:8.923647 2:6.7642268 3:6.78674 4:-2.3235522 5:0.23340699 6:-0.37611055 
2 1:-0.33463799 2:-0.1580903 3:-0.40535814 4:0.74991024 5:0.71961758 6:0.82318238 
0.2434588772720969 1:0.47697139 2:0.29140755 3:0.17958578 4:6.1366051 5:4.8364487 6:5.2909504 
2 1:-0.19012247 2:-0.34663688 3:-0.39345706 4:0.20108606 5:0.17836279 6:0.15402475 
1.327504459429001 1:2.7838093 2:1.0270406 3:0.64322396 4:-0.60305624 5:-0.73101495 6:-0.57080453 
1.511916853101215 1:-0.12189619 2:0.16983278 3:0.66128879 4:-0.73510652 5:-0.18437454 6:1.1234957 
0.3123470173044759 1:0.80875878 2:-0.80589673 3:-0.79591516 4:4.5999131 5:4.3860366 6:4.1118875 
1.463634893225757 1:0.51886869 2:0.66497793 3:0.79782171 4:1.5794589 5:1.7463701 6:1.4350217 
2 1:-0.073525912 2:-0.53048643 3:-0.14267377 4:-0.052742181 5:0.19095564 6:0.10297933 
0.03124907626289017 1:-0.34548156 2:-0.47912441 3:-0.38441689 4:5.809616 5:5.1881772 6:4.3894616 
2 1:0.064026826 2:0.038863954 3:-0.024352999 4:0.88211735 5:0.68817506 6:0.86136843 
2 1:-0.52839791 2:-0.72971483 3:-0.66189426 4:1.2211823 5:1.1431015 6:1.0930723 
2 1:0.19130116 2:1.9102386 3:1.8390693 4:-0.60689856 5:-0.60706649 6:-0.66975894 
2 1:-0.44800936 2:-0.79983216 3:-0.4784238 4:0.34889769 5:0.29462882 6:0.2743069 
2 1:-0.77783753 2:-0.53870623 3:-0.78872714 4:-1.0497845 5:-0.98801989 6:-0.99092951 
0.9259431536701312 1:-0.043783354 2:-0.19550214 3:0.2185841 4:0.98484055 5:1.0993038 6:1.2676931 
1.000689824616355 1:1.299997 2:-0.48466691 3:-0.11131229 4:-0.27794907 5:-0.29580935 6:-0.30859887 
2 1:-0.77783753 2:-0.34589318 3:-0.38566515 4:-0.54259854 5:-0.37817765 6:0.0077102319 
2 1:-0.16258027 2:-0.23286701 3:-0.47688092 4:0.167603 5:0.1544443 6:0.14963375 
0.948803998005152 1:0.60085476 2:0.56093874 3:0.060574972 4:0.13419836 5:-0.32733107 6:-0.50047006 
2 1:0.049332631 2:-0.15568699 3:0.11670776 4:-0.98854269 5:-1.1315308 6:-0.99657508 
2 1:-0.65361506 2:-0.80589673 3:-0.66587938 4:-0.0059286311 5:0.010299772 6:0.18295833 
2 1:-0.60990172 2:-0.4822636 3:-0.40530387 4:0.68443401 5:0.4800367 6:0.33578095 
2 1:-0.24972815 2:-0.31689686 3:-0.39216229 4:0.72066158 5:0.88086937 6:0.92354818 
2 1:1.2887692 2:1.5263348 3:1.3243379 4:-0.98352415 5:-1.0579537 6:-1.0147664 
0.03238808784937048 1:-0.20731844 2:-0.52804397 3:-0.45892463 4:3.5984795 5:3.8886588 6:4.4726555 
2 1:1.1952538 2:1.1179281 3:1.0123513 4:-0.48661048 5:-0.68238597 6:-0.7065336 
2 1:0.33168724 2:0.61534599 3:0.61949933 4:-0.50307755 5:-0.53230142 6:-0.062859473 
2 1:-0.044762967 2:-0.067938659 3:0.21501766 4:-0.70624993 5:-0.73426216 6:-0.73233074 
2 1:-0.40224636 2:-0.80459338 3:-0.434572 4:-0.63371637 5:-0.68135637 6:-0.48565042 
0.3623642722328896 1:3.8455591 2:-0.43207584 3:2.8824878 4:-0.63034454 5:-0.87975309 6:0.79189648 
2 1:-0.46973416 2:-0.38905888 3:-0.22628371 4:0.15121434 5:-0.0089458983 6:0.0041033359 
2 1:-0.45888307 2:-0.51554988 3:-0.64676787 4:0.036728942 5:-0.19736339 6:0.054207827 
2 1:0.37079641 2:-0.1039727 3:-0.43399051 4:-0.44795205 5:-0.72174851 6:-0.68685249 
0.5271665541052751 1:0.31382815 2:0.19785839 3:1.2569631 4:-0.49327572 5:-0.32408385 6:-0.14660219 
2 1:-0.43032358 2:-0.46032064 3:-0.52749346 4:-0.062622428 5:-0.13210235 6:-0.2964452 
2 1:-0.23502642 2:-0.54914929 3:-0.0098236013 4:0.0042652743 5:-0.27870209 6:-0.1837689 
0.5355017252511417 1:-0.77719903 2:-0.45435541 3:-0.79515444 4:1.3075953 5:1.2459035 6:1.6863283 
2 1:-0.31797704 2:-0.33851102 3:-0.40134201 4:-0.48974706 5:-0.77726792 6:-1.1234437 
0.3360913332099518 1:1.2194427 2:0.97435558 3:5.0228991 4:1.6363095 5:-0.11507429 6:0.080161796 
2 1:-0.19669341 2:-0.57503775 3:-0.75556856 4:-1.1232591 5:-1.1787342 6:-0.86084602 
2 1:-0.45299785 2:-0.50973339 3:0.20439585 4:-0.433759 5:-0.64318183 6:-0.58193886 
1.081803475597039 1:-0.50246077 2:-0.24229238 3:-0.021864238 4:1.7329948 5:1.7329853 6:1.8598514 
0.195219458030828 1:0.76791646 2:1.8399398 3:3.6432266 4:0.1820313 5:-0.61284811 6:-0.84312518 
2 1:-0.32706483 2:0.10650117 3:-0.57928448 4:-0.7445947 5:-0.5010173 6:-1.0606367 
2 1:-0.30524207 2:-0.41570669 3:-0.79462434 4:-0.68178456 5:-0.64928025 6:-0.66419177 
0.40104844926077 1:-0.2138065 2:0.21265403 3:1.8494585 4:2.1440444 5:1.7557158 6:2.9412929 
2 1:-0.40470293 2:-0.80017301 3:-0.79543115 4:-0.65347687 5:-0.51709496 6:-0.59887559 
0.2643247306789102 1:0.26273756 2:0.80424485 3:0.469631 4:1.4877922 5:-0.73497496 6:-0.78133748 
2 1:-0.1044214 2:-0.10061433 3:-0.33640941 4:1.0859955 5:0.77949299 6:1.0248549 
2 1:0.2890364 2:-0.0057578226 3:-0.11893364 4:-0.14150757 5:0.18620362 6:-0.23348134 
2 1:0.34201086 2:0.13139543 3:-0.060001968 4:0.56767458 5:1.5068685 6:-0.15671718 
2 1:-0.44447522 2:-0.80589673 3:-0.63192835 4:-0.62328722 5:-0.59890886 6:-0.6076576 
2 1:-0.082470533 2:-0.039114558 3:-0.11804978 4:-0.032040712 5:-0.030329977 6:0.13653915 
2 1:-0.77783753 2:-0.24702072 3:-0.79591516 4:-0.64367503 5:-0.61546172 6:-0.59064246 
0.08473428638162921 1:1.0262329 2:0.33328939 3:0.26835931 4:-0.22227467 5:-0.61910494 6:-0.61291112 
0.5677646123843336 1:0.2898653 2:0.44437413 3:1.7257183 4:2.0079166 5:1.4133329 6:1.5731031 
2 1:0.28135021 2:0.4034317 3:-0.20438107 4:-0.49202109 5:-0.87896109 6:-0.60060063 
0.1907582832315185 1:-0.77783753 2:-0.59848375 3:0.14027732 4:-0.5723177 5:0.34864341 6:-0.14095661 
0.5022359329365369 1:1.1603645 2:1.8330508 3:1.0861612 4:-0.99936392 5:-1.1932278 6:-1.2029523 
2 1:0.01060024 2:-0.00027795529 3:-0.28191254 4:-0.40796058 5:0.30072724 6:0.070987734 
2 1:-0.11151229 2:-0.3252106 3:-0.33579691 4:0.67918022 5:0.47480948 6:0.92848806 
2 1:-0.4021484 2:-0.80346696 3:-0.47381067 4:-0.21482528 5:-0.26001082 6:-0.148092 
0.865561568274093 1:0.45496778 2:0.17852229 3:0.22091005 4:0.67659254 5:1.8713482 6:0.99388266 
2 1:-0.5094311 2:-0.59894563 3:-0.52683445 4:-1.1790119 5:-1.1556077 6:-1.1528478 
1.111892192535969 1:0.78004859 2:1.067435 3:2.0205705 4:-0.14511465 5:0.044831099 6:-0.37493439 
