svm_type c_svc
kernel_type rbf
gamma 1
nr_class 2
total_sv 2950
rho -0.645393
label 1 -1
nr_sv 1610 1340
SV
0.2823288421781411 1:1.7634511 2:0.83509944 3:0.62144455 4:1.8570159 5:0.97361458 6:0.43180015 
8 1:0.13385806 2:0.12011837 3:0.28643133 4:0.44610452 5:0.47286625 6:0.28337377 
8 1:0.21523213 2:0.32196573 3:0.2675404 4:-0.80544268 5:-0.9698684 6:-0.91122669 
8 1:-0.36707891 2:-0.78416268 3:-0.10608247 4:0.039485311 5:0.06318442 6:0.044036227 
0.316050466879305 1:4.4673478 2:6.1678257 3:4.3457869 4:-1.1533407 5:-1.1393946 6:-0.5797411 
8 1:0.96750863 2:1.0231237 3:0.4788782 4:0.47344155 5:0.59321811 6:0.3167697 
0.4164873536150207 1:1.904404 2:3.4176459 3:3.2003742 4:0.78224306 5:-0.1846449 6:-0.35029865 
8 1:0.032347862 2:-0.17767331 3:-0.32385168 4:-0.92517581 5:-1.0396365 6:-1.1830325 
8 1:-0.78101576 2:-0.78884389 3:-0.43389309 4:0.020242486 5:0.0024212133 6:-0.00025977091 
8 1:-0.49890641 2:-0.42981831 3:-0.65227784 4:-0.35148001 5:-0.54851941 6:-0.74718461 
8 1:-0.6494673 2:-0.61531473 3:-0.73707474 4:0.39417944 5:0.12371272 6:-0.11065189 
8 1:-0.28866116 2:-0.78721773 3:-0.73670399 4:0.53941694 5:0.56479409 6:0.40366098 
8 1:-0.48140232 2:-0.66822425 3:-0.7015499 4:0.34263616 5:0.064828785 6:0.067537071 
0.6401668675363703 1:-0.056190746 2:0.38000735 3:-0.19440285 4:1.6579443 5:0.49815815 6:1.4012873 
8 1:0.45829851 2:1.3186014 3:0.94839198 4:-0.78963607 5:-0.49997149 6:-0.25266192 
8 1:-0.78101576 2:-0.49236579 3:-0.73707474 4:1.2181847 5:1.6667536 6:1.5996529 
8 1:-0.51339386 2:-0.78266918 3:-0.51686458 4:-0.62698839 5:-0.56645082 6:-0.54271181 
0.8691431757675171 1:0.60528467 2:0.58330575 3:0.60474695 4:-2.273548 5:-0.26193006 6:0.93281649 
8 1:-0.78101576 2:-0.39107553 3:-0.73707474 4:0.490699 5:0.67567128 6:0.47308124 
1.087246038017927 1:-0.17009936 2:-0.78884389 3:-0.73707474 4:1.9120718 5:1.8240646 6:1.2752794 
0.7208864583187475 1:0.0052734496 2:0.49754162 3:0.48015175 4:1.0959316 5:0.71012465 6:-0.078260927 
8 1:0.84669189 2:0.27629614 3:-0.35799685 4:-0.76138272 5:-0.4422621 6:-0.22622348 
8 1:-0.10751901 2:0.072997744 3:-0.20996134 4:0.052466581 5:0.18604199 6:-0.20488718 
5.979275989154516 1:-0.03291731 2:0.34159296 3:0.079197172 4:0.18556278 5:0.088241413 6:-0.60594763 
8 1:-0.18095175 2:-0.78884389 3:-0.26531104 4:-1.1398249 5:-1.2015673 6:-1.2348271 
8 1:-0.64678248 2:-0.78884389 3:-0.59790452 4:-0.00014574454 5:-0.12427321 6:0.088950669 
8 1:-0.56721086 2:-0.25529633 3:0.32350565 4:-0.21960558 5:-0.35362299 6:-0.73929946 
8 1:-0.24847187 2:-0.15964986 3:0.417182 4:-0.067801072 5:-0.39347927 6:-0.28845433 
8 1:-0.78101576 2:-0.5034777 3:-0.73707474 4:-0.51878568 5:-0.56308379 6:-0.60130931 
2.142965269199722 1:-0.24645071 2:-0.78785932 3:-0.15602668 4:0.092021276 5:-0.36231463 6:-0.045792656 
8 1:-0.59470006 2:-0.62181387 3:-0.54889425 4:-0.30031853 5:-0.3083638 6:-0.2208894 
0.8931004085538079 1:0.27978839 2:0.12775543 3:0.10671991 4:1.6012849 5:2.0660995 6:1.5277589 
8 1:0.30505281 2:0.49379946 3:0.12716739 4:-0.50145187 5:-0.89297475 6:-0.63269531 
8 1:-0.49161367 2:-0.34979725 3:-0.73707474 4:-0.40500866 5:0.13631952 6:0.10866355 
8 1:0.33876385 2:0.2071808 3:0.046084989 4:-2.273548 5:-0.26976037 6:-0.4324743 
8 1:0.11553192 2:0.38130565 3:0.16084559 4:0.27421723 5:0.25847236 6:0.40265601 
2.787459534795049 1:1.3276209 2:1.2078641 3:0.81162734 4:0.31881171 5:-0.28103601 6:-0.28474367 
8 1:-0.20929316 2:-0.045399517 3:0.26138493 4:0.0032141137 5:-0.024749963 6:-0.17064089 
6.328336305414515 1:0.022242093 2:-0.78884389 3:-0.10357783 4:-0.53925027 5:-0.3917566 6:-0.5897908 
8 1:-0.44290235 2:-0.36922592 3:-0.16796971 4:0.91686647 5:0.89648603 6:0.57272791 
8 1:-0.24417314 2:-0.33695936 3:-0.054291623 4:0.11561664 5:0.079549768 6:0.48838771 
8 1:-0.669528 2:-0.53031431 3:-0.19205387 4:-0.23029603 5:-0.25754508 6:-0.17141394 
8 1:-0.60000182 2:-0.78884389 3:-0.73707474 4:-0.14828495 5:-0.065937394 6:-0.019044985 
1.817438535173149 1:1.5136727 2:-0.42717589 3:1.452999 4:-0.71335202 5:-0.87613959 6:-0.90365076 
1.474675008240435 1:-0.64588503 2:-0.24869028 3:-0.14737365 4:1.6041866 5:1.0992128 6:0.58787977 
8 1:0.18031443 2:-0.2798571 3:0.089102526 4:-1.1843431 5:-1.3006207 6:-1.288709 
8 1:-0.78101576 2:-0.78884389 3:-0.28362887 4:1.4755956 5:1.3095349 6:1.0683329 
8 1:-0.4531137 2:-0.26520923 3:-0.73223945 4:0.088355976 5:0.73588637 6:0.35163444 
8 1:-0.35600027 2:-0.78884389 3:-0.73707474 4:1.2736223 5:1.3337305 6:1.3724523 
0.1700829841495759 1:-0.76421077 2:3.3024027 3:0.54269698 4:0.24237493 5:0.17750695 6:0.017829694 
8 1:-0.34017796 2:-0.47168464 3:-0.53219665 4:0.84577493 5:0.80722049 6:1.2098018 
4.784585451786304 1:-0.076590826 2:0.088348224 3:-0.1549937 4:0.96420993 5:0.50966871 6:1.2520105 
8 1:0.11228902 2:0.41972003 3:0.92836901 4:0.52605387 5:0.56119215 6:0.57906695 
0.9294888986972357 1:1.6901466 2:4.966517 3:4.9588575 4:-0.68402962 5:-0.0065836433 6:-0.50143072 
8 1:-0.78101576 2:-0.78884389 3:-0.3069772 4:-0.15966265 5:-0.037356762 6:0.050066049 
4.303007102294572 1:1.3071077 2:0.063145943 3:-0.055451964 4:0.40486989 5:0.31719968 6:0.35704582 
8 1:-0.40158182 2:-0.51814085 3:-0.68727063 4:0.12760523 5:-0.006348734 6:0.32086689 
0.09874374126646396 1:-0.38682287 2:-0.10901618 3:-0.22779097 4:4.8491987 5:4.7596478 6:4.3371147 
0.8564685434730989 1:1.9366067 2:3.1143785 3:4.0148065 4:-0.073604463 5:-0.31423653 6:-0.97399868 
8 1:0.14811172 2:0.048406427 3:0.1192431 4:-0.022824788 5:-0.35824287 6:-0.48782497 
1.16160283095178 1:-0.70502641 2:0.83334292 3:0.57694121 4:0.67388763 5:0.34084722 6:0.22910537 
8 1:-0.78101576 2:-0.47264691 3:-0.73707474 4:0.98528541 5:1.1623251 6:1.2383275 
8 1:-0.78101576 2:-0.6741506 3:-0.73707474 4:-0.66364139 5:-0.70308973 6:-0.73597533 
8 1:-0.49242816 2:-0.45492894 3:-0.11436052 4:-0.25702218 5:-0.35260505 6:-0.32780278 
0.3279435391020123 1:2.0416614 2:-0.3170801 3:0.12377126 4:3.6575945 5:3.583222 6:2.0971905 
2.34197025781348 1:-0.028414963 2:0.18885187 3:1.5606136 4:-0.95510909 5:-0.9472388 6:-0.99162431 
8 1:-0.29070493 2:-0.50252307 3:-0.53064717 4:1.1048658 5:0.86414685 6:0.68976829 
8 1:-0.78101576 2:-0.5046309 3:-0.73396545 4:1.3798397 5:1.3563601 6:1.4697025 
2.10484569988558 1:1.0236937 2:1.985469 3:1.2120867 4:0.0412416 5:-0.39332266 6:0.81863641 
8 1:-0.13670507 2:-0.12474088 3:-0.051327092 4:1.2756077 5:1.3497044 6:1.4752685 
8 1:0.095471214 2:-0.084104111 3:-0.044060807 4:-0.1545465 5:-0.049650349 6:-0.026543609 
4.664862323239672 1:0.088759173 2:-0.16112381 3:-0.1998508 4:-0.15660823 5:0.35885693 6:0.39214248 
0.602562428724718 1:-0.1373084 2:-0.064453969 3:0.9392649 4:0.59157111 5:0.55344014 6:0.31274982 
8 1:-0.28994323 2:-0.2774667 3:-0.23651476 4:0.25848698 5:0.29347384 6:0.27255101 
8 1:0.19637808 2:-0.0055875501 3:0.54022064 4:-0.77085141 5:-0.64146519 6:-0.88834429 
3.274269252940111 1:0.33642594 2:-0.78884389 3:0.14924217 4:-0.08040054 5:0.52274532 6:0.69525698 
8 1:-0.56108706 2:-0.51720149 3:-0.47092496 4:0.89304202 5:0.8883425 6:0.77495885 
8 1:0.35784414 2:0.53542141 3:0.97442891 4:-0.37828252 5:-0.82117081 6:-0.69098358 
7.291340265281745 1:0.1923056 2:1.065433 3:0.8049766 4:-0.90058775 5:-1.1452673 6:-1.3813982 
8 1:0.084234202 2:0.11400873 3:0.10396056 4:0.89197298 5:0.98402889 6:1.1500447 
2.170825373762036 1:0.15678458 2:0.82486579 3:0.56349823 4:-0.39752534 5:0.17038137 6:1.0703428 
0.3155045954396508 1:7.7971989 2:4.9817911 3:2.4930612 4:-0.90280221 5:-1.2234921 6:-1.2325853 
8 1:-0.6046927 2:-0.72457044 3:-0.4901555 4:0.17624681 5:0.30913446 6:0.26342897 
8 1:0.92225892 2:0.83662686 3:0.55097503 4:0.2175578 5:0.17507955 6:0.12992253 
8 1:-0.57565747 2:-0.47286839 3:-0.46331906 4:-0.68479322 5:-0.66252873 6:-0.75777545 
8 1:-0.48012024 2:-0.76994982 3:-0.51302271 4:-0.51725847 5:-0.86298467 6:-0.57711272 
4.834304995720757 1:2.0446781 2:1.3916116 3:0.046721761 4:-1.1674674 5:-1.0557669 6:-1.0771241 
8 1:0.013795479 2:0.53870535 3:0.050966913 4:-1.0048197 5:-1.3418864 6:-1.405904 
1.63714013885959 1:4.4175731 2:2.9915746 3:2.314694 4:-0.87027267 5:-1.1205236 6:-1.1947829 
8 1:-0.63050767 2:-0.78884389 3:-0.68264836 4:-0.57880497 5:-0.8234416 6:-0.73736683 
8 1:-0.78101576 2:-0.78884389 3:-0.62553338 4:0.070869441 5:-0.032658576 6:-0.0072945629 
0.6957108537193589 1:1.1795035 2:3.2241229 3:1.8602506 4:-1.2544419 5:-0.82179723 6:-0.5839929 
4.977488371641266 1:2.4520009 2:2.1155281 3:0.81261788 4:-0.72686781 5:-0.53395503 6:-0.59427452 
8 1:-0.50230768 2:-0.78884389 3:-0.73707474 4:-1.0365857 5:-1.0376006 6:-1.0519998 
2.78502524837255 1:0.78552936 2:0.73627595 3:0.058537434 4:-1.026277 5:-0.37821016 6:0.3367918 
8 1:-0.19755085 2:-0.17466431 3:-0.46438743 4:0.81820882 5:0.67308728 6:0.44069027 
0.8332035394410922 1:0.40671384 2:0.97959252 3:0.86631905 4:-0.17348389 5:0.26544133 6:0.64949218 
8 1:-0.78101576 2:-0.78884389 3:-0.32090837 4:-0.67433184 5:-0.78413344 6:-0.77802947 
1.194629893229476 1:-0.17034823 2:-0.12105982 3:-0.21283389 4:0.56102694 5:-0.14103007 6:-0.16175077 
8 1:-0.78101576 2:-0.37427401 3:-0.30027694 4:-0.68746584 5:-0.51829441 6:-0.33429643 
2.815887923833803 1:-0.32829991 2:-0.44408433 3:-0.20524214 4:0.92580064 5:1.0036047 6:1.5175546 
8 1:-0.78101576 2:-0.78884389 3:-0.5874756 4:0.068502268 5:0.18651181 6:0.23250681 
8 1:-0.55258766 2:-0.43810451 3:-0.29566387 4:0.028642132 5:-0.55227796 6:-0.62372788 
3.669420913993978 1:1.5747598 2:0.17090479 3:-0.19433918 4:-1.4086136 5:-1.4891746 6:-1.2699238 
0.5092684044134071 1:2.8149791 2:2.1824287 3:0.78509514 4:1.0105607 5:-0.40021333 6:-0.64436842 
0.2181252812861309 1:0.31530941 2:-0.11171206 3:-0.73707474 4:-2.273548 5:1.3382721 6:1.0250418 
8 1:-0.76912187 2:-0.6701106 3:-0.59904364 4:1.4834608 5:0.9689164 6:1.3608565 
0.6511224864647976 1:-0.77826337 2:1.6896859 3:0.46458619 4:0.66403714 5:0.54850704 6:0.47717842 
8 1:-0.77977139 2:-0.78884389 3:-0.39790128 4:-0.38782757 5:-0.21933317 6:-0.36784698 
8 1:-0.14304757 2:-0.27031842 3:0.033208028 4:-0.92853567 5:-0.83894561 6:-0.60903985 
8 1:-0.77818712 2:-0.44475639 3:-0.73042005 4:0.93183312 5:0.82139335 6:0.82783575 
8 1:-0.38797674 2:-0.48189538 3:-0.54070818 4:-1.2355045 5:-1.1437013 6:-1.256318 
6.826912940386993 1:-0.78101576 2:-0.2916258 3:-0.73707474 4:0.70214099 5:0.31806102 6:0.48954729 
8 1:-0.78101576 2:-0.722749 3:-0.73707474 4:-0.003734684 5:0.042747311 6:0.14020415 
8 1:-0.65682792 2:-0.71804916 3:-0.67589291 4:-1.1552497 5:-1.2770515 6:-1.2299569 
8 1:-0.16404344 2:-0.18967112 3:0.054575292 4:-0.47869646 5:-0.18057314 6:-0.4009337 
8 1:-0.77842951 2:-0.4552497 3:-0.73475795 4:0.15494226 5:0.27757831 6:0.051689463 
8 1:0.86305721 2:0.97775963 3:0.64090149 4:-0.9452586 5:-0.98184877 6:-0.95760993 
8 1:-0.78059565 2:-0.78884389 3:-0.40937734 4:0.33568736 5:0.36692215 6:0.31839312 
2.115525978412649 1:0.70038448 2:0.55107738 3:0.63616107 4:1.8723643 5:2.1852768 6:2.1571022 
8 1:-0.26287636 2:-0.20426553 3:-0.070274619 4:-0.12713311 5:0.43661191 6:0.41216458 
2.575635209534722 1:0.87904544 2:0.61011181 3:0.4425114 4:1.6585552 5:1.1784555 6:1.5385817 
8 1:-0.3008107 2:-0.78884389 3:-0.33376411 4:-0.43211661 5:-0.16538233 6:-0.65805148 
8 1:-0.135061 2:-0.33010892 3:-0.015964979 4:-0.35201453 5:-0.36474203 6:-0.31651619 
1.95648736493426 1:0.67240508 2:0.32960279 3:0.049056595 4:2.505774 5:2.2127612 6:1.3994319 
8 1:0.11259069 2:0.36977369 3:0.65908489 4:-0.29917313 5:-0.56159603 6:-0.77285001 
8 1:-0.33812664 2:-0.33724957 3:-0.086646754 4:0.32072072 5:0.29590124 6:0.23474867 
8 1:0.30444948 2:0.12836639 3:-0.10826165 4:-0.47350395 5:-0.60967413 6:-0.4839597 
0.1643712857182658 1:1.1545408 2:0.43209206 3:-0.29537379 4:3.8746871 5:3.1340755 6:3.0470421 
8 1:-0.057254114 2:0.74353116 3:1.6445261 4:-0.14828495 5:-0.31133931 6:-0.86553919 
2.486226436808127 1:1.4743809 2:-0.22351091 3:0.14535079 4:-0.45769735 5:-0.47201728 6:-0.25838252 
1.438119646918403 1:0.43152576 2:0.20557702 3:-0.18222634 4:0.61463195 5:0.46683691 6:0.53801778 
8 1:-0.69124033 2:-0.34753668 3:-0.38903598 4:0.21816868 5:-0.36067027 6:0.34204857 
8 1:-0.32314898 2:-0.4407393 3:-0.20747792 4:-0.89959507 5:-0.66495612 6:-0.31589775 
3.978432959261763 1:-0.17295009 2:0.0031950629 3:0.14301595 4:-1.0371965 5:-0.85585908 6:-0.08560494 
8 1:-0.42457622 2:-0.49723823 3:-0.48107087 4:0.96604258 5:0.67692413 6:1.3198847 
8 1:-0.040179889 2:-0.078704713 3:-0.26052109 4:0.27360634 5:0.0073543087 6:-0.057233856 
8 1:0.6161446 2:0.51823804 3:0.49055237 4:-1.1095862 5:-1.1231859 6:-0.68936017 
1.679693702913007 1:3.6097149 2:2.8208101 3:0.91952495 4:-0.76397897 5:-0.61985353 6:-0.71046455 
8 1:-0.27838947 2:0.102935 3:-0.083809578 4:-1.2620016 5:-1.316986 6:-1.158604 
8 1:-0.57896824 2:-0.45042308 3:-0.73707474 4:0.23244808 5:0.38892532 6:0.63155732 
8 1:1.0470727 2:0.98585491 3:0.48453841 4:-0.53069791 5:-0.80652813 6:-1.1558983 
0.2047225227068944 1:0.65649226 2:2.4432341 3:3.1013914 4:-1.2023641 5:-1.1846538 6:-1.1119888 
0.0824666212477036 1:-0.0037764933 2:-0.12055577 3:-0.09295788 4:8.123686 5:8.3269805 6:8.2331526 
8 1:-0.20382548 2:-0.073038018 3:0.014175598 4:-0.13538004 5:-0.030544392 6:0.018834665 
3.432847916364881 1:-0.10147817 2:-0.34843785 3:-0.73707474 4:-0.32078313 5:0.55915627 6:1.1525185 
8 1:-0.31237955 2:-0.38858585 3:-0.69817359 4:0.90861955 5:1.1013269 6:0.88125379 
0.3546382307013249 1:1.4307149 2:8.2965784 3:1.024734 4:-0.63668616 5:-1.1556034 6:-0.63346836 
8 1:0.48771082 2:0.65455947 3:0.7405918 4:-0.55834038 5:-0.29035408 6:-0.30198277 
8 1:0.37903609 2:0.35732529 3:0.55486642 4:-0.67143015 5:-0.62345548 6:-0.84768164 
8 1:-0.015692252 2:-0.093902452 3:-0.25701177 4:-0.55284243 5:-1.3057887 6:-1.3488526 
8 1:-0.53733096 2:0.16700989 3:0.079267924 4:-0.019694011 5:-0.38721502 6:-0.24044767 
8 1:-0.74417495 2:-0.42362466 3:-0.38247015 4:0.10775152 5:0.34217837 6:0.10982313 
8 1:-0.50869543 2:-0.19986659 3:-0.52842554 4:-0.94090605 5:-1.1393163 6:-1.147472 
8 1:0.20082763 2:0.62645511 3:0.49656633 4:0.66365534 5:0.42196923 6:0.47671459 
0.5742188364872352 1:0.095697463 2:0.39642702 3:0.58465323 4:0.8811298 5:1.7279867 6:0.32272222 
8 1:-0.78055279 2:-0.40506661 3:-0.73645843 4:0.46565278 5:0.4186022 6:0.48351747 
1.065064346045236 1:-0.17503912 2:-0.28499684 3:0.54184795 4:1.5267571 5:0.66987685 6:0.0050743022 
8 1:-0.40701933 2:-0.57139403 3:-0.31150536 4:-0.57414698 5:-0.53168424 6:-1.0003598 
6.67345892954678 1:-0.77888721 2:-0.78752459 3:-0.33461314 4:1.6916192 5:1.9418324 6:1.9292832 
8 1:-0.78101576 2:-0.63624026 3:-0.73707474 4:-0.24671352 5:-0.26858582 6:-0.1164498 
2.308664277754483 1:-0.087224509 2:0.24437325 3:0.2647103 4:-0.12881304 5:-0.43897337 6:-0.2908508 
0.3154783996421205 1:-0.11420088 2:1.7623143 3:2.5602053 4:-2.273548 5:-1.4117328 6:-1.0921213 
8 1:-0.27815568 2:-0.53052815 3:-0.60959284 4:-1.2247377 5:-1.2749373 6:-1.2419392 
8 1:-0.36783307 2:-0.41162684 3:-0.25459203 4:-0.051918106 5:0.29096814 6:0.85651606 
8 1:-0.012373939 2:0.33265761 3:1.2985462 4:-0.31765235 5:-0.47726359 6:-0.57919996 
8 1:0.50535821 2:0.70420032 3:0.45199224 4:0.29139832 5:0.34836432 6:0.28028155 
8 1:-0.42010403 2:-0.25415841 3:-0.4091297 4:0.44587544 5:0.19747424 6:0.005228913 
8 1:-0.78101576 2:-0.58024538 3:-0.73707474 4:0.18350105 5:0.26645927 6:0.14136373 
3.088434415661224 1:1.9811022 2:2.0883401 3:2.7776278 4:-0.086814815 5:-0.91717041 6:-0.77640606 
8 1:-0.18814646 2:-0.264667 3:0.024151705 4:-1.367608 5:-1.0895938 6:-1.1782396 
8 1:-0.17469975 2:0.30241487 3:0.60934586 4:-0.85332066 5:-0.93298764 6:-1.1090512 
0.4336085737728849 1:0.49329162 2:1.1740319 3:1.7411033 4:-2.273548 5:-1.286996 6:0.0051516076 
8 1:-0.24360752 2:0.23551427 3:-4.5659707e-05 4:-0.5453591 5:-0.96188148 6:-0.77632875 
8 1:-0.60965509 2:-0.78884389 3:-0.73707474 4:0.12699435 5:-0.12372508 6:-0.26680881 
8 1:-0.13822094 2:-0.13137748 3:-0.44741389 4:0.23397529 5:0.29073323 6:0.26188286 
8 1:-0.68261271 2:-0.48010068 3:-0.42122838 4:0.26184684 5:0.47545025 6:0.45630596 
8 1:0.19079728 2:-0.012690011 3:-0.12113861 4:-0.97923898 5:-0.53630413 6:-0.10431285 
0.2003020482878432 1:-0.67176032 2:0.64440219 3:-0.64813882 4:-0.67608813 5:-0.7250146 6:-0.9099125 
8 1:-0.40962873 2:-0.38084951 3:-0.25097658 4:0.82553942 5:0.28697468 6:-0.1236392 
8 1:-0.38837644 2:-0.65456919 3:-0.48697163 4:0.41067329 5:0.50794604 6:0.6827335 
8 1:0.23536825 2:0.023204147 3:0.1752791 4:0.73971031 5:0.34953886 6:0.70430171 
8 1:-0.23812477 2:-0.036181592 3:0.68972074 4:-0.82331101 5:-0.66644388 6:-0.2981175 
0.3287973819862794 1:1.3741527 2:2.3263108 3:2.1794152 4:2.4149814 5:3.0116094 6:3.873978 
8 1:-0.78101576 2:-0.55864779 3:-0.73707474 4:-0.11193739 5:-0.056775931 6:-0.056538107 
0.2380161272384445 1:-0.47095717 2:-0.78884389 3:0.0421936 4:0.36623152 5:0.30960428 6:-0.44159634 
8 1:-0.78101576 2:-0.36449094 3:-0.73707474 4:-0.85194617 5:-0.8007337 6:-0.90349615 
8 1:-0.77874671 2:-0.78884389 3:-0.33873094 4:-0.48259084 5:-0.52479357 6:-0.47236389 
8 1:0.11251527 2:-0.47291421 3:-0.44725824 4:-0.43669823 5:-0.25903284 6:-0.37936549 
8 1:-0.69727362 2:-0.78884389 3:-0.73707474 4:-0.22426356 5:-0.40600776 6:-0.36846542 
0.6913214475421123 1:0.48733374 2:0.055890741 3:-0.50787901 4:0.02459503 5:-0.38909429 6:-0.69028783 
7.372374230201148 1:0.047054019 2:-0.36742357 3:-0.10802817 4:0.11477668 5:-0.15308875 6:-0.42041466 
7.863356989886358 1:-0.10643301 2:0.36954458 3:0.09341843 4:0.76078579 5:0.62414784 6:0.2337437 
1.073052875069985 1:-0.28250719 2:0.33762169 3:-0.73707474 4:2.2819616 5:0.93297527 6:1.2963838 
8 1:-0.36995981 2:-0.14395571 3:0.19042015 4:0.50238214 5:-0.047457862 6:0.090728693 
3.660009064101983 1:0.50958152 2:0.31669616 3:0.87792246 4:-0.12904212 5:-1.0810588 6:-1.1786261 
1.032878599584452 1:2.3719089 2:2.8332585 3:2.8790162 4:-0.40371054 5:-0.26600182 6:-0.24678671 
8 1:0.078879652 2:0.43171021 3:-0.068668537 4:-0.70266156 5:-0.41892778 6:-0.24956971 
8 1:-0.25964101 2:0.26766627 3:0.063702368 4:0.30941938 5:0.96719373 6:1.1980513 
8 1:-0.63838112 2:-0.42789377 3:-0.46692037 4:0.84661489 5:0.9841072 6:0.67979589 
7.485235757907506 1:2.8197303 2:1.8502168 3:1.4204528 4:-0.63897697 5:-0.59698903 6:-0.7141752 
8 1:0.38160024 2:0.26254944 3:-0.42282032 4:0.49024084 5:0.06318442 6:0.38765876 
0.9665463101951643 1:2.6893357 2:0.25621069 3:1.6680159 4:-1.0232226 5:-1.0121521 6:-0.045638045 
0.8311416707675943 1:2.1449816 2:0.90276375 3:-0.0011069476 4:-0.67585905 5:-0.92844606 6:-0.73257389 
8 1:-0.41652177 2:-0.36336066 3:-0.24400038 4:0.90296888 5:1.0092425 6:0.91310361 
8 1:-0.5214634 2:-0.78629556 3:-0.38571769 4:-0.0076290652 5:-0.20163667 6:-0.37070728 
8 1:-0.51938191 2:-0.78884389 3:-0.50526116 4:-0.41501188 5:-0.32081399 6:-0.2180291 
8 1:1.0550668 2:0.81195917 3:0.35300946 4:0.15876028 5:0.14829989 6:-0.079111286 
8 1:-0.78101576 2:0.073532338 3:-0.73707474 4:-0.70495237 5:-0.6971387 6:-0.69848221 
0.4455128256660266 1:4.0514275 2:4.6330832 3:1.9042586 4:-0.35422899 5:-0.21839353 6:-1.1135349 
8 1:-0.78101576 2:-0.43512606 3:-0.73411262 4:0.36416979 5:0.31085713 6:0.20220309 
3.457256958887217 1:0.2877825 2:0.42712798 3:0.13523317 4:0.094388449 5:0.028887662 6:0.41734404 
1.602725996999091 1:0.89820115 2:1.5438181 3:1.4979976 4:0.87425736 5:-0.80159503 6:0.48784657 
0.2232080709294282 1:0.28559543 2:0.51579418 3:0.31586438 4:2.3473261 5:1.9110593 6:0.9128717 
2.191021909611721 1:1.063438 2:1.1266822 3:0.9446421 4:0.51322532 5:0.73298915 6:0.93892362 
8 1:-0.58589145 2:-0.55583735 3:-0.54439439 4:1.660006 5:1.4254235 6:2.0661911 
8 1:-0.78101576 2:-0.77752119 3:-0.60459771 4:-0.67921891 5:-0.75210747 6:-0.68959209 
8 1:0.36591368 2:0.092395863 3:0.36786749 4:-0.36911927 5:-0.34211243 6:-0.2866763 
8 1:-0.21243047 2:-0.78572095 3:-0.73460895 4:-0.54070112 5:-0.61813087 6:-0.29989553 
4.132165748122254 1:0.48416626 2:0.74261471 3:0.42319596 4:-0.26572727 5:-0.28941445 6:0.09969612 
8 1:-0.77650263 2:-0.35489116 3:-0.7369103 4:0.58782945 5:0.5727027 6:0.5812315 
8 1:-0.041899378 2:-0.047904471 3:-0.270667 4:-0.022290265 5:0.31367604 6:0.3139094 
0.9154020587861655 1:0.01417256 2:0.65769066 3:0.36185352 4:2.0310413 5:1.7304924 6:1.5269859 
8 1:-0.23620165 2:0.094305127 3:-0.20194507 4:-0.58964815 5:-0.59323048 6:-0.62140872 
8 1:-0.068822958 2:-0.11325475 3:0.052594221 4:0.8371462 5:0.40818789 6:1.0868862 
8 1:-0.088483959 2:-0.4358134 3:-0.40083043 4:-0.81376596 5:-1.2065787 6:-1.0245564 
8 1:-0.78101576 2:-0.68629352 3:-0.73707474 4:-0.32544111 5:-0.24556471 6:-0.19993964 
8 1:-0.48146265 2:-0.48629433 3:-0.39425752 4:0.13638668 5:0.21587547 6:0.25871334 
3.144998296519879 1:0.094867885 2:0.66250201 3:1.1960258 4:-0.11552633 5:-0.077604556 6:-0.063340983 
1.605005320165898 1:0.77715817 2:1.0569559 3:0.91209593 4:-0.17569834 5:-0.17297773 6:-1.5687092 
8 1:-0.78101576 2:-0.40309625 3:-0.73707474 4:0.10943145 5:0.37984216 6:0.51204316 
8 1:-0.78101576 2:-0.78884389 3:-0.44212161 4:0.42411272 5:0.46942091 6:0.28538371 
0.3203831993976941 1:-0.088182294 2:-0.06901329 3:-0.10788666 4:5.6977157 5:7.127377 6:5.370688 
0.3594031445197324 1:1.4867491 2:3.4909616 3:3.1236785 4:-0.70029439 5:-0.12364678 6:0.53654898 
0.6267768348720888 1:-0.093778176 2:0.30546969 3:0.34699549 4:1.4113765 5:0.75773293 6:0.98314231 
3.795098171219964 1:0.4284337 2:1.1957212 3:0.79195814 4:-0.086738455 5:0.75279984 6:0.30161784 
0.1447752682675303 1:0.22239666 2:-0.26847789 3:-0.44936666 4:5.021086 5:5.1333886 6:4.3358778 
8 1:0.14343591 2:0.086668072 3:-0.084028911 4:1.0385086 5:0.7164672 6:0.94704069 
8 1:-0.58736961 2:-0.59845975 3:-0.41424511 4:-0.60537839 5:-0.79274678 6:-0.87303782 
8 1:-0.3100341 2:-0.023992852 3:-0.032719177 4:-0.4562465 5:-0.45909727 6:-0.10261213 
8 1:-0.50113873 2:-0.29479518 3:-0.12858885 4:-0.11163195 5:-0.24110143 6:-0.092253205 
8 1:-0.78054629 2:-0.7879764 3:-0.38617758 4:0.34194891 5:0.40192364 6:0.32071228 
0.4881461358375163 1:1.0500139 2:0.17174486 3:0.21659858 4:1.7437734 5:1.0248248 6:-0.03056349 
8 1:0.31146319 2:0.39268486 3:0.45828922 4:0.50436751 5:0.51115646 6:0.72200465 
8 1:-0.78101576 2:-0.45325643 3:-0.73707474 4:-0.11835167 5:-0.048867318 6:-0.13059669 
8 1:-0.49852179 2:-0.52522803 3:-0.20265967 4:0.79178812 5:0.91574859 6:0.88055804 
8 1:-0.69413631 2:-0.77351327 3:-0.54394157 4:-1.1829686 5:-1.1670356 6:-1.2495151 
8 1:-0.50491708 2:-0.78884389 3:-0.51334818 4:0.31644453 5:0.20279885 6:0.423915 
8 1:0.2886875 2:0.33723984 3:0.24836647 4:-0.10682124 5:-0.14502353 6:-0.0038158196 
8 1:-0.78101576 2:-0.78884389 3:-0.52191631 4:-0.0078581464 5:-0.097180332 6:-0.0063668981 
0.8254134307362586 1:-0.4190105 2:-0.069547884 3:0.09900788 4:1.7645434 5:2.0837177 6:1.9833197 
3.836496434249359 1:1.3934593 2:0.53328304 3:-0.057687744 4:-0.41982258 5:-0.45291132 6:-0.49223138 
8 1:-0.50070132 2:-0.4502627 3:-0.53008115 4:0.075756508 5:0.050107802 6:0.014119035 
8 1:0.056103962 2:-0.0041365097 3:-0.018370564 4:-0.068106514 5:-0.44915277 6:-0.59017733 
8 1:-0.48631945 2:-0.4917701 3:-0.35435309 4:-0.79986837 5:-0.84599289 6:-1.1601501 
3.971866684675777 1:0.21319589 2:0.45927998 3:0.69736201 4:0.7271872 5:0.71497944 6:0.66588092 
8 1:-0.59244511 2:-0.4802076 3:-0.57220013 4:0.11515848 5:0.059347568 6:0.29983982 
8 1:0.72753431 2:0.5299991 3:0.40777191 4:-0.081851388 5:0.10883513 6:0.2123301 
8 1:-0.78101576 2:-0.63862302 3:-0.73707474 4:-0.11483909 5:0.078453525 6:0.011104124 
8 1:-0.21602028 2:-0.42184522 3:-0.43273275 4:-0.031606235 5:-0.081284802 6:-0.17396502 
8 1:-0.47211858 2:-0.28998383 3:0.097805087 4:0.0033668345 5:-0.18198259 6:-0.19970772 
1.838700651203107 1:-0.19645732 2:-0.070892006 3:0.092357142 4:-0.37057012 5:0.27890947 6:0.32913857 
8 1:0.25527812 2:0.33082471 3:0.12844093 4:1.1011242 5:0.94847929 6:1.2194649 
0.1402477978612136 1:2.0318573 2:0.87832517 3:1.0490021 4:-1.2419188 5:-1.1459721 6:-0.65194435 
8 1:-0.10728522 2:-0.45217197 3:-0.39510655 4:-0.49519031 5:-0.58422562 6:-0.63254069 
8 1:0.45520645 2:0.73146461 3:0.81693378 4:-0.14507781 5:-0.10352288 6:-0.18092251 
8 1:-0.26189595 2:-0.30754142 3:-0.11062479 4:0.19220614 5:0.084796076 6:0.18287674 
2.813465924981725 1:-0.23415787 2:-0.17715399 3:0.23011231 4:1.1435042 5:0.57567822 6:-0.11436255 
8 1:-0.78101576 2:-0.5889058 3:-0.73393277 4:0.42541085 5:0.25400908 6:0.31313635 
0.2099095947103466 1:-0.19217368 2:0.01526161 3:0.4830526 4:8.1252133 5:8.3207163 6:8.2231029 
0.595512782928129 1:0.83454989 2:0.13371233 3:0.47265198 4:2.8749766 5:0.033977363 6:0.65003331 
8 1:-0.42830177 2:-0.37334229 3:-0.38841336 4:-0.63233362 5:-0.81819529 6:-0.59659368 
8 1:-0.78101576 2:-0.49106749 3:-0.73595544 4:1.6529045 5:2.0057278 6:1.7221047 
8 1:0.29343872 2:-0.19303142 3:0.012406785 4:-0.4591482 5:-0.84145131 6:-0.91887992 
8 1:-0.27495803 2:-0.72207007 3:-0.061168769 4:-1.1721254 5:-1.1111272 6:-1.1762296 
8 1:-0.353685 2:-0.39878895 3:-0.31859477 4:0.2260338 5:0.30913446 6:0.3510933 
8 1:-0.78101576 2:-0.67786985 3:-0.73707474 4:-0.59018267 5:-0.34845498 6:-0.40688621 
8 1:-0.28986781 2:-0.18866303 3:-0.30870356 4:0.54460945 5:0.45266405 6:0.6240587 
0.3249828085073691 1:0.042529048 2:0.15005563 3:0.10947925 4:1.2822511 5:2.9513943 6:4.928733 
8 1:0.23913906 2:0.061847644 3:0.26697438 4:-0.11063926 5:-0.20398576 6:-0.17999484 
1.423194300940805 1:1.6995736 2:1.9428542 3:1.2611889 4:0.44549363 5:0.3428048 6:0.95113787 
8 1:0.35543083 2:0.33762169 3:0.27044126 4:0.64181626 5:0.80017321 6:0.48351747 
8 1:-0.78070159 2:-0.44803268 3:-0.73256965 4:0.12691799 5:0.032802817 6:0.068928568 
1.310047415697086 1:0.32096563 2:0.23979102 3:0.026769548 4:1.6399996 5:1.8903873 6:2.2616191 
8 1:-0.18638172 2:-0.18851029 3:-0.44957185 4:0.085683361 5:-0.057010841 6:0.13595236 
8 1:0.34095092 2:0.24238762 3:-0.19565517 4:-0.026490088 5:-0.063744907 6:-0.19476017 
8 1:-0.37306696 2:0.0058680321 3:0.26258772 4:-1.1509736 5:-1.1740046 6:-1.0244018 
8 1:-0.44554946 2:-0.019945213 3:0.087899733 4:-1.1177568 5:-1.0151276 6:-1.4335793 
8 1:-0.68105914 2:-0.60126255 3:-0.23977645 4:0.06514241 5:-0.038844521 6:-0.26193857 
8 1:-0.61498701 2:-0.78884389 3:-0.52209319 4:-0.64668937 5:-0.73151376 6:-0.73953138 
5.641758886705391 1:1.4617863 2:1.8009578 3:0.027901589 4:-0.74931777 5:-0.32739145 6:-0.39459465 
8 1:1.1628366 2:2.4165044 3:3.1296924 4:-0.74626336 5:-0.82547748 6:-0.82495385 
0.1566678970119577 1:0.91924227 2:0.76300565 3:0.0089399114 4:1.7375118 5:1.9042469 6:2.0612435 
8 1:-0.31928767 2:-0.31427731 3:-0.36626075 4:1.2737751 5:0.92522327 6:1.0987912 
0.3368375692165883 1:0.27043678 2:1.2301643 3:1.5967681 4:2.7836495 5:4.9264335 6:3.2151813 
0.1732389503723521 1:1.0043871 2:0.29531241 3:1.621107 4:0.49757144 5:-0.3008467 6:0.024709876 
8 1:-0.38419084 2:-0.70243825 3:-0.26830387 4:-0.77130957 5:-0.64154349 6:-0.78746073 
8 1:1.186291 2:1.1740319 3:0.25735204 4:-0.48869968 5:0.11110592 6:0.35078408 
8 1:-0.37468086 2:-0.5263125 3:-0.49986982 4:-0.44066898 5:-0.30413543 6:-0.48442354 
0.1372347531694894 1:0.29826535 2:-0.72599628 3:2.0405988 4:-0.224569 5:-0.23084373 6:-0.68564951 
3.362916252178294 1:-0.2594223 2:0.3783272 3:1.0958402 4:0.47871042 5:0.43770816 6:0.81940946 
8 1:0.52526809 2:0.7633875 3:0.99657445 4:-0.48213268 5:-0.80511867 6:-0.46277802 
8 1:0.9906614 2:0.89092631 3:0.68788117 4:-0.53611949 5:-0.56887822 6:-0.33491488 
8 1:-0.13015895 2:0.16815545 3:0.039505003 4:-0.41989894 5:-0.52620303 6:-0.31790769 
8 1:-0.4687701 2:-0.37910063 3:-0.49420962 4:-0.58789186 5:-0.74208468 6:-0.94902903 
0.08190855433799267 1:1.2092175 2:3.0368623 3:-0.034240357 4:0.40861155 5:0.20076297 6:0.17344548 
5.367870765914984 1:-0.074690338 2:-0.24373383 3:-0.19745936 4:1.1638161 5:0.93704703 6:0.96744931 
8 1:-0.78101576 2:-0.68828679 3:-0.73707474 4:-0.11987887 5:-0.37116288 6:-0.18849844 
8 1:-0.31127093 2:-0.33142249 3:-0.28577974 4:-0.070091884 5:-0.10078227 6:-0.29904517 
0.08088694430971247 1:1.772124 2:-0.78884389 3:1.4813708 4:0.50276395 5:0.58554441 6:1.8765609 
8 1:-0.66424133 2:-0.77941366 3:-0.62975023 4:0.58210242 5:0.56886585 6:0.67368877 
8 1:-0.48515804 2:-0.57702254 3:-0.54999091 4:1.8999305 5:0.90384652 6:0.42368308 
8 1:-0.64289855 2:-0.70265209 3:-0.53437583 4:0.082399864 5:0.025598931 6:0.26451125 
8 1:-0.37677743 2:-0.59087616 3:-0.5657758 4:0.74818632 5:0.10953986 6:0.67469374 
8 1:-0.39385166 2:-0.78884389 3:-0.4397797 4:-0.22838702 5:-0.11237113 6:-0.0042023467 
8 1:-0.31063743 2:-0.47785538 3:-0.24433291 4:-0.42356424 5:-0.52236617 6:-0.26503079 
8 1:-0.47456207 2:-0.57450995 3:-0.6210406 4:0.12928516 5:0.12386932 6:-0.13461657 
8 1:-0.3306906 2:-0.51667453 3:-0.48358259 4:0.54919108 5:0.46613218 6:0.6542078 
8 1:-0.21139727 2:-0.13135457 3:-0.029195701 4:0.21847412 5:0.2344333 6:0.03692413 
1.261778530327471 1:1.6383357 2:3.5717617 3:3.5508822 4:-1.3950978 5:-1.252386 6:-1.2667543 
0.3298101208014944 1:1.8108125 2:3.1187316 3:2.2082115 4:-0.046267435 5:2.0531794 6:1.9674721 
8 1:-0.78101576 2:-0.4709133 3:-0.73707474 4:-0.034737012 5:-0.074550736 6:0.0034508886 
8 1:0.30716446 2:-0.025665367 3:-0.34916693 4:-0.31742327 5:-0.1822958 6:-0.41647208 
8 1:1.1384017 2:1.0599343 3:0.88103557 4:0.54850383 5:0.44256295 6:0.3109718 
2.383546308504617 1:0.62247956 2:1.7642999 3:2.649212 4:0.70504268 5:-0.15966621 6:-0.48403701 
8 1:-0.23212918 2:-0.78884389 3:-0.73707474 4:-0.30612193 5:-0.22207378 6:-0.30260122 
8 1:-0.084517068 2:0.044282418 3:-0.19676599 4:-0.63057733 5:-0.20257631 6:-0.16808981 
8 1:1.8896978 2:1.5222816 3:1.0584122 4:-1.1085935 5:-1.1606931 6:-1.2292611 
8 1:0.020960017 2:0.077121754 3:-0.19643345 4:0.032689234 5:0.036013244 6:0.23559903 
8 1:-0.49699084 2:-0.32887935 3:-0.73707474 4:-0.40607771 5:-0.38455271 6:-0.48218168 
8 1:0.15248585 2:-0.047927382 3:0.38208874 4:-0.194483 5:-0.28150583 6:-0.12827752 
8 1:-0.40551854 2:-0.78708347 3:-0.44413098 4:0.38096908 5:0.47858237 6:0.12999984 
8 1:-0.0028714991 2:0.017323614 3:0.032217493 4:-0.073528103 5:0.29574463 6:0.012031789 
1.86128800325022 1:0.56327785 2:1.221458 3:-0.42114348 4:-0.45533018 5:-0.29231166 6:-0.39567693 
0.2043874428904845 1:1.5652574 2:1.8926788 3:-0.73707474 4:-0.23335045 5:-0.17697119 6:0.073644198 
0.8461878790622663 1:0.42933869 2:0.327999 3:1.6257059 4:-1.615619 5:-1.5556069 6:-1.6257992 
8 1:-0.7753057 2:-0.51461253 3:-0.73594773 4:-0.64829294 5:-0.60552407 6:-0.588322 
8 1:-0.6478006 2:-0.0063512556 3:0.71823401 4:-0.080476901 5:-0.20304613 6:-0.67614094 
4.163933974953165 1:-0.38444726 2:0.059327416 3:-0.12011978 4:0.18991533 5:1.1414964 6:1.1426234 
8 1:-0.36472593 2:-0.58491162 3:-0.35203241 4:1.1183816 5:1.5731814 6:1.2207791 
8 1:-0.020518888 2:0.17731991 3:0.1596428 4:-0.30039489 5:-0.19701679 6:-0.1679352 
0.8303034674259586 1:1.7877351 2:4.1795185 3:2.5618326 4:-0.84805179 5:-0.9370594 6:-1.0366161 
8 1:-0.27093835 2:-0.19526144 3:-0.17871702 4:-0.034507931 5:-0.017232865 6:-0.049889842 
8 1:-0.21353155 2:-0.25315796 3:-0.32869823 4:0.23893871 5:0.053318229 6:0.066995933 
8 1:-0.51787359 2:-0.59086852 3:-0.47879972 4:-0.21036597 5:-0.25167235 6:-0.33823901 
8 1:-0.5542619 2:-0.78884389 3:-0.73707474 4:0.12829247 5:0.14133092 6:-0.00033707631 
8 1:1.3782252 2:1.1261476 3:1.0811945 4:-0.67311008 5:-0.84145131 6:-0.72306533 
8 1:0.11055445 2:0.081856728 3:-0.10468157 4:0.67495668 5:1.1026581 6:0.94209314 
8 1:0.013795479 2:-0.21883703 3:-0.19341232 4:0.012071922 5:0.29370875 6:0.25623957 
8 1:0.15422043 2:0.0096865595 3:-0.15884263 4:0.54445673 5:-0.37836677 6:-0.43340197 
8 1:-0.77270716 2:-0.18969403 3:-0.13211233 4:-0.044587506 5:0.19810066 6:0.31622857 
8 1:-0.43982537 2:-0.78884389 3:-0.73707474 4:-0.51389861 5:-0.33757085 6:-0.48442354 
8 1:-0.22518335 2:-0.24007568 3:-0.12882234 4:-0.54673359 5:0.029827299 6:0.46921597 
1.273440476426934 1:0.094641636 2:-0.23209496 3:0.1612701 4:1.9802616 5:1.0383712 6:0.8872063 
8 1:0.2542223 2:0.31096837 3:0.45121396 4:-0.60896733 5:-0.52072181 6:-0.87010021 
8 1:-0.78101576 2:-0.16406407 3:-0.18197871 4:-0.38378047 5:-0.49738748 6:-0.16677562 
8 1:-0.62286801 2:-0.73246333 3:-0.3272478 4:-0.2388484 5:-0.29027578 6:-0.13693573 
2.135024674499109 1:0.99586512 2:1.2366558 3:1.2672736 4:0.21771052 5:0.52822654 6:0.44076758 
0.5247371868570835 1:2.567614 2:2.2833141 3:0.86348895 4:-0.70518145 5:0.38790738 6:-0.22405892 
1.139143006047873 1:-0.78101576 2:-0.12459578 3:1.0930101 4:0.49329525 5:0.830085 6:1.6803598 
0.7192374269211013 1:0.23710282 2:-0.78792111 3:0.92193053 4:0.86539955 5:0.91003246 6:0.62568211 
2.263029046439448 1:1.3259618 2:0.40711889 3:-0.18111553 4:-0.78627621 5:-1.096876 6:-1.1506415 
8 1:-0.44464446 2:-0.78884389 3:-0.19389344 4:-0.39844167 5:-0.48086553 6:-0.30105511 
8 1:0.030462457 2:-0.12846776 3:-0.087226925 4:0.24313854 5:0.025912144 6:0.037387962 
0.4240859238022929 1:1.6273249 2:0.033743282 3:0.18638725 4:-0.78383268 5:-0.75727548 6:0.50910556 
8 1:-0.22647296 2:0.067269953 3:0.3177747 4:-0.56994716 5:-0.64224822 6:-0.81621834 
8 1:-0.051846774 2:-0.090931638 3:0.5949831 4:-0.0044982882 5:0.33105933 6:0.05207599 
0.2261140993601329 1:0.38137399 2:0.27392866 3:0.56420575 4:3.0075383 5:4.3061946 6:5.2893627 
8 1:-0.39032972 2:-0.78884389 3:-0.19460804 4:-0.57093984 5:-0.81960475 6:-0.9128501 
5.339507338146966 1:-0.32603742 2:-0.78884389 3:-0.32388706 4:0.53300267 5:0.44123179 6:0.76081196 
8 1:-0.21160089 2:-0.38860876 3:-0.73707474 4:0.50635289 5:0.50794604 6:0.38889565 
8 1:0.52436309 2:0.30630977 3:-0.1963061 4:0.11599845 5:-0.29857591 6:-0.34882985 
8 1:-0.38686058 2:-0.1822479 3:-0.077922967 4:0.88433694 5:0.38273938 6:0.20467686 
3.629387669165211 1:-0.1737118 2:-0.25603713 3:-0.095512046 4:0.57774987 5:0.2569846 6:-0.51008893 
8 1:-0.27974696 2:-0.234577 3:-0.17420301 4:-1.0023762 5:-1.1749442 6:-1.2234632 
8 1:-0.57284445 2:-0.39657421 3:-0.07604095 4:-0.26183289 5:0.15785287 6:0.023550294 
0.4299814806590226 1:0.76222576 2:0.47715068 3:0.76436465 4:-0.37622079 5:-0.25691866 6:0.063903717 
2.354841500271493 1:0.19298435 2:-0.11153641 3:1.2396094 4:-1.1838849 5:0.41836729 6:0.24966861 
3.219837299753915 1:0.82089956 2:0.37504326 3:-0.0098095086 4:-0.32490659 5:0.054492776 6:-0.37890165 
4.453012131197593 1:1.0236183 2:0.48303122 3:-0.42683906 4:-0.42753498 5:-0.43912998 6:-0.47553341 
8 1:0.055349801 2:-0.22829171 3:-0.20350163 4:1.1980255 5:1.0384496 6:0.81175622 
8 1:-0.25705423 2:-0.28256062 3:-0.37958345 4:-0.90486394 5:-0.92092896 6:-0.90697489 
8 1:-0.0661306 2:-0.78833099 3:-0.73374039 4:-0.62339945 5:-0.79282509 6:-0.70350706 
8 1:-0.45159029 2:-0.78634314 3:-0.21190703 4:0.27704256 5:0.04071143 6:0.29419652 
8 1:-0.49064834 2:-0.59770368 3:-0.1593945 4:0.1108823 5:0.0055533374 6:0.15929859 
0.4503989832436535 1:0.55520832 2:1.8276111 3:1.2284305 4:-1.4774907 5:-0.41720511 6:-0.49331366 
6.693208062516112 1:-0.040866176 2:0.42949546 3:-0.24789884 4:-0.2747378 5:-0.18519302 6:-2.2966169 
8 1:-0.78101576 2:-0.6364541 3:-0.73707474 4:0.0044358803 5:-0.16553894 6:-0.14350669 
8 1:-0.78041048 2:-0.78884389 3:-0.47804974 4:0.31484097 5:0.35008698 6:0.32542791 
0.02250242828839344 1:0.056858124 2:0.39940547 3:0.37706532 4:0.7011483 5:0.1965346 6:-0.56381619 
8 1:0.00067306193 2:0.068644623 3:-0.026011838 4:0.47336519 5:0.77676058 6:1.0504753 
4.941789684169484 1:1.9968642 2:2.2729278 3:1.9226543 4:-0.48892876 5:-0.54664013 6:-0.44020484 
8 1:-0.46006707 2:-0.78383429 3:-0.42566457 4:0.7121442 5:0.55124765 6:0.83463862 
1.768903951019865 1:-0.35118872 2:0.92842425 3:1.1020665 4:-0.28642094 5:-0.5912729 6:-0.65325854 
8 1:0.84495732 2:1.0892606 3:1.0240972 4:-0.69510188 5:-0.81819529 6:-0.64908405 
8 1:-0.29288446 2:-0.19103815 3:-0.37181482 4:-0.53879211 5:-0.096475604 6:-0.06372751 
8 1:-0.78101576 2:-0.55660106 3:-0.73707474 4:-0.088418384 5:-0.018094199 6:-0.029790436 
8 1:0.73824341 2:0.67991449 3:0.74780856 4:-0.33727697 5:-0.53904473 6:-0.49717893 
0.8373739102120931 1:0.6110163 2:-0.0060457734 3:0.79202889 4:0.96306453 5:1.3894041 6:0.3309939 
8 1:-0.141313 2:-0.48252926 3:-0.37279828 4:0.20129303 5:0.0016381823 6:-0.41855933 
6.29901167785908 1:-0.037042575 2:-0.16525546 3:1.0799917 4:0.26184684 5:0.21015934 6:-0.78831109 
8 1:-0.33075093 2:-0.4001789 3:-0.16965362 4:-0.7513795 5:-1.1408041 6:-0.96735041 
8 1:-0.44238198 2:-0.36580451 3:-0.1703753 4:-0.8125442 5:-0.66644388 6:-0.60679799 
8 1:-0.22985915 2:-0.027521172 3:-0.3252172 4:-0.28267928 5:-0.22027281 6:-0.039144391 
8 1:-0.78101576 2:-0.27627532 3:-0.72937121 4:0.69244322 5:0.43269676 6:0.37127002 
7.88646488265075 1:0.85483684 2:0.59804526 3:0.56010211 4:-0.022519346 5:-0.011595042 6:0.43172284 
0.2689940877817632 1:0.36304786 2:-0.0049002152 3:-0.022474211 4:-2.273548 5:1.2175287 6:1.1403815 
8 1:-0.28824637 2:-0.36122228 3:-0.49093377 4:0.9650499 5:0.78991551 6:0.99512465 
2.210432219717487 1:0.16734284 2:0.21275585 3:-0.0340564 4:1.8022655 5:0.97361458 6:1.3047328 
8 1:-0.39566165 2:-0.46082475 3:-0.5293524 4:-0.24824073 5:0.40333309 6:0.29156814 
8 1:-0.19117065 2:0.06406239 3:-0.082585559 4:-0.48625614 5:-0.52518509 6:-0.78034863 
8 1:0.4759459 2:0.03068846 3:0.235348 4:-0.67517181 5:-0.76604543 6:-0.62171794 
8 1:0.38597438 2:0.3803892 3:0.71405961 4:-0.55811129 5:-0.11816556 6:-0.31071829 
8 1:-0.74326468 2:-0.6933578 3:-0.59752246 4:0.10927873 5:0.48241923 6:0.5126616 
0.2060256365875576 1:0.27609299 2:0.22864092 3:-0.71849089 4:1.8728225 5:1.6354324 6:1.7417403 
8 1:0.27903422 2:0.39092834 3:-0.19726126 4:-0.4899978 5:-0.87754904 6:-0.59929937 
3.111131114200589 1:0.19524684 2:1.0515336 3:0.48666098 4:-0.36201775 5:-0.33201133 6:-0.29865864 
8 1:-0.30874449 2:-0.31517084 3:-0.24917946 4:0.74024484 5:0.68248365 6:0.68505266 
8 1:-0.32072058 2:-0.78884389 3:-0.734918 4:0.51918144 5:0.60699946 6:0.81059664 
8 1:-0.66435445 2:-0.78884389 3:-0.73707474 4:0.082399864 5:-0.041271917 6:0.028497841 
3.02154161649387 1:2.0022942 2:2.050384 3:1.3459504 4:-0.02702461 5:-0.73903086 6:-0.937124 
3.020819032391754 1:1.6059067 2:0.67930353 3:0.20216507 4:0.86891213 5:1.1592712 6:0.3653175 
8 1:0.40022804 2:0.24964282 3:-0.38475546 4:-0.49373946 5:-0.82015287 6:-0.65186705 
8 1:0.31372567 2:-0.076894731 3:-0.0079699429 4:-1.0103177 5:-1.2493322 6:-1.2258597 
8 1:-0.78101576 2:-0.68323106 3:-0.73527346 4:-0.14629958 5:0.099125544 6:0.029966643 
4.659166366170005 1:0.24554943 2:1.2081696 3:1.8214074 4:-1.4202967 5:-1.1952247 6:-1.1636288 
8 1:-0.40957593 2:-0.78884389 3:-0.36013358 4:0.16005841 5:0.39785188 6:-0.066510505 
8 1:-0.33115064 2:-0.78884389 3:-0.73707474 4:-1.0725514 5:-1.1286671 6:-1.0596531 
0.06123106118347801 1:-0.046205642 2:0.039700185 3:0.79613254 4:3.5751252 5:3.857048 6:3.3930611 
0.2132572911471048 1:-0.61097487 2:3.3343256 3:-0.35702046 4:0.44694448 5:0.37467416 6:0.43945338 
8 1:-0.19098965 2:-0.36026001 3:0.1064369 4:-0.81200967 5:-0.84403531 6:-0.83624044 
8 1:0.056631876 2:0.073990561 3:0.11018678 4:-1.0370438 5:-1.2387612 6:-0.48310934 
8 1:-0.026884014 2:-0.056962018 3:-0.1831249 4:0.1083624 5:1.735817 6:1.3676594 
8 1:0.26025559 2:0.44156201 3:0.35647633 4:0.79636974 5:0.65202374 6:-0.14729466 
0.1506379623931839 1:-0.07018045 2:-0.10969588 3:-0.4159644 4:6.9568989 5:5.4283563 6:6.1018425 
8 1:-0.38243365 2:-0.47661054 3:-0.49967879 4:0.050023048 5:-0.1241949 6:-0.020900315 
0.500243710870492 1:0.31357484 2:0.47669246 3:-0.73707474 4:-0.0030474403 5:0.13804219 6:0.18535051 
2.331015192386854 1:-0.3702841 2:0.4662297 3:0.2393809 4:-1.1349379 5:-0.85726854 6:0.5926727 
3.416302859185898 1:-0.78101576 2:-0.43880712 3:-0.7366677 4:0.14700077 5:0.098890634 6:0.34228049 
8 1:-0.39086518 2:-0.36067241 3:-0.59435982 4:1.5591339 5:1.2069578 6:1.191635 
3.452957634073165 1:-0.24147324 2:0.036798104 3:0.33426004 4:1.1544237 5:0.65664363 6:0.93760943 
8 1:-0.30016212 2:-0.12677234 3:-0.16825272 4:-0.42150251 5:-0.87935001 6:-0.85881362 
8 1:0.25263856 2:0.025648004 3:0.62413314 4:-0.90287857 5:-0.90323246 6:-1.0474388 
8 1:-0.778155 2:-0.55282071 3:-0.72510342 4:2.0334848 5:2.0881809 6:1.8762517 
8 1:-0.028528087 2:-0.10759569 3:-0.18102355 4:1.1121964 5:1.3118057 6:1.7033195 
2.500231993532219 1:0.70958526 2:1.3410543 3:0.78983556 4:0.56507404 5:0.35267099 6:-0.25529031 
8 1:-0.34775728 2:-0.66917888 3:-0.27378012 4:-0.32139401 5:-0.43153458 6:-0.0085314495 
8 1:-0.77567215 2:-0.78884389 3:-0.42773054 4:1.7084949 5:1.6137424 6:1.8583168 
8 1:-0.78101576 2:-0.78884389 3:-0.36539049 4:0.33041849 5:0.33497449 6:0.37668139 
8 1:-0.26516147 2:0.029924755 3:0.13410113 4:-0.063295807 5:-0.058107084 6:0.084776177 
8 1:0.022392925 2:-0.058359599 3:-0.060680576 4:-0.68593863 5:-0.51594532 6:-0.4810994 
8 1:0.2537698 2:0.63225927 3:0.52331079 4:-0.40813944 5:-0.67638837 6:-0.8541753 
8 1:-0.48221681 2:-0.58420901 3:-0.5267487 4:1.0630967 5:1.14087 6:1.2873391 
8 1:0.0075359353 2:-0.16469795 3:0.20273109 4:-0.36262863 5:-0.45064053 6:-0.090165959 
8 1:-0.78101576 2:-0.78884389 3:-0.3160689 4:-0.66982658 5:-0.63285185 6:-0.27206558 
8 1:-0.35348137 2:-0.15796207 3:-0.043091498 4:0.44770809 5:0.34249158 6:0.70182794 
8 1:-0.49963041 2:-0.78884389 3:-0.46626944 4:-0.50091734 5:-0.54609201 6:-0.42296574 
2.163759654551002 1:0.10768864 2:0.60384942 3:0.10537561 4:-0.983057 5:-1.2504284 6:-0.1607458 
3.832065907527926 1:0.55875288 2:2.2636869 3:1.7362921 4:-0.68601499 5:-0.86807437 6:-0.67706861 
3.370466240636911 1:0.82263413 2:0.677547 3:1.1870403 4:0.95581029 5:0.42572778 6:0.89408648 
8 1:0.34781379 2:0.24826815 3:0.083937591 4:-0.78810886 5:-0.4928459 6:-0.66168483 
8 1:-0.78101576 2:-0.78884389 3:-0.36108166 4:-0.28596278 5:-0.30162973 6:-0.31991763 
8 1:-0.48706607 2:-0.78868196 3:-0.47537529 4:1.4141255 5:1.5599482 6:1.3724523 
8 1:0.026691648 2:0.16792634 3:0.36928254 4:-1.1471555 5:-1.1319558 6:-1.3506306 
5.69894828294563 1:1.2795808 2:1.0693279 3:0.75304425 4:-0.24297186 5:0.3278489 6:0.77828298 
0.09386407334653536 1:1.2971528 2:1.9490403 3:0.058466681 4:0.4899354 5:-0.086374504 6:-0.17860334 
0.3070979734514305 1:2.5764377 2:1.8105041 3:2.8226264 4:0.74207749 5:0.84582392 6:2.2675716 
8 1:-0.55276866 2:-0.54085345 3:-0.52904109 4:-1.2466532 5:-1.2139392 6:-1.2501336 
2.09971551781709 1:0.23589616 2:0.22291313 3:0.19310874 4:1.3841159 5:0.75491402 6:1.1758647 
4.543984103601155 1:1.737885 2:0.51503048 3:0.64663245 4:-0.50374268 5:-0.73746479 6:-0.46494257 
8 1:-0.26943003 2:-0.29274081 3:-0.40039176 4:0.45916215 5:0.64709065 6:0.7141968 
8 1:0.2514319 2:0.10346959 3:0.17655265 4:-0.88653744 5:-1.0287523 6:-0.90249118 
8 1:0.0039159581 2:-0.25482283 3:-0.36422307 4:1.3442557 5:1.1944293 6:0.95082865 
0.3186855063546895 1:0.63379199 2:-0.64239573 3:0.1178988 4:1.0075826 5:1.0548932 6:0.72223656 
3.631427324865297 1:0.20286387 2:0.80478034 3:0.93905265 4:1.3257001 5:-0.25394314 6:0.0037601103 
8 1:0.6902033 2:0.7351304 3:0.69148955 4:-0.24633172 5:-0.26498388 6:-0.25861444 
8 1:0.77542359 2:0.95965981 3:0.49118914 4:-0.54146472 5:-0.50670555 6:-0.50506408 
8 1:0.55173917 2:0.94934978 3:1.0257245 4:-0.6182833 5:-0.68038183 6:-0.52292163 
8 1:-0.19454175 2:0.046649905 3:-0.15118013 4:-0.34193496 5:0.07226758 6:0.15976242 
0.1532305731487526 1:-0.78028297 2:-0.2911523 3:-0.73707474 4:0.65395757 5:1.2248109 6:1.2339984 
0.4181919538645015 1:1.6608097 2:-0.090565059 3:-0.12694032 4:2.0779266 5:1.2249675 6:2.0416853 
8 1:-0.78101576 2:-0.48790575 3:-0.73707474 4:-0.49457943 5:-0.55266947 6:-0.5554672 
8 1:-0.78101576 2:-0.70576801 3:-0.3137836 4:0.32675319 5:0.31798271 6:0.16996674 
8 1:-0.61445156 2:0.012665011 3:0.22600867 4:-1.0821728 5:-1.1119885 6:-0.73713491 
6.536003923663174 1:0.36734658 2:1.4590468 3:0.79981167 4:-0.066655666 5:-0.044482345 6:0.021694965 
8 1:-0.27869113 2:-0.25064537 3:-0.33158493 4:0.40716071 5:0.3126581 6:0.39430703 
8 1:0.10783947 2:0.17082842 3:0.16204838 4:0.30521955 5:0.5070847 6:0.42221428 
6.818899283505608 1:-0.43817375 2:-0.70282011 3:-0.38786857 4:1.1298357 5:1.2638059 6:1.4039929 
8 1:-0.07008995 2:0.20695169 3:-0.10406603 4:-0.7099158 5:-0.7502282 6:-0.64560531 
8 1:-0.12280587 2:-0.41594942 3:-0.45875553 4:0.79804967 5:0.48132298 6:0.53917736 
8 1:0.36531035 2:0.17220309 3:-0.083646847 4:-0.10231598 5:-0.59260406 6:-0.63331375 
8 1:-0.78101576 2:-0.50432541 3:-0.73707474 4:-0.10109421 5:-0.016214925 6:0.0058473562 
0.5338287058995025 1:-0.1978676 2:0.61965813 3:0.38322078 4:-2.273548 5:0.84660695 6:1.3740758 
0.1949347186107563 1:0.64050403 2:0.34342586 3:-0.23654306 4:2.0204272 5:1.5731814 6:1.6618065 
8 1:-0.78101576 2:-0.50155316 3:-0.73707474 4:-0.23067784 5:-0.40647758 6:-0.3538547 
2.965185526095745 1:0.42134458 2:0.7620892 3:1.3980243 4:-1.165253 5:-0.50380834 6:-0.062026791 
8 1:-0.25528195 2:-0.058138124 3:-0.25490334 4:0.074840183 5:0.11674374 6:0.10070109 
8 1:0.43770989 2:-0.069005653 3:-0.16869139 4:-0.37751891 5:-0.33349909 6:-0.37310375 
8 1:0.21983251 2:0.046115311 3:-0.19171426 4:-0.066808386 5:-0.040410583 6:0.43721153 
8 1:1.162007 2:1.1253839 3:0.67436744 4:0.071327604 5:0.23349367 6:0.11005504 
8 1:-0.34203319 2:-0.78884389 3:-0.73707474 4:0.89731821 5:0.86062321 6:0.89501415 
4.819463023769393 1:2.810077 2:2.002576 3:0.60665727 4:0.26833747 5:0.14430643 6:0.13401972 
8 1:-0.42768336 2:-0.45036199 3:-0.063128614 4:-0.0067891006 5:-0.4877562 6:-0.06558284 
8 1:0.26553473 2:-0.16905871 3:0.039221993 4:-0.46617335 5:-0.50302531 6:-0.54294373 
8 1:-0.5136729 2:0.37886179 3:-0.04860312 4:-0.28527553 5:-0.42033723 6:-0.34836602 
0.6336755207895532 1:8.1908714 2:1.1128591 3:-0.21656962 4:-1.1205821 5:-0.65328896 6:-0.8313702 
8 1:-0.4931597 2:-0.32965833 3:-0.16564903 4:-1.0681989 5:-1.0126219 6:-1.0921213 
1.639418579403449 1:0.30656113 2:0.17945829 3:0.25360215 4:-0.09132008 5:-0.46567473 6:-0.63223147 
8 1:0.057687702 2:0.041074855 3:0.26662062 4:0.18678455 5:0.25267793 6:-0.1550252 
8 1:0.30603322 2:-0.27609203 3:-0.33681354 4:-0.4899978 5:-0.4345884 6:-0.26742726 
1.694912097912383 1:0.20557885 2:1.7866001 3:3.1954923 4:-0.81995116 5:-0.91372508 6:-1.1603047 
0.06993340252963731 1:0.43808697 2:1.3179904 3:0.23343768 4:0.76697098 5:-0.2830719 6:-0.59180075 
8 1:-0.45455415 2:-0.78644341 3:-0.73707474 4:0.23130267 5:0.57685277 6:0.41749865 
0.4323560045924244 1:3.8013474 2:2.4017649 3:2.881068 4:-1.0882817 5:-0.28017468 6:0.88674247 
8 1:-0.5438243 2:-0.27902466 3:-0.39829041 4:0.92770965 5:0.63518858 6:0.95786344 
8 1:0.24170321 2:0.24559518 3:0.16445397 4:-0.886232 5:-0.79775818 6:-0.70683119 
8 1:-0.13137315 2:0.61690879 3:-0.019502605 4:-1.0846927 5:-0.78859672 6:-0.82572691 
8 1:-0.39571444 2:-0.25893157 3:-0.29548699 4:-0.94693852 5:-0.80551019 6:-0.65859262 
8 1:-0.78101576 2:-0.64897887 3:-0.65722344 4:0.2187032 5:0.077983706 6:0.036769519 
3.119598055700231 1:-0.32940852 2:0.60194016 3:-0.57092658 4:0.46664547 5:0.36762688 6:0.1994974 
8 1:-0.29324646 2:-0.4559905 3:-0.25830654 4:-0.70159251 5:-0.84536647 6:-0.74973569 
0.886625884579866 1:0.46531222 2:0.66318934 3:0.31423707 4:0.48229935 5:-0.055209869 6:-2.2966169 
8 1:-0.78101576 2:-0.64208261 3:-0.73707474 4:0.095228413 5:0.15378111 6:0.020303467 
8 1:-0.78101576 2:-0.60715072 3:-0.73707474 4:0.021235172 5:0.10726907 6:0.10046917 
0.1111783257196926 1:-0.16068742 2:-0.33627202 3:-0.56541496 4:5.4739797 5:5.2449705 6:6.3492198 
8 1:-0.57060459 2:-0.36997435 3:-0.46431667 4:-0.75741198 5:-0.90777404 6:-0.84830009 
8 1:-0.47265404 2:-0.78884389 3:-0.73707474 4:-0.65615807 5:-0.65047005 6:-0.65642807 
0.2021564986656983 1:1.1241481 2:-0.78884389 3:0.84339523 4:2.1560433 5:1.7615787 6:1.500702 
8 1:-0.78101576 2:-0.78884389 3:-0.3496905 4:0.60096344 5:0.49158069 6:0.53075107 
8 1:-0.4592375 2:-0.43889113 3:-0.49345964 4:-1.090267 5:-1.058899 6:-1.2386924 
7.452819045918451 1:0.32601851 2:0.7685807 3:0.7265828 4:-1.0463598 5:-1.419798 6:-1.2748713 
8 1:-0.11394447 2:-0.32085281 3:-0.20581524 4:-0.40798672 5:-0.21886335 6:-0.63725632 
0.3086675216630051 1:0.68763915 2:0.7483425 3:0.40579084 4:5.546522 5:5.4986725 6:4.8565297 
8 1:-0.48256372 2:-0.78884389 3:-0.52142811 4:-0.29413334 5:-0.32950563 6:-0.24408102 
8 1:-0.39817301 2:-0.2518062 3:-0.067479894 4:-0.7319076 5:-0.88342177 6:-0.33607446 
8 1:-0.34879803 2:-0.27911631 3:-0.25396941 4:0.38448166 5:0.55539772 6:0.59908905 
3.059572738759898 1:2.0755233 2:1.4860056 3:0.0066758305 4:-0.1574482 5:-0.52675115 6:0.056559703 
8 1:-0.78101576 2:-0.58218519 3:-0.39618906 4:-0.54199925 5:-0.64874738 6:-0.23441785 
0.1239002383396134 1:-0.78101576 2:-0.78884389 3:0.7347901 4:3.2289071 5:3.3947465 6:3.8381083 
1.207752836257614 1:0.91351064 2:0.3777926 3:-0.3740223 4:0.79453709 5:0.81559892 6:1.1175764 
8 1:-0.56133594 2:-0.78884389 3:-0.5070229 4:1.658937 5:1.9336889 6:1.8222152 
7.488735533020376 1:-0.78101576 2:-0.28406512 3:-0.53022973 4:0.8587562 5:1.0570074 6:0.54884054 
4.433594180954764 1:-0.37574423 2:0.29286855 3:1.0013149 4:0.1560113 5:0.011660979 6:0.064135633 
1.131765329587233 1:-0.77435266 2:1.1227873 3:1.9486205 4:-0.53955571 5:0.05433617 6:0.43125901 
3.207381894250068 1:1.1673615 2:1.6237017 3:0.73436558 4:0.2667339 5:-0.17164658 6:-0.14714004 
8 1:-0.78101576 2:-0.78884389 3:-0.46798165 4:0.77185805 5:0.66932873 6:0.75547789 
8 1:-0.038754523 2:-0.1611009 3:-0.14159317 4:-0.21067141 5:-0.161937 6:-0.12387112 
0.1833951711926839 1:-0.23473858 2:-0.090740711 3:-0.14574634 4:4.9422821 5:5.5323429 6:6.7365199 
8 1:-0.78101576 2:-0.78884389 3:-0.32778552 4:-0.20738791 5:-0.29888912 6:0.087791088 
8 1:0.071564282 2:-0.11837921 3:-0.23650061 4:1.1191452 5:1.5097559 6:1.3783276 
5.455216673143982 1:0.38461689 2:0.5064006 3:0.57637519 4:0.73161611 5:1.1888698 6:1.8662793 
8 1:-0.18052942 2:-0.27093702 3:-0.1515056 4:1.477581 5:1.2967715 6:0.83649395 
8 1:0.28091963 2:0.43445955 3:0.46925586 4:-0.34560026 5:-0.60254855 6:-0.45759856 
8 1:-0.4369143 2:-0.55658578 3:-0.50567153 4:-0.62294129 5:-0.70324634 6:-0.58677589 
0.1715556284076766 1:1.5727236 2:-0.78884389 3:1.4050288 4:1.8651865 5:1.8246127 6:1.8301004 
8 1:-0.78101576 2:-0.50473782 3:-0.73707474 4:-0.35453443 5:-0.32167532 6:-0.016184685 
0.2645762115155084 1:0.13996677 2:2.3338715 3:-0.41503046 4:-0.57712504 5:-0.727442 6:-2.2966169 
8 1:0.11070528 2:0.31623794 3:0.29074723 4:0.82447037 5:0.78004932 6:0.7557098 
0.2956899527166569 1:0.87587796 2:0.39512872 3:3.0562513 4:3.6991345 5:3.8200106 6:2.8642921 
8 1:-0.45157521 2:-0.7852667 3:-0.73604374 4:0.45114431 5:0.24727501 6:0.52526239 
8 1:-0.78101576 2:-0.21373548 3:-0.73707474 4:-0.29604235 5:-0.38564896 6:-0.22575964 
8 1:-0.12751938 2:-0.05215831 3:-0.10459667 4:-0.76336809 5:-0.62353378 6:-0.46262341 
0.3394855894600456 1:0.67278216 2:1.7120624 3:5.1840628 4:1.2736223 5:1.5141409 6:0.2681446 
8 1:-0.25825335 2:-0.78884389 3:-0.73707474 4:2.1044236 5:2.0261649 6:2.0719117 
0.4142164048100218 1:0.75181833 2:1.0824636 3:1.116217 4:-0.77879289 5:-0.48039571 6:0.39013253 
8 1:-0.69222828 2:-0.43794413 3:-0.72291363 4:0.10950781 5:0.19277605 6:0.45785207 
8 1:-0.37723747 2:-0.16449939 3:-0.55633741 4:-0.10086513 5:0.0023429102 6:-0.048807567 
8 1:-0.51618426 2:-0.78884389 3:-0.48661787 4:-0.37675531 5:-0.23475888 6:-0.21053048 
0.1226427111502392 1:1.1336505 2:2.1877746 3:2.8908319 4:0.28345684 5:0.94918401 6:0.41811709 
8 1:-0.78101576 2:-0.78884389 3:-0.30314949 4:0.26077779 5:0.32181956 6:0.3153009 
0.886431694439145 1:0.42933869 2:1.346553 3:0.4452 4:1.9261221 5:0.51554144 6:0.64245738 
8 1:-0.39658927 2:-0.78884389 3:-0.51602262 4:-0.2425137 5:-0.14713771 6:-0.13902298 
8 1:-0.17328947 2:-0.45876275 3:-0.72927994 4:0.0051994845 5:-0.065467576 6:-0.040072056 
8 1:0.33393721 2:0.1324904 3:0.48814678 4:-0.74152901 5:-0.73041751 6:-0.43904526 
5.874377597968639 1:0.16010289 2:0.18640801 3:0.26428579 4:0.9064051 5:1.3249606 6:1.243275 
0.6954468278187915 1:1.8721258 2:1.8146281 3:1.2970604 4:0.98505632 5:0.9614776 6:1.1886201 
8 1:-0.091990812 2:0.072997744 3:-0.18337961 4:0.55392542 5:0.4388044 6:0.54675329 
3.625796508866524 1:1.5349401 2:1.5755119 3:1.3738977 4:0.43304689 5:0.25369587 6:0.36632247 
0.3551185840549341 1:1.4567335 2:1.6473766 3:3.1981101 4:-2.273548 5:2.8317472 6:0.43929877 
0.354172541537173 1:-0.46511996 2:-0.52236414 3:9.6252698 4:0.72176561 5:0.5927483 6:-0.46749365 
8 1:-0.10592018 2:-0.55852559 3:-0.48131851 4:-1.0717114 5:-0.83690973 6:-0.96077945 
6.503284837482926 1:-0.49551268 2:-0.27719177 3:0.021604614 4:0.81461988 5:0.67089479 6:0.32303144 
2.906387065686558 1:1.9168476 2:0.2924867 3:0.25629075 4:-0.80727533 5:-0.85930442 6:-0.74254629 
8 1:-0.78101576 2:-0.78800832 3:-0.47448381 4:0.46038392 5:0.3403774 6:0.050993714 
4.456648223452376 1:0.40867466 2:1.6637963 3:1.8319496 4:-0.34246948 5:-0.25237708 6:-0.3537774 
7.68062348096886 1:0.20414595 2:0.07941287 3:-0.098299695 4:0.76689462 5:0.88489717 6:0.71574291 
8 1:-0.087714714 2:-0.27628296 3:-0.22055299 4:0.22687377 5:0.034368879 6:-0.0042023467 
8 1:0.18702647 2:0.0028895807 3:0.050542398 4:-0.092083684 5:-0.14776414 6:-0.14188328 
4.207255191907225 1:1.3484358 2:0.67128462 3:-0.10453299 4:-1.0659844 5:-0.93048194 6:-0.9714476 
8 1:-0.4537472 2:-0.35114901 3:-0.46788968 4:0.039867113 5:0.39448484 6:0.27711203 
8 1:-0.47513523 2:-0.38023091 3:-0.57469769 4:-0.98458421 5:-0.79689685 6:-0.94307651 
0.2041738651421073 1:0.14615089 2:0.12492972 3:0.29782248 4:2.8845216 5:4.9806975 6:4.8688213 
8 1:0.049391921 2:0.18144392 3:0.048278317 4:0.31995711 5:0.85334102 6:1.4437279 
2.470830991664041 1:0.40505468 2:0.68296931 3:0.95235412 4:2.5780109 5:2.0249903 6:1.3780183 
8 1:-0.091455357 2:-0.0064276261 3:-0.12050891 4:-0.33185539 5:0.01596765 6:0.2438707 
8 1:-0.43634868 2:-0.46658309 3:-0.20110312 4:0.76376384 5:0.8047931 6:0.4139426 
8 1:-0.43830196 2:-0.47502967 3:-0.35783412 4:0.71283145 5:0.59689836 6:0.76251268 
8 1:-0.40243402 2:-0.7865417 3:-0.4852948 4:-0.48442349 5:-0.48227499 6:-0.46494257 
0.03420347173499073 1:2.5878255 2:2.2504748 3:2.081989 4:1.226508 5:1.6012139 6:1.7645454 
8 1:-0.23955767 2:-0.5084036 3:-0.60263079 4:-0.057492416 5:-0.30155143 6:-0.012242109 
0.3053593827027122 1:4.9546872 2:3.3901525 3:1.6535117 4:0.75887678 5:-0.67607516 6:0.39090559 
8 1:-0.2835404 2:-0.78382131 3:-0.33424523 4:-1.0375783 5:-0.95091905 6:-1.2320441 
5.701744200067951 1:0.18046526 2:0.94339288 3:0.58161087 4:0.69855205 5:0.64787368 6:0.71821668 
8 1:0.71109358 2:0.68220561 3:0.62469916 4:-0.10750849 5:-0.52855212 6:-0.78228127 
8 1:-0.77524174 2:0.075365231 3:-0.73380463 4:-0.68357146 5:-0.59346539 6:-0.6483883 
0.2512906921806507 1:0.99518637 2:1.3935973 3:2.1489209 4:1.8227301 5:2.4699086 6:2.9847339 
8 1:-0.34557021 2:-0.44086913 3:-0.2124589 4:0.30017977 5:0.077357282 6:0.18024835 
0.2923556026080847 1:-0.58612524 2:-0.6526752 3:-0.46644632 4:4.1461484 5:6.2472502 6:6.0338138 
8 1:1.1856877 2:1.5416034 3:2.1283319 4:-0.79444678 5:-0.75163765 6:-0.63949818 
8 1:-0.44915435 2:-0.35927483 3:-0.23383324 4:0.39952467 5:0.53245491 6:0.74086717 
0.1116692020597344 1:-0.17403609 2:-0.78884389 3:-0.73707474 4:0.87211927 5:1.5066238 6:1.3043463 
0.1923735816979397 1:0.83311698 2:0.84716599 3:0.11761579 4:2.4040619 5:2.9416064 6:0.045041198 
8 1:-0.77503948 2:-0.78842269 3:-0.51264065 4:0.86944666 5:1.5240071 6:1.2510055 
8 1:0.13551721 2:-0.016203056 3:-0.051143135 4:-0.62744655 5:-0.36724773 6:-0.13121513 
8 1:-0.78101576 2:-0.61467322 3:-0.73166218 4:0.53720249 5:0.24891938 6:0.31839312 
0.9467163549651303 1:1.2792038 2:-0.043100763 3:0.26364901 4:-2.273548 5:-0.93580655 6:-2.2966169 
2.686218326252582 1:3.4977218 2:-0.17333546 3:0.28947369 4:-1.1138624 5:-1.0235843 6:-0.57409781 
8 1:0.37594403 2:1.001129 3:0.73578063 4:-1.0439163 5:-1.050364 6:-0.99935485 
0.5358220186363404 1:2.6231203 2:1.2426891 3:-0.30596544 4:0.71687855 5:1.5810117 6:1.4996197 
8 1:0.45068147 2:-0.15392207 3:-0.13007466 4:-1.367608 5:-1.5089853 6:-1.499057 
7.727968289746008 1:0.15497459 2:0.16479514 3:-0.7188022 4:-0.52749077 5:-0.42926379 6:-0.51155773 
8 1:-0.25042515 2:-0.78884389 3:-0.41622618 4:0.39043778 5:0.37624022 6:0.48993382 
8 1:-0.047261469 2:0.029466531 3:-0.026507105 4:0.064455166 5:0.25346096 6:-0.027007442 
8 1:0.28634959 2:0.066124395 3:0.052311211 4:0.85814532 5:0.7771521 6:1.3602381 
8 1:-0.77932621 2:-0.37240293 3:-0.73509672 4:0.61829725 5:0.6509275 6:0.36477636 
0.05392355078437784 1:0.27609299 2:0.17205034 3:-0.028346671 4:4.6610467 5:5.2647812 6:5.3344318 
0.4598072508668224 1:4.9478244 2:4.2329779 3:2.5556772 4:0.61050849 5:0.85451556 6:-0.098669554 
3.92925064750874 1:-0.31455153 2:1.0164031 3:1.7063638 4:-0.53741762 5:-0.6694194 6:-0.81838289 
5.666468978386529 1:1.5973092 2:0.67731789 3:0.94527887 4:-1.3327113 5:-1.1587355 6:-1.1227343 
8 1:0.054520222 2:-0.14210754 3:-0.11625669 4:-0.74015452 5:-0.82727845 6:-0.13600807 
8 1:0.96946945 2:0.67945627 3:0.55338062 4:-0.49526667 5:-0.29090221 6:-0.11529022 
0.698075581533487 1:0.088005011 2:0.90956073 3:4.1311945 4:0.051321175 5:0.39370181 6:0.33949749 
8 1:-0.093793259 2:-0.39512317 3:-0.28691886 4:0.67381127 5:0.72445411 6:0.55425191 
8 1:-0.17578574 2:-0.32591618 3:-0.48216754 4:0.47000533 5:0.82530851 6:0.70963578 
6.77078867714818 1:-0.0044552391 2:-0.068891097 3:-0.23889204 4:-0.18470887 5:0.5271303 6:0.28901706 
6.548662961523414 1:0.39577849 2:1.5450401 3:1.2458356 4:0.60378877 5:0.35940505 6:0.54033694 
1.554916234931827 1:0.082348797 2:0.39421227 3:1.2271569 4:1.5695953 5:0.69689142 6:0.73383237 
8 1:0.21870127 2:0.50380401 3:0.22105599 4:-0.057874218 5:0.42008996 6:0.23196567 
8 1:0.28989415 2:0.17212672 3:0.27758726 4:-0.46006452 5:0.40536897 6:0.28012694 
7.687030662046882 1:0.51825438 2:0.15501971 3:0.079621687 4:0.56744122 5:0.70722743 6:0.8785481 
8 1:-0.047344427 2:-0.068921646 3:0.18546747 4:-0.69861446 5:-0.73448928 6:-0.72917245 
8 1:-0.40106145 2:-0.74422669 3:-0.63914617 4:0.31491733 5:0.42134281 6:0.36717283 
0.2221912217226214 1:0.53906925 2:0.35969278 3:-0.026507105 4:8.0725246 5:8.2768666 6:8.1906346 
8 1:-0.4169441 2:-0.78884389 3:-0.73707474 4:-1.0172665 5:-1.069235 6:-0.96765963 
8 1:0.87482213 2:0.54741159 3:0.42079038 4:-0.030766271 5:-0.059986359 6:-0.26734995 
8 1:-0.29253755 2:-0.19038137 3:-0.36000622 4:-0.053139872 5:0.32471678 6:0.15272763 
8 1:-0.27486753 2:-0.027337882 3:-0.083696374 4:-1.1454756 5:-1.2528558 6:-1.1615416 
8 1:-0.14735384 2:0.086209849 3:-0.00032866982 4:-0.79482858 5:-0.61593838 6:-0.8056275 
8 1:-0.31793772 2:-0.33561524 3:-0.25661555 4:0.45580229 5:0.9083098 6:0.77758723 
2.014385420780659 1:0.77014446 2:0.45775257 3:-0.029959829 4:-0.71060304 5:-0.79916764 6:-0.19305946 
0.3541289839430761 1:21.524454 2:16.150755 3:19.469069 4:0.4280071 5:-0.62697912 6:-1.0518452 
8 1:-0.68611957 2:0.50617149 3:-0.12006317 4:-0.94480043 5:-1.1015742 6:-1.1718232 
4.000773091581504 1:0.38054442 2:0.02648808 3:0.11676676 4:0.070945801 5:0.40732655 6:2.2103656 
8 1:-0.78101576 2:-0.29431404 3:-0.73707474 4:-0.083454957 5:0.13162133 6:-0.10346249 
0.8470366656311551 1:0.52210061 2:0.46256391 3:1.0163144 4:-0.20723519 5:1.0009424 6:1.3699786 
0.6745522404289636 1:1.1222627 2:3.9999713 3:1.8675381 4:0.26123595 5:0.48719572 6:0.62050265 
0.6229942561111691 1:3.490859 2:2.0510713 3:-0.0042200589 4:0.12653618 5:-0.02796039 6:-0.45350137 
1.387963391605518 1:0.011306745 2:0.97508666 3:1.5102378 4:-0.6032403 5:-0.39575006 6:0.14236871 
1.031759231098914 1:0.065530986 2:0.21764356 3:0.21221192 4:-0.016105071 5:-0.5381834 6:-0.84629015 
8 1:-0.57026521 2:-0.78884389 3:-0.5265506 4:-0.34949464 5:-0.38298665 6:-0.44484317 
8 1:-0.78101576 2:-0.40859493 3:-0.73544383 4:0.29597994 5:0.38414883 6:0.4839813 
8 1:0.084988364 2:-0.18359966 3:0.062145812 4:-0.26702539 5:-0.3186215 6:-0.37751016 
8 1:0.39411933 2:0.38313854 3:0.28119564 4:0.21992497 5:0.029435783 6:0.087404561 
8 1:-0.78101576 2:-0.5080523 3:-0.73357249 4:0.010086551 5:0.074929885 6:0.014273646 
8 1:-0.3080582 2:-0.78884389 3:-0.46643925 4:-0.11361732 5:0.16239445 6:-0.27979612 
3.867511669567101 1:1.4980615 2:1.8819105 3:1.0990949 4:0.058499054 5:0.062871208 6:-0.58747164 
1.111954574202781 1:-0.1724071 2:-0.10563297 3:-0.32555682 4:0.96963152 5:1.1737573 6:1.4476705 
8 1:0.43921821 2:0.82723328 3:0.64578342 4:-0.90371853 5:-0.6468681 6:-0.34442344 
8 1:-0.22406719 2:-0.2989421 3:-0.31980464 4:-0.18570155 5:-0.12991103 6:0.088409531 
1.607497529005206 1:-0.12064896 2:-0.43537045 3:-0.47909688 4:4.4199769 5:3.1508323 6:3.2514376 
8 1:-0.6146401 2:-0.612237 3:-0.65791682 4:1.0634021 5:1.2724192 6:1.1625682 
8 1:0.16379828 2:0.40536237 3:0.37557951 4:-1.0975213 5:-1.3797068 6:-1.1148491 
8 1:-0.49129692 2:-0.78884389 3:-0.73707474 4:1.4490222 5:1.5352827 6:1.570818 
8 1:-0.4684609 2:-0.6543019 3:-0.16893194 4:-1.246195 5:-1.3471327 6:-1.3126737 
1.729108922593987 1:0.017717121 2:-0.46927897 3:0.79443448 4:1.5221755 5:1.8766843 6:1.0748265 
8 1:1.0264841 2:0.88168548 3:0.74540298 4:0.058269973 5:-0.22794651 6:-0.56791337 
0.2767820201301932 1:-0.78101576 2:1.6057546 3:-0.73707474 4:0.57736807 5:1.8891344 6:1.8110832 
0.280636659728756 1:-0.45760097 2:0.18900461 3:0.37819736 4:5.2235939 5:3.6895577 6:2.9972574 
0.6220429227280614 1:0.21968168 2:-0.60718127 3:0.40784266 4:0.66495347 5:1.0629584 6:1.1672065 
0.3791608836677303 1:0.36810075 2:0.26613886 3:0.27843629 4:0.63532563 5:0.16568318 6:0.8528827 
8 1:-0.58172093 2:-0.78884389 3:-0.73707474 4:0.088890499 5:0.024346082 6:0.13023176 
8 1:0.35844747 2:0.21138118 3:0.18108081 4:-0.97649001 5:-1.2297564 6:-1.2124859 
8 1:-0.2107864 2:0.089493782 3:0.32534522 4:-0.85920041 5:-1.0625793 6:-0.93990699 
0.528328224158743 1:0.13280223 2:-0.78884389 3:0.46005803 4:2.4544598 5:2.0928008 6:1.6416298 
8 1:-0.78101576 2:-0.41832454 3:-0.73707474 4:-0.040005881 5:-0.075333767 6:-0.014020133 
8 1:0.65671851 2:0.72115459 3:0.22148051 4:-0.035195175 5:-0.61758274 6:-0.42543951 
8 1:0.9459396 2:0.60591143 3:1.1246365 4:-0.00037482579 5:-0.28440305 6:-0.30453385 
8 1:0.35543083 2:0.21451237 3:0.25614924 4:-0.046038354 5:-0.14525844 6:0.10549403 
8 1:0.36561201 2:0.087202666 3:-0.013842403 4:0.15341505 5:0.23599937 6:0.00059058857 
8 1:-0.14184846 2:-0.2046703 3:-0.4938134 4:1.2313187 5:1.4063175 6:0.59908905 
8 1:-0.77948949 2:-0.21306342 3:-0.73418153 4:-0.28642094 5:-0.5609696 6:-0.59875823 
8 1:-0.025873437 2:0.16326773 3:0.029316639 4:0.30392143 5:0.16842379 6:0.33717833 
8 1:-0.39569936 2:-0.78884389 3:-0.73707474 4:0.019555242 5:-0.076978132 6:0.05594126 
8 1:-0.71546325 2:-0.70912831 3:-0.44108862 4:0.14547357 5:0.17280876 6:0.27502478 
7.976903850767499 1:0.44185778 2:0.27263036 3:-0.010446281 4:1.1105165 5:1.4183762 6:1.5463895 
8 1:0.65769892 2:0.71374664 3:0.66283478 4:0.17479597 5:0.31156186 6:-0.17597496 
8 1:-0.41458357 2:-0.15626664 3:-0.20749207 4:0.07804732 5:0.24140228 6:0.18218099 
8 1:-0.4063632 2:-0.66554364 3:-0.6405966 4:-0.4074522 5:-0.26741127 6:-0.34086739 
1.977973061911946 1:1.698744 2:0.9687479 3:-0.43876086 4:-0.04909277 5:-0.28487287 6:-0.38021585 
1.245945582255651 1:3.1388162 2:3.1580624 3:1.7315517 4:-0.6337081 5:-1.0920995 6:0.35325786 
8 1:-0.3835121 2:-0.78884389 3:-0.40866981 4:-1.1336397 5:-1.1752574 6:-1.1351031 
8 1:-0.78101576 2:-0.43294186 3:-0.73707474 4:0.67869834 5:0.16427372 6:-0.26425774 
8 1:-0.57628343 2:-0.63119217 3:-0.43585293 4:0.8954092 5:1.1981879 6:0.93490374 
0.5011802210882683 1:0.95423538 2:0.88756601 3:0.70415425 4:0.61990082 5:0.27859625 6:0.4739316 
8 1:-0.77996461 2:-0.21309397 3:-0.73609277 4:-0.41165202 5:-0.53113612 6:-0.59605254 
8 1:-0.50765469 2:-0.47832888 3:-0.3858875 4:0.63043856 5:0.34671995 6:0.94734991 
1.288810924648298 1:4.0645499 2:4.8492118 3:2.9874798 4:-0.66654308 5:-0.40984462 6:-0.15842663 
8 1:-0.58018244 2:-0.60149166 3:-0.15396778 4:0.11790746 5:-0.097102029 6:0.26837652 
8 1:-0.48142494 2:-0.35589925 3:-0.15260226 4:0.42197463 5:0.45258574 6:0.3496245 
8 1:0.28808417 2:0.27828178 3:0.026486538 4:-0.23464858 5:-0.060377874 6:-0.60331925 
8 1:0.079407565 2:-0.39558903 3:-0.34127095 4:-0.17317844 5:-0.39324436 6:-0.44979071 
8 1:-0.23214426 2:-0.50104148 3:-0.34766698 4:0.46198748 5:0.85099193 6:-0.12874136 
8 1:-0.30668563 2:-0.40816726 3:-0.21260748 4:0.36065721 5:0.51640277 6:0.38789068 
8 1:-0.67774837 2:-0.78884389 3:-0.5001599 4:-0.27847946 5:-0.22872954 6:-0.17883526 
8 1:-0.0073964705 2:-0.11697399 3:-0.082925171 4:-0.4639589 5:-0.51774629 6:-0.52454504 
8 1:-0.58926255 2:-0.40957248 3:0.1079227 4:-0.31971408 5:-0.31799508 6:0.30509659 
4.036859697336435 1:1.4413486 2:0.50120741 3:0.87169624 4:-0.49855017 5:0.020196017 6:-1.0854731 
7.963582286913686 1:0.91954393 2:-0.00085257613 3:1.5337276 4:0.29651447 5:0.41045868 6:0.42167314 
8 1:0.008214681 2:-0.3020962 3:-0.40016536 4:0.13608124 5:0.11282859 6:0.11276073 
8 1:-0.73604659 2:-0.64051701 3:-0.28004171 4:-1.1848012 5:-1.2767383 6:-1.2075383 
3.208118424631986 1:1.5537941 2:1.4897478 3:1.9960954 4:0.25375263 5:0.35940505 6:-1.2012766 
8 1:-0.6842417 2:-0.78884389 3:-0.66573497 4:-0.48144544 5:-0.4648917 6:-0.43796299 
8 1:-0.77938504 2:-0.43533226 3:-0.73491127 4:1.9535355 5:2.2296746 6:1.7776873 
8 1:-0.17542374 2:-0.36841639 3:-0.57718111 4:-1.3016327 5:-1.4636478 6:-1.4016522 
8 1:-0.36118136 2:-0.48915822 3:-0.25230672 4:0.69045784 5:0.41625311 6:0.11848133 
8 1:0.055877714 2:0.35785989 3:0.29046422 4:-0.23525946 5:-0.46332563 6:-0.64382728 
8 1:-0.78101576 2:-0.78884389 3:-0.51012894 4:0.024747751 5:0.057155081 6:-0.12101082 
8 1:-0.25875864 2:-0.23171311 3:-0.13244487 4:-1.210382 5:-1.1234991 6:-1.0562516 
8 1:-0.67663221 2:-0.76851405 3:-0.36669234 4:0.35767916 5:0.54255601 6:0.2309607 
8 1:-0.17468467 2:-0.49797139 3:-0.26640063 4:-0.2050971 5:-0.38243853 6:-0.31342397 
2.496690521128536 1:-0.061628254 2:-0.18686832 3:0.3681505 4:0.14127374 5:0.49095426 6:-0.4511049 
4.748070267144969 1:0.74337171 2:0.7680461 3:1.271165 4:-1.374175 5:-1.3524574 6:-1.1290733 
8 1:-0.33250813 2:-0.14512418 3:-0.010870797 4:-1.5338676 5:-1.3331165 6:-1.4997528 
8 1:-0.48771465 2:-0.78695678 3:-0.73707474 4:0.22275031 5:0.3657476 6:0.29265042 
2.143617132493856 1:-0.20332774 2:-0.78884389 3:-0.21343528 4:1.6940628 5:0.80017321 6:0.25855873 
8 1:-0.7728693 2:-0.59063941 3:-0.73669943 4:0.31972803 5:0.4766248 6:0.44811159 
8 1:0.75694663 2:0.79103364 3:0.66991003 4:-1.3782221 5:-1.3029698 6:-1.300614 
8 1:0.010929664 2:0.47661609 3:0.60828458 4:-0.85118257 5:-0.80785928 6:-0.75383288 
8 1:-0.0012123428 2:0.1744942 3:-0.34359164 4:0.097671947 5:0.1208155 6:0.080756296 
8 1:0.45958059 2:0.54061461 3:0.3766408 4:-0.66539768 5:-0.054270232 6:-0.75816198 
1.247423657043925 1:0.43959529 2:-0.47549553 3:0.2967612 4:0.66289174 5:0.41899371 6:0.75339064 
8 1:1.2844075 2:0.62653148 3:0.61153919 4:-1.0232989 5:-1.2324187 6:-1.2121766 
8 1:1.1539375 2:1.1359994 3:0.22183427 4:-1.0744604 5:-1.1499655 6:-1.1270634 
8 1:-0.34068324 2:-0.34958341 3:-0.044669279 4:-0.70250884 5:-0.59033327 6:-0.63625135 
8 1:-0.77213701 2:-0.63287996 3:-0.73656504 4:0.40425901 5:0.39941794 6:0.30270012 
8 1:-0.32906161 2:0.11607073 3:0.27532318 4:-0.2714543 5:-0.48110044 6:-0.55036505 
8 1:-0.42891265 2:-0.78872898 3:-0.36631027 4:0.28971839 5:0.30169567 6:0.17537811 
8 1:0.44306444 2:0.45607241 3:-0.041506641 4:-0.569489 5:-0.74858383 6:-1.1139988 
8 1:-0.50737565 2:-0.78522408 3:-0.47233294 4:0.25321811 5:0.23161439 6:0.25229699 
8 1:0.055048136 2:0.65669784 3:1.2258834 4:-0.95969071 5:-0.8334644 6:-0.69206586 
0.3502324434173774 1:-0.71816692 2:1.516783 3:5.952506 4:0.23153175 5:0.57536501 6:1.1997521 
8 1:-0.25185051 2:0.3554924 3:0.60234136 4:-0.87355617 5:-0.77340592 6:-0.41971891 
8 1:0.65717101 2:-0.78884389 3:-0.73707474 4:-0.84766999 5:-0.92304314 6:-0.81382187 
8 1:-0.15687136 2:-0.22156346 3:-0.093828136 4:0.23611338 5:0.011347767 6:0.12288774 
8 1:-0.78101576 2:-0.61888887 3:-0.73707474 4:0.14585537 5:0.083464923 6:0.082920847 
8 1:1.2574839 2:0.8046276 3:0.40508332 4:-1.0844636 5:-0.95585214 6:-0.88540668 
8 1:-0.46766903 2:-0.55946495 3:-0.43133892 4:-0.4672424 5:-0.5559582 6:-0.65093938 
5.236830955720513 1:0.40332011 2:0.096443502 3:0.27355437 4:-0.44127986 5:-0.14752923 6:0.2424019 
5.392195743572306 1:0.41712127 2:0.73024268 3:0.33786841 4:-0.19952279 5:-1.0721322 6:-0.7769472 
8 1:0.059196026 2:0.18678986 3:0.20817903 4:-0.43761456 5:-0.54883262 6:-0.39142513 
8 1:-0.51288857 2:-0.083959007 3:0.49118914 4:-0.60117857 5:-0.43270912 6:-0.79078486 
8 1:-0.21838835 2:-0.077941007 3:0.1442895 4:-0.37950428 5:-0.53090121 6:-0.31489278 
8 1:-0.40904802 2:-0.78884389 3:-0.73707474 4:-0.93701167 5:-0.88890299 6:-0.83840499 
8 1:0.065380154 2:-0.38973904 3:-0.18311075 4:-0.90944556 5:-0.83824089 6:-0.29301535 
8 1:-0.78101576 2:-0.66762856 3:-0.73707474 4:-0.47274035 5:-0.57710004 6:-0.37248531 
1.154169017595386 1:0.15188253 2:0.11118302 3:0.20683473 4:0.079269087 5:-0.57529907 6:-0.55021044 
8 1:0.1634212 2:0.18060385 3:0.16452472 4:-0.12530046 5:-0.2075094 6:-0.014483966 
0.2435605940598861 1:2.1589336 2:1.5189213 3:0.72693657 4:0.37646382 5:1.8619633 6:1.5352575 
8 1:0.021261682 2:0.20412598 3:-0.11709864 4:-0.37034103 5:-0.34352189 6:-0.4568255 
8 1:-0.023988033 2:-0.57399827 3:-0.51218783 4:-0.52947614 5:-0.67537043 6:-0.55585373 
5.416450805053388 1:-0.10156867 2:-0.054984021 3:0.18709478 4:0.20495833 5:0.15370281 6:-0.16878556 
8 1:-0.78101576 2:-0.78884389 3:-0.5994257 4:-0.078033367 5:-0.27132643 6:-0.22977952 
1.537623553908964 1:-0.78101576 2:0.10430967 3:-0.73707474 4:0.75910586 5:-0.54898923 6:-1.0162074 
0.4829731039877533 1:0.61395753 2:1.6809033 3:0.070565363 4:0.5566744 5:0.26567624 6:0.15334607 
4.261107583233138 1:-0.0095081239 2:-0.24570419 3:-0.099785499 4:1.2835492 5:1.1733658 6:0.86757073 
8 1:-0.26331377 2:-0.2373798 3:-0.056329296 4:-0.81338416 5:-0.93580655 6:-0.81297151 
8 1:-0.77199221 2:-0.25701467 3:-0.70695822 4:0.17311604 5:0.27883116 6:0.20135273 
8 1:-0.63237799 2:-0.78614358 3:-0.59735973 4:0.29544542 5:0.31680817 6:0.4210547 
8 1:-0.017954737 2:0.27186665 3:0.22841425 4:0.10614795 5:0.11408144 6:0.048597246 
8 1:0.23732907 2:-0.20443355 3:-0.10906823 4:-0.055812487 5:-0.20891886 6:0.097918096 
8 1:-0.31401608 2:-0.44146482 3:-0.33079958 4:0.61440287 5:0.62148553 6:0.45986201 
0.6211223098143092 1:0.91486813 2:-0.78787712 3:1.2761884 4:0.47344155 5:0.34100382 6:0.24054657 
1.320268931849848 1:0.36998615 2:0.75307748 3:0.7529735 4:-0.27802129 5:-0.24728738 6:-0.19452826 
0.7534059574504117 1:-0.13655424 2:-0.2418933 3:-0.73707474 4:0.13997562 5:-0.13351297 6:-0.27446205 
0.0723075434570412 1:0.46267265 2:1.2075586 3:0.67167884 4:-0.62339945 5:0.24641368 6:-2.2966169 
8 1:-0.60833531 2:-0.43214761 3:-0.46871748 4:0.56469224 5:0.46574067 6:0.58672018 
8 1:0.54525338 2:0.30898274 3:0.17294427 4:-0.81223875 5:-0.82665203 6:-0.42064657 
8 1:0.61154421 2:1.0667313 3:1.6938406 4:-0.096283507 5:0.099203847 6:-0.063959426 
0.2462397936931946 1:0.15497459 2:0.57429402 3:2.3394574 4:3.2471572 5:3.5757833 6:3.263188 
0.2832045059260666 1:0.2058051 2:1.932697 3:2.8473898 4:0.62310796 5:0.62735827 6:1.404766 
8 1:0.26885304 2:0.30661525 3:0.1345964 4:0.30758673 5:0.35274929 6:0.34521809 
0.4829893051924719 1:1.7231035 2:-0.76810089 3:2.1917262 4:0.74169568 5:0.73298915 6:0.64075666 
7.762649924792403 1:0.10678364 2:-0.2579693 3:-0.15778842 4:0.48932451 5:0.92271757 6:1.1805803 
8 1:-0.47303112 2:-0.78709004 3:-0.73707474 4:0.54506762 5:0.34703316 6:0.43025404 
8 1:-0.0060389791 2:0.024884299 3:0.0041287395 4:-1.1615877 5:-1.1011827 6:-1.2069199 
8 1:-0.24702388 2:-0.094139201 3:-0.060595673 4:-0.061157716 5:-0.12294205 6:-0.15054148 
8 1:-0.13818323 2:-0.39866676 3:-0.24614418 4:-1.2357336 5:-0.9775421 6:-0.78375007 
8 1:0.95182206 2:0.2735468 3:-0.042928767 4:-1.0855327 5:-1.2769732 6:-1.1165498 
8 1:-0.345804 2:-0.19154983 3:-0.38759971 4:0.73436508 5:0.35094832 6:0.0029097508 
8 1:-0.78101576 2:-0.78884389 3:-0.63440575 4:-0.64714754 5:-0.70888416 6:-0.70033754 
0.102490498370505 1:2.0770316 2:-0.65049864 3:2.3133498 4:0.1658618 5:0.23576446 6:0.59530108 
8 1:0.16613619 2:0.15753994 3:-0.052975626 4:-0.58499016 5:-0.73715158 6:-0.9613979 
8 1:-0.60763394 2:-0.41847728 3:-0.064451686 4:0.39532484 5:0.44718283 6:0.35913307 
8 1:0.090267497 2:0.14539702 3:0.15440711 4:1.4051913 5:1.52064 6:1.874551 
8 1:-0.7731506 2:-0.59057831 3:-0.73707474 4:1.4456623 5:1.1906708 6:1.5323972 
8 1:-0.61434598 2:-0.30286755 3:-0.73707474 4:0.12218364 5:-0.11221453 6:0.070629287 
4.304213098719533 1:-0.77865433 2:-0.78884389 3:-0.2565448 4:0.81232907 5:0.82992839 6:0.82829958 
8 1:-0.50195323 2:-0.45679239 3:-0.25196004 4:0.30896121 5:0.084091348 6:0.73800687 
8 1:-0.29594636 2:-0.42825271 3:-0.31368454 4:-0.0951381 5:-0.39113018 6:-0.39544501 
2.418698352645023 1:0.20173263 2:-0.78884389 3:0.72276217 4:-0.37545718 5:-0.33161982 6:0.26829921 
4.296707865602982 1:0.65068521 2:0.047184499 3:-0.30110474 4:0.70023198 5:0.6785685 6:0.73537848 
8 1:-0.043920532 2:-0.30550233 3:-0.33549755 4:0.11256223 5:0.003674063 6:0.042258203 
8 1:-0.5766228 2:-0.46197795 3:-0.29373233 4:-0.42150251 5:-0.46191618 6:-0.43023244 
8 1:-0.30069004 2:-0.44517643 3:-0.3761944 4:-0.81811851 5:-1.2605295 6:-1.1609232 
8 1:-0.33940117 2:-0.66821661 3:-0.36123024 4:-0.73351117 5:-0.69831324 6:-0.78390468 
8 1:0.13091682 2:-0.20434954 3:-0.07392545 4:0.19472603 5:-0.14533674 6:-0.018658458 
8 1:-0.43092626 2:-0.32067716 3:-0.29616622 4:0.043303331 5:0.21430941 6:0.21008824 
8 1:0.26455431 2:0.17281405 3:0.1414594 4:0.20839455 5:0.058251325 6:0.25221969 
8 1:-0.21590716 2:-0.78683985 3:-0.38184045 4:1.0679074 5:0.99334696 6:0.85319192 
2.538726277550926 1:-0.041922003 2:0.24712259 3:1.2009785 4:0.19655868 5:0.46393969 6:0.23474867 
8 1:0.11553192 2:0.23734716 3:0.27065351 4:0.4137277 5:0.30365325 6:0.33138043 
0.3125644833265499 1:-0.39985479 2:1.1741083 3:1.0775861 4:-0.54803172 5:-0.19513751 6:-0.29286074 
3.10650668152535 1:3.6406355 2:2.2363463 3:0.28996895 4:-0.96480686 5:-1.0210786 6:-1.0177535 
8 1:-0.26255207 2:-0.25457081 3:-0.33108966 4:-0.19272671 5:-0.067268547 6:0.073876114 
8 1:-0.41809042 2:-0.78884389 3:-0.38452197 4:0.16464003 5:0.13553649 6:0.27448365 
8 1:-0.64413537 2:-0.5107329 3:-0.59726775 4:-0.15217933 5:-0.1368017 6:-0.18834383 
8 1:-0.78101576 2:-0.57850413 3:-0.73707474 4:-0.40981937 5:-0.36936191 6:-0.32393751 
8 1:0.84209151 2:0.79844158 3:0.50321707 4:-0.80788621 5:-0.8462278 6:-0.8084105 
8 1:-0.025496356 2:0.054592442 3:0.13813403 4:-0.06558662 5:-0.52761248 6:0.085317315 
0.7589423162568921 1:-0.58459429 2:-0.72519973 3:1.3989441 4:-0.038784114 5:0.23090966 6:0.57953078 
8 1:0.46033475 2:-0.67269193 3:0.063843873 4:-1.283917 5:-1.3797068 6:-1.3050977 
8 1:1.5463279 2:1.261629 3:1.1905779 4:-0.84560825 5:-1.0972675 6:-1.1584494 
8 1:-0.042970288 2:0.92903522 3:0.98419276 4:-0.63347902 5:-0.79885443 6:-0.63501447 
2.187284610120027 1:1.1735457 2:1.621487 3:1.1943985 4:0.93878191 5:1.026156 6:0.36524019 
7.023216339120664 1:1.3781498 2:1.5243436 3:1.6748082 4:-0.27343967 5:0.12801939 6:-0.082899251 
8 1:-0.69651946 2:-0.78884389 3:-0.73707474 4:0.12103823 5:0.018864865 6:0.067923598 
3.337884937296359 1:0.5463092 2:0.643333 3:0.72071034 4:-0.077498845 5:0.67003346 6:0.64647726 
0.1673973829641454 1:1.2451156 2:1.3415889 3:2.8795115 4:0.60294881 5:0.16693603 6:-0.50869743 
8 1:-0.32439335 2:-0.29321431 3:-0.12965722 4:-0.11888619 5:-0.328566 6:-0.47089509 
8 1:-0.52579229 2:-0.78821452 3:-0.52182433 4:0.099580957 5:0.13052509 6:0.22717274 
8 1:-0.78101576 2:-0.78884389 3:-0.43868303 4:-0.50610985 5:-0.3740601 6:-0.46749365 
8 1:-0.65065133 2:-0.62036283 3:-0.57345952 4:1.0524062 5:1.0839437 6:1.2677035 
8 1:0.65800058 2:0.037103586 3:0.16707181 4:-0.29871497 5:-0.41477771 6:-0.50730594 
8 1:-0.54027974 2:-0.62103489 3:-0.59655315 4:-1.1928191 5:-1.2457302 6:-1.2098575 
6.915237416858273 1:0.31184027 2:0.78996445 3:0.3025629 4:0.29506362 5:0.49064105 6:0.53786317 
8 1:-0.47969037 2:-0.19164148 3:-0.47684695 4:0.45786402 5:0.31422416 6:-0.29023235 
0.796069125607009 1:1.594368 2:-0.0065803672 3:1.7647346 4:-0.1904359 5:0.1536245 6:1.2956881 
8 1:-0.16758046 2:-0.1580308 3:0.19777841 4:-0.081622307 5:0.092313174 6:0.26196017 
8 1:-0.11756444 2:-0.17282378 3:0.040990807 4:-0.33498616 5:-0.39958691 6:-0.37372219 
8 1:0.94714626 2:0.79286653 3:0.62469916 4:-0.17042947 5:-0.26866412 6:-0.11946471 
8 1:-0.40757741 2:-0.30120267 3:-0.36144957 4:0.056819125 5:-0.11010034 6:-0.17156855 
8 1:-0.14831917 2:-0.06388119 3:-0.10462497 4:-0.06749563 5:0.25400908 6:-0.24214839 
8 1:1.0431511 2:1.4465984 3:0.9586511 4:-0.39935799 5:0.087771594 6:0.064058328 
8 1:-0.68167001 2:-0.66856792 3:-0.46942501 4:0.42060014 5:0.49056275 6:0.030043949 
8 1:-0.63513822 2:-0.78884389 3:-0.73707474 4:-0.36171231 5:-0.28424644 6:-0.40348477 
0.1866582936693721 1:-0.11923868 2:-0.22026516 3:-0.33748569 4:4.6974706 5:4.0231289 6:5.69367 
7.363943616304763 1:-0.15952601 2:-0.52743514 3:-0.28679151 4:0.84890571 5:0.81121395 6:0.11283804 
8 1:-0.50206635 2:-0.74305898 3:-0.012073589 4:-1.2229051 5:-1.326539 6:-1.2311938 
8 1:-0.78101576 2:-0.5560741 3:-0.73707474 4:-0.31497973 5:-0.25887624 6:-0.21501419 
8 1:-0.16011426 2:-0.033684275 3:-0.23556668 4:-0.22678346 5:-0.0098723736 6:0.098227318 
0.3223486502585626 1:3.2221511 2:5.2781852 3:4.6374995 4:-0.15966265 5:-0.047379559 6:0.62313103 
8 1:0.099619105 2:-0.46533061 3:-0.63571467 4:-0.21456579 5:-0.029291543 6:-0.089083684 
8 1:-0.27338184 2:-0.17834537 3:-0.73707474 4:-0.71594827 5:-0.36513355 6:-0.54085648 
0.4455366610231511 1:-0.28151924 2:2.9837084 3:1.0983166 4:-0.72595149 5:-0.31423653 6:-0.061331042 
0.742027138910163 1:-0.24090008 2:-0.78884389 3:-0.22147985 4:-0.12384962 5:-0.28964936 6:-0.36429093 
1.60738043796944 1:-0.30358602 2:-0.78884389 3:-0.30851253 4:0.8811298 5:0.41437383 6:0.76900633 
8 1:-0.22039442 2:-0.48168918 3:-0.39016802 4:0.41754572 5:0.17766355 6:0.49882394 
0.107876090594539 1:-0.44266856 2:0.52396583 3:0.27178555 4:0.61302838 5:0.92827709 6:1.1633412 
8 1:-0.56807814 2:-0.74786422 3:-0.56595976 4:1.4158054 5:1.3686537 6:1.6748711 
8 1:-0.38489976 2:-0.63809607 3:-0.38932607 4:-1.2269522 5:-1.232497 6:-1.2209895 
8 1:-0.49408732 2:-0.78884389 3:-0.42708669 4:0.26871928 5:0.15722645 6:0.25747646 
8 1:-0.78101576 2:-0.78884389 3:-0.23429313 4:0.96230092 5:0.7847475 6:0.90027092 
0.1640414554724703 1:0.50792236 2:-0.40015599 3:0.98497104 4:0.43625402 5:0.59486248 6:-0.083595 
8 1:-0.47064797 2:-0.71213731 3:-0.62056656 4:-1.1644893 5:-1.2335932 6:-1.1644792 
8 1:-0.78101576 2:-0.50305003 3:-0.73707474 4:0.51513433 5:0.62485257 6:0.82412509 
8 1:0.26840054 2:0.48219114 3:0.68519257 4:-1.2164908 5:-1.1011044 6:-0.8685541 
8 1:0.023297919 2:-0.083248761 3:0.48545819 4:0.23947324 5:0.36026639 6:-0.20473257 
1.214303784944042 1:0.79103475 2:-0.50938878 3:0.14747336 4:-0.46441707 5:-0.46794552 6:-0.38230309 
8 1:-0.78101576 2:-0.55023939 3:-0.73707474 4:-0.13713633 5:-0.15246232 6:-0.16677562 
1.684160632375516 1:1.3344084 2:0.77881435 3:-0.023252489 4:-0.52191646 5:-0.70152367 6:0.11160115 
8 1:-0.28834441 2:-0.20279158 3:-0.73707474 4:-0.10895934 5:-0.02670754 6:-0.13608537 
8 1:0.026012902 2:0.12050022 3:-0.097761976 4:-0.34086591 5:-0.50326022 6:-0.38647758 
8 1:-0.56766335 2:-0.58152077 3:-0.5910203 4:0.97428951 5:0.91167683 6:1.194418 
0.9807885928409776 1:3.1315762 2:2.9012283 3:1.5163225 4:-0.12904212 5:0.047288891 6:-0.21926599 
8 1:-0.01493809 2:0.1954961 3:0.26145568 4:0.77025448 5:0.81262341 6:0.79127029 
3.490050201658992 1:0.25105482 2:0.49593784 3:0.18242511 4:0.63372206 5:0.100535 6:0.27726664 
8 1:-0.78101576 2:-0.48837161 3:-0.73707474 4:0.093624845 5:0.20475643 6:-0.10570435 
8 1:-0.45009705 2:-0.50233214 3:-0.28595663 4:-0.65669259 5:-0.42190329 6:-0.42165154 
5.749249039712473 1:-0.41246437 2:-0.29329832 3:-0.36962857 4:1.4754429 5:1.9181849 6:1.5787805 
7.058781425478711 1:0.10421949 2:-0.14752221 3:-0.27336268 4:0.22588108 5:-0.041820039 6:-0.35756536 
8 1:-0.39054089 2:-0.38996816 3:-0.61608085 4:0.3689805 5:0.45274235 6:0.50446723 
8 1:-0.25479929 2:-0.29967526 3:-0.28198033 4:0.34721778 5:0.10437185 6:0.090187555 
8 1:0.27413217 2:0.39268486 3:0.26272923 4:-0.44303615 5:-0.28557759 6:-0.78606923 
8 1:-0.78101576 2:-0.78884389 3:-0.58131305 4:-0.74641608 5:-0.70175858 6:-0.64962519 
8 1:-0.16482023 2:-0.31024494 3:-0.40581848 4:0.080414493 5:0.038675549 6:-0.054373556 
0.43830308135198 1:1.3105769 2:0.91269192 3:0.4914014 4:0.37516569 5:0.43567227 6:0.61609624 
8 1:0.63115242 2:0.53671971 3:-0.061904595 4:-0.33208447 5:-0.66323345 6:-0.72584832 
3.04329216614499 1:-0.028859919 2:0.039547444 3:0.20011324 4:0.60378877 5:0.24171549 6:0.49271681 
8 1:0.22948579 2:1.0532137 3:0.16537375 4:-0.71373382 5:-0.54757977 6:-0.41059687 
8 1:0.129861 2:-0.4164 3:-0.39775977 4:0.045135981 5:-0.20727449 6:0.28607946 
8 1:-0.78101576 2:-0.49183119 3:-0.73532645 4:0.41876749 5:0.22190481 6:0.37258421 
3.064176247074584 1:-0.30129337 2:-0.78713296 3:-0.35126828 4:0.50681105 5:0.62751487 6:0.6541305 
3.721507011039242 1:-0.28045587 2:-0.78818274 3:-0.73647524 4:1.3410486 5:1.197953 6:1.2831646 
0.7777233374459543 1:0.61870875 2:1.2978286 3:0.98440502 4:-0.0287809 5:-0.25566581 6:0.33516839 
8 1:-0.13180302 2:-0.50835014 3:-0.34594062 4:0.1967114 5:0.20037145 6:-0.041772774 
0.7313258353895947 1:5.6661636 2:5.2041821 3:2.0677677 4:0.46259837 5:-0.16522573 6:0.12528421 
8 1:-0.4610324 2:-0.37738993 3:-0.5175438 4:0.16326554 5:0.1862769 6:0.2466537 
8 1:-0.099600306 2:0.081780357 3:-0.11160117 4:-0.31230712 5:-0.62752724 6:-0.51990672 
8 1:-0.010488534 2:0.22657892 3:0.18865133 4:-1.2768919 5:-1.4265321 6:-1.2691507 
8 1:-0.16735421 2:-0.087548422 3:-0.41001411 4:-1.0216954 5:-0.84098149 6:-1.1797084 
4.189738595178512 1:0.75362831 2:1.0150285 3:0.60984113 4:1.1150218 5:1.3165822 6:-0.53583163 
8 1:1.1446613 2:-0.16351421 3:0.27419114 4:-0.99061668 5:-1.1277275 6:-0.91609693 
8 1:0.31033194 2:-0.18948783 3:-0.068718063 4:-0.55490416 5:-0.56237906 6:-0.48929378 
8 1:-0.42356564 2:-0.61022845 3:-0.57628962 4:0.44243922 5:0.66557018 6:0.47292663 
0.4833914767320133 1:5.3136683 2:5.1591999 3:4.5426204 4:0.80751836 5:-0.67607516 6:-0.59473835 
8 1:0.67896629 2:0.037332698 3:-0.28551088 4:0.40456445 5:0.22887378 6:0.19107111 
8 1:1.6955765 2:1.0303789 3:0.80441058 4:-0.6321809 5:-0.6796771 6:-0.54858702 
8 1:-0.2994683 2:-0.38339265 3:-0.42870693 4:-0.10101785 5:-0.18542793 6:-0.17466077 
0.06029965646513516 1:0.85332852 2:2.2995047 3:0.15596366 4:0.86753765 5:1.7169459 6:1.1082225 
8 1:-0.46176394 2:-0.26772946 3:-0.42810553 4:0.36806417 5:0.4084228 6:0.77735532 
8 1:-0.78030323 2:-0.36426947 3:-0.42402311 4:-0.087272978 5:-0.40287564 6:-0.27670391 
8 1:-0.057683987 2:-0.082530877 3:0.083937591 4:-0.24785893 5:-0.058733509 6:-0.23743276 
8 1:-0.20145741 2:-0.30690755 3:-0.18673328 4:-0.21846017 5:-0.46958988 6:-2.2966169 
8 1:-0.18200004 2:-0.077352954 3:-0.32678083 4:0.3795946 5:0.19567327 6:0.51583113 
8 1:-0.38510338 2:-0.42614488 3:-0.3754515 4:-0.54276285 5:-0.63230373 6:-0.69724532 
0.1619932948172167 1:1.8550064 2:2.63943 3:2.4625668 4:-1.0203972 5:-1.3736775 6:0.44664279 
8 1:1.0751275 2:0.70595685 3:0.3444484 4:-0.13782357 5:-0.44876126 6:-0.54572672 
1.844174130862215 1:0.018772948 2:0.48738434 3:0.93516126 4:0.4870337 5:0.19990164 6:0.22199327 
0.4322412362899082 1:0.48959623 2:-0.7814096 3:2.5653703 4:0.62455881 5:0.71082937 6:0.48328555 
8 1:-0.24999527 2:-0.25835115 3:-0.32954018 4:0.28047878 5:0.34053401 6:0.5212425 
0.7560286947352778 1:0.67172633 2:2.7188554 3:3.0803072 4:0.49329525 5:0.67253916 6:-0.30986793 
8 1:0.17171698 2:0.73933078 3:0.32124157 4:-0.31856867 5:-0.45909727 6:-0.40456705 
0.3545564881666305 1:-0.78101576 2:7.3371352 3:3.6261629 4:0.44572272 5:-1.2596682 6:-1.3817074 
0.06350543578227262 1:0.75257249 2:-0.46466619 3:0.42829015 4:3.0516746 5:3.5011604 6:2.4285988 
0.3501408290770036 1:5.8174485 2:3.0048631 3:1.6080886 4:1.3945009 5:1.4075704 6:1.6406248 
2.999041817924014 1:0.33974426 2:0.12554068 3:-0.065505899 4:0.54193684 5:1.4812536 6:-0.16167346 
8 1:0.12269646 2:0.040693002 3:-0.032160232 4:-0.17699646 5:-0.024828266 6:-0.42945939 
8 1:0.28469044 2:-8.8870648e-05 3:-0.035973793 4:-0.78146551 5:-0.86439412 6:-0.5424799 
6.738326733701592 1:-0.24418069 2:0.063909649 3:0.50024547 4:-2.273548 5:-0.019660261 6:-0.064809786 
5.379047250483658 1:-0.78101576 2:-0.36525465 3:-0.73152959 4:1.9956101 5:2.0045532 6:2.0225908 
8 1:0.044489869 2:-0.44734535 3:0.07466901 4:-0.9826752 5:-0.89986543 6:-0.83925535 
8 1:-0.78101576 2:-0.50389774 3:-0.73707474 4:-0.61125814 5:-0.52017369 6:-0.52763726 
7.73769508158042 1:0.83688779 2:0.71565591 3:1.1237167 4:0.97841297 5:0.64630762 6:0.17615117 
8 1:0.32895974 2:0.66624416 3:-0.30563998 4:-0.55238426 5:-0.85711193 6:-0.81505876 
7.684605396814383 1:0.26576097 2:0.46157109 3:0.60969963 4:-0.33032818 5:-0.52847382 6:-0.4310055 
8 1:-0.44453134 2:-0.071220399 3:-0.32836569 4:0.60058164 5:0.53057563 6:0.46287692 
3.067747527726835 1:0.15655833 2:-0.0018453933 3:-0.099714746 4:0.75589872 5:0.35376723 6:0.82412509 
0.2846517874414838 1:3.003067 2:4.0522852 3:1.8385295 4:0.77957045 5:1.2716362 6:0.67484835 
8 1:0.1773732 2:0.27140843 3:0.14662433 4:0.41204777 5:0.11799659 6:0.10742666 
8 1:1.5127677 2:1.5487058 3:1.1338344 4:0.17639953 5:-0.3135318 6:-0.59095039 
8 1:-0.61608055 2:-0.78832154 3:-0.57694055 4:0.5192578 5:0.47709462 6:0.49086148 
8 1:-0.40794694 2:-0.61510853 3:-0.52454123 4:1.6632132 5:1.8756663 6:1.1438603 
8 1:-0.56834964 2:-0.39123591 3:-0.61267765 4:0.51459981 5:0.41460874 6:0.51297083 
8 1:0.031895365 2:-0.22460301 3:-0.49884391 4:-0.56757999 5:-1.032276 6:-0.94253538 
8 1:-0.41773597 2:-0.78884389 3:-0.73707474 4:-0.86080398 5:-1.0208437 6:-0.92545088 
8 1:-0.52276055 2:-0.44044909 3:-0.40639865 4:2.2838706 5:2.0740081 6:1.4507627 
0.4818867256905887 1:-0.38916077 2:-0.40341701 3:-0.17270305 4:3.9489095 5:2.7680085 6:4.6823606 
4.403574606751454 1:0.24766109 2:0.26331315 3:2.0217078 4:-0.24121557 5:0.17836828 6:0.17816111 
5.553489370155632 1:0.39743764 2:1.1572304 3:2.4373082 4:0.2069437 5:0.39495466 6:0.072716533 
8 1:-0.43122038 2:-0.78679625 3:-0.42014587 4:-0.037256906 5:0.26254412 6:0.14221409 
8 1:0.39238476 2:0.41376313 3:0.10650765 4:0.19800953 5:-0.58273786 6:-0.048652956 
0.8974604842810805 1:-0.25910555 2:-0.34855241 3:-0.51630563 4:1.4365755 5:0.20131109 6:-0.20504179 
8 1:0.14124884 2:-0.78764602 3:-0.048928581 4:-0.66203782 5:-0.46771061 6:-0.7726954 
8 1:0.3297139 2:-0.071082932 3:0.41668673 4:-0.52115285 5:-0.54460425 6:-0.43935448 
8 1:-0.47852896 2:-0.39564249 3:-0.28103933 4:0.0079484594 5:-0.43560634 6:-0.48682 
8 1:-0.25930917 2:0.069026475 3:-0.094019168 4:-0.44670145 5:-0.57060088 6:-0.16252382 
8 1:-0.24844924 2:-0.24530706 3:-0.46630482 4:0.39295767 5:0.22793415 6:0.051380241 
5.738235707281775 1:-0.51812246 2:-0.50401993 3:-0.41497386 4:2.0346302 5:2.1325788 6:2.4830218 
8 1:1.1265614 2:1.0341211 3:0.60545448 4:-0.37988609 5:-0.49402045 6:-0.41113801 
8 1:2.5599215 2:2.6673816 3:2.355023 4:-0.97855174 5:-0.77379743 6:-0.92452322 
8 1:-0.22915778 2:-0.1994771 3:-0.090156079 4:-0.64287135 5:-0.65587296 6:-0.330895 
3.009892049876634 1:0.039814065 2:0.05016295 3:0.066390964 4:0.30308146 5:0.13663273 6:0.30625617 
3.149393621396852 1:1.271813 2:1.0191525 3:0.26732814 4:0.79843147 5:0.50371767 6:-0.28551672 
3.678422282671046 1:1.194436 2:1.6539445 3:1.634833 4:0.3803582 5:0.936264 6:0.50160693 
8 1:-0.78101576 2:-0.44296168 3:-0.41919779 4:-0.98007894 5:-0.034851063 6:-0.82108858 
0.229484918911776 1:0.19117436 2:0.53206111 3:0.91910043 4:0.9988012 5:3.0631328 6:3.7730945 
8 1:0.1662116 2:0.35411773 3:-0.35438847 4:-1.1280654 5:-1.0653982 6:-1.0753461 
8 1:0.58416813 2:0.50991365 3:0.48800528 4:-0.87386161 5:-0.74200637 6:-0.8913592 
8 1:-0.2361564 2:-0.78884389 3:-0.73707474 4:0.90159439 5:0.98027035 6:0.78624544 
8 1:0.23921447 2:0.38122928 3:1.087633 4:0.012530084 5:0.40059248 6:-0.15610747 
6.98870751073401 1:-0.65848707 2:-0.40774722 3:-0.18117213 4:1.2107777 5:1.3753095 6:1.644722 
8 1:0.50143657 2:0.43858356 3:0.40727664 4:-0.36537761 5:-0.20148006 6:-0.77656067 
8 1:-0.78101576 2:-0.43436236 3:-0.73707474 4:-1.1397486 5:-1.1613978 6:-1.0322096 
8 1:0.72949513 2:1.2703352 3:1.3338518 4:-0.55223154 5:-0.59855509 6:-0.4324743 
0.1162267236066083 1:0.80770172 2:2.2248907 3:2.9840837 4:-1.3463799 5:-0.27359722 6:0.92956966 
8 1:-0.78101576 2:-0.52202047 3:-0.55867225 4:0.88777316 5:0.6106014 6:1.120514 
0.2512950490615132 1:-0.68713768 2:-0.76677968 3:-0.66933415 4:6.6163315 5:6.1752113 6:6.2379 
8 1:-0.42955368 2:-0.32341122 3:-0.17142951 4:-0.49160137 5:-0.19435448 6:0.829923 
8 1:0.53469511 2:-0.30098883 3:-0.22567547 4:-0.26839988 5:-0.432161 6:-0.40603585 
0.3547487941628782 1:8.2613856 2:7.8979241 3:4.609057 4:-0.79391225 5:-0.93228291 6:-1.1964063 
0.3676763342140677 1:0.74925418 2:0.59941993 3:1.3753127 4:1.8667137 5:1.5603397 6:1.3834297 
0.2860660213221051 1:2.0137575 2:1.9772974 3:1.7448532 4:2.6567385 5:2.2097856 6:1.0595201 
8 1:-0.78075079 2:-0.12761241 3:-0.73165779 4:-0.73908548 5:-0.65360217 6:-0.6869637 
3.562716883585363 1:0.096602457 2:0.14371687 3:0.16346343 4:0.96191912 5:0.78545223 6:0.64323044 
8 1:-0.21565828 2:-0.76736009 3:-0.55540348 4:-0.541312 5:-0.60810807 6:-0.60780296 
8 1:-0.062397499 2:-0.13344712 3:-0.12457718 4:-0.31123807 5:-0.72211739 6:-0.91795226 
8 1:-0.27728085 2:-0.22530562 3:0.054929055 4:-0.95831623 5:-0.93345746 6:-0.85239727 
2.484495837661635 1:0.33823593 2:0.023509629 3:-0.27098539 4:0.86769037 5:0.94730474 6:0.98569339 
2.099541178135533 1:1.5994209 2:1.4799724 3:1.3512569 4:1.1057821 5:0.5448268 6:-0.75955348 
8 1:0.083178375 2:0.18388778 3:0.37756058 4:-0.57788864 5:-0.62228093 6:-0.62712932 
8 1:-0.084569859 2:-0.18265267 3:-0.21409328 4:-1.152348 5:-1.1122234 6:-1.0385487 
8 1:0.023901249 2:0.56192199 3:1.1829366 4:-0.22235455 5:-0.033911426 6:-0.28165145 
8 1:-0.46541408 2:-0.49277055 3:-0.46868918 4:-0.63485351 5:-0.7173409 6:-0.64367267 
0.1295328153206909 1:0.60581258 2:-0.16742438 3:-0.41588657 4:1.139228 5:0.35682105 6:0.92029302 
1.476235010319223 1:1.1028053 2:0.14570251 3:1.0781521 4:-1.404032 5:-1.5113343 6:-0.92831118 
0.5127850229238271 1:1.2814662 2:1.5257947 3:2.2785395 4:-1.2601689 5:0.31242319 6:-0.87674848 
0.2352035079593604 1:4.2495459 2:4.1761582 3:1.1562629 4:0.26642846 5:-0.34696723 6:-0.57873613 
8 1:1.3823731 2:0.72314022 3:0.24829571 4:-1.1459338 5:-1.2397792 6:-1.475015 
8 1:-0.079750764 2:-0.27445006 3:-0.072177862 4:0.01352277 5:-0.06961764 6:0.33215348 
8 1:-0.24236316 2:-0.4116803 3:-0.20505819 4:0.51330168 5:0.57685277 6:0.42406961 
8 1:-0.4416429 2:-0.39930827 3:-0.44413805 4:-1.2229051 5:-1.187551 6:-0.59010003 
8 1:-0.29236409 2:0.029084679 3:0.14931293 4:-1.0639227 5:-1.1828528 6:-1.1060363 
8 1:-0.20959482 2:-1.2500099e-05 3:0.27532318 4:-0.2417501 5:-0.36951852 6:-0.59512488 
0.2805922784711473 1:3.0415293 2:3.8292832 3:0.57856852 4:0.28704577 5:1.6171878 6:1.3115357 
4.397771297951642 1:0.14343591 2:0.64684604 3:-0.2258099 4:-0.60889097 5:-1.1749442 6:-1.1886758 
8 1:-0.38071416 2:-0.72001264 3:-0.42197836 4:-0.12026068 5:-0.41642208 6:-0.19476017 
8 1:-0.43962175 2:-0.2281466 3:0.14273294 4:-0.42234248 5:-0.55572329 6:-0.39737765 
2.332040605947803 1:1.1338768 2:1.2997379 3:1.4072929 4:-0.64676574 5:-1.2987414 6:0.31993922 
6.075780786991226 1:0.033554521 2:0.084911549 3:0.0022184212 4:1.69475 5:1.3791463 6:1.1939542 
0.4368505725876112 1:2.9875313 2:3.5412898 3:2.4427561 4:-0.083149515 5:-0.43294403 6:-0.72801287 
3.34722924310121 1:0.86984466 2:0.91162273 3:1.4239905 4:-0.20448621 5:0.88998687 6:-0.7798848 
0.4844191182283004 1:1.3351626 2:2.1685292 3:1.7062223 4:0.54224228 5:0.7089501 6:-0.057079245 
8 1:-0.78101576 2:-0.78884389 3:-0.38859024 4:-1.005507 5:-1.077222 6:-1.0651418 
8 1:-0.39635548 2:-0.19562802 3:0.2480127 4:-1.4458775 5:-1.4659185 6:-1.4893165 
8 1:-0.78101576 2:-0.66384822 3:-0.73707474 4:-0.40966665 5:-0.4017794 6:-0.37519099 
8 1:-0.49107067 2:-0.38748611 3:-0.55329505 4:1.545389 5:1.6387211 6:1.0545725 
8 1:0.034610348 2:0.18709534 3:-0.08247943 4:-0.39813623 5:-0.5254983 6:-0.70814538 
0.113384238447326 1:1.7058331 2:2.8454014 3:0.25579548 4:0.99643403 5:1.1593495 6:1.1475709 
7.697809919220244 1:-0.097654568 2:0.16235129 3:-0.16129775 4:0.79812603 5:0.64693404 6:0.73437351 
8 1:-0.10078434 2:-0.42932954 3:-0.40863443 4:-0.004651009 5:-0.053487201 6:0.048906468 
8 1:-0.10826563 2:-0.44552009 3:-0.38271071 4:-0.83224518 5:-0.93658958 6:-0.72321994 
8 1:-0.2684647 2:-0.28889174 3:-0.38301494 4:-0.78261091 5:-0.85100429 6:-0.88934926 
3.912930924858028 1:1.2378003 2:-0.017348615 3:-0.37974618 4:-0.11399912 5:0.076887463 6:0.04736036 
8 1:-0.53577739 2:-0.77893634 3:-0.39015387 4:0.32446238 5:0.36504288 6:0.9614968 
8 1:0.12345062 2:-0.060505611 3:0.49069388 4:-0.58239391 5:-0.64295295 6:-0.89870321 
0.03681525384561674 1:0.073826767 2:1.0577196 3:2.1874103 4:-2.273548 5:-0.35769475 6:-0.35246321 
3.319039501379661 1:0.20384428 2:-0.78884389 3:-0.068236946 4:-0.3007767 5:-0.27132643 6:0.16973482 
8 1:0.42669913 2:0.15753994 3:-0.30713286 4:-0.3964563 5:-0.27712086 6:-0.14389322 
8 1:-0.25980692 2:-0.42468621 3:-0.32100035 4:0.73184519 5:0.87777159 6:0.92454481 
8 1:-0.39195871 2:-0.16672941 3:-0.29167343 4:0.1193583 5:-0.10454082 6:-0.16986783 
2.659949268143333 1:0.37443571 2:1.1807525 3:0.91987871 4:0.39700477 5:-0.16976731 6:-0.82866451 
0.2673487155044436 1:-0.77816171 2:0.68884984 3:-0.73707474 4:2.6306233 5:4.239402 6:3.2739334 
4.142894314485011 1:0.15044962 2:0.52304938 3:0.2058442 4:0.25673069 5:0.81873105 6:0.76970208 
1.484414308744173 1:1.2703046 2:2.5375517 3:3.1006839 4:-0.2457972 5:-0.1948243 6:-0.83430781 
8 1:-0.3822979 2:-0.32469425 3:-0.16751689 4:0.29269645 5:0.1232429 6:0.17352278 
8 1:-0.37922846 2:-0.78460441 3:-0.31117283 4:-0.070702768 5:-0.00016278902 6:-0.1450528 
8 1:-0.46180165 2:-0.50559317 3:-0.60096811 4:0.024900471 5:-0.20367255 6:0.046278084 
8 1:-0.30808837 2:-0.52036323 3:-0.65061516 4:0.95634481 5:0.62179875 6:0.72185004 
8 1:-0.39555606 2:-0.35725101 3:-0.44293526 4:-0.69372739 5:-0.6796771 6:-0.62782507 
0.01898039624591687 1:-0.61498701 2:-0.48224669 3:-0.59711917 4:4.47404 5:5.0469419 6:5.1333604 
4.521610362670591 1:1.7283072 2:1.3102006 3:2.5587195 4:-0.2864973 5:-0.29372112 6:-0.035974869 
8 1:-0.10504535 2:-0.5035388 3:-0.56738188 4:-1.0713296 5:-0.19960079 6:-0.4353346 
8 1:-0.59828987 2:-0.78884389 3:-0.51573961 4:-0.70098163 5:-0.60113909 6:-0.56837721 
4.122704993372475 1:2.0636076 2:1.3094369 3:1.445853 4:0.67709477 5:0.72061726 6:0.43999452 
8 1:-0.78101576 2:-0.78884389 3:-0.61719166 4:-0.42280064 5:-0.32723484 6:-0.46146383 
8 1:-0.78101576 2:-0.60246921 3:-0.4287423 4:0.41517855 5:0.44780926 6:0.37026504 
8 1:-0.61686488 2:-0.58467487 3:-0.36834087 4:-1.2580309 5:-1.2765033 6:-1.2457272 
4.869397168088481 1:0.050975661 2:0.0054098088 3:0.75481306 4:0.33332019 5:0.10961816 6:0.4411541 
8 1:-0.7699062 2:-0.45674656 3:-0.73707474 4:1.4882715 5:1.485482 6:1.5957877 
8 1:-0.41137084 2:-0.78722308 3:-0.73707474 4:0.59057842 5:0.67065988 6:0.5884209 
7.394487296928289 1:0.38808604 2:0.059174675 3:0.53852258 4:-0.52413091 5:-1.2231006 6:-0.91308202 
8 1:-0.78101576 2:-0.78884389 3:-0.53817524 4:-0.065357539 5:-0.21573123 6:-0.040922415 
0.1542534317045797 1:0.3725503 2:1.7363483 3:1.886712 4:2.5982464 5:2.5578429 6:2.0218951 
8 1:-0.34324739 2:-0.78884389 3:-0.73707474 4:0.090799509 5:0.267164 6:0.16757027 
8 1:0.038758238 2:0.19465603 3:0.20775452 4:-0.048710968 5:-0.14909529 6:-0.1794537 
3.362273973062937 1:0.24645443 2:1.8237162 3:2.3780176 4:-0.77016417 5:-0.4473518 6:-0.34079009 
8 1:-0.040587136 2:0.076969012 3:0.41421039 4:-0.18684696 5:-0.22888615 6:-0.23998384 
0.006094333601206259 1:-0.78061907 2:-0.39506207 3:-0.73707474 4:3.8346743 5:3.5768795 6:2.858958 
0.01048920898525285 1:0.89782407 2:0.77239922 3:-0.042072661 4:1.5542469 5:2.9959488 6:3.0439499 
0.3709351886649476 1:-0.22264182 2:0.49280665 3:1.502738 4:0.89915086 5:0.17069458 6:-0.44028215 
0.2110793700399757 1:3.9598723 2:1.5329735 3:-0.065258265 4:0.79911871 5:0.45814526 6:0.20591375 
0.007073762199855923 1:-0.52799444 2:-0.39120536 3:-0.4336596 4:5.2958308 5:5.5879381 6:5.2933053 
8 1:-0.78030412 2:-0.28276682 3:-0.73505794 4:0.73184519 5:0.76227451 6:0.66162912 
8 1:0.7218781 2:1.1375268 3:1.0279886 4:-0.746187 5:-0.89649839 6:-0.84976889 
2.010578995472819 1:-0.16101171 2:-0.78884389 3:-0.73707474 4:1.8848874 5:2.340082 6:2.3312713 
8 1:0.66991634 2:1.5923898 3:1.4282356 4:-1.0396401 5:-0.88569256 6:-0.80740553 
8 1:-0.045338356 2:0.057570893 3:0.022665902 4:-1.3094214 5:-1.22913 6:-0.83964188 
1.908635296849145 1:0.73982715 2:0.79317201 3:-0.30128162 4:-0.29947857 5:0.4489838 6:0.72741603 
8 1:0.28898916 2:0.42705161 3:0.15292131 4:-0.62805743 5:-0.32590369 6:-0.35331356 
8 1:0.37058948 2:0.11141213 3:0.29400185 4:-0.70121071 5:-1.0481715 6:-0.87149171 
8 1:-0.54843977 2:-0.35422674 3:-0.30538527 4:-0.037715069 5:-0.05043338 6:-0.11776399 
8 1:-0.78101576 2:-0.5547147 3:-0.73707474 4:0.60921036 5:0.60692116 6:0.64585882 
4.710848330200142 1:0.55392624 2:0.33105383 3:0.18716553 4:-0.33689517 5:0.4211079 6:0.7814525 
1.182841292213975 1:1.7583982 2:2.8159987 3:2.1689438 4:0.091410393 5:-0.74459038 6:-0.44870844 
8 1:-0.12600351 2:-0.63643119 3:-0.73707474 4:-0.50160459 5:-0.60004285 6:-0.80145301 
8 1:0.76494074 2:0.025342522 3:-0.35210316 4:-0.86362931 5:-1.0520867 6:-0.94207154 
8 1:-0.77816435 2:-0.78884389 3:-0.4258273 4:1.5476035 5:1.6211812 6:1.5129936 
8 1:-0.19175889 2:-0.15380751 3:0.074527505 4:-1.6381835 5:-1.6491948 6:-1.6790472 
2.374839067024462 1:1.0807838 2:0.62485133 3:0.27843629 4:0.82553942 5:0.22652469 6:0.50191615 
8 1:0.48356293 2:1.4198687 3:1.2180299 4:-0.90875832 5:-0.78585611 6:-0.84621284 
6.035459984225064 1:0.76524241 2:0.53885809 3:0.76259584 4:0.15318597 5:0.69031396 6:0.56515198 
8 1:-0.18686438 2:-0.78808521 3:-0.1593096 4:-0.43066576 5:-0.30311749 6:-0.37302644 
8 1:-0.56542349 2:-0.7661985 3:-0.50891907 4:-0.40317601 5:-1.0656331 6:-0.11103842 
8 1:1.1614037 2:1.2882823 3:1.2255296 4:-0.58521924 5:-0.44155737 6:0.16447805 
0.2119605823807227 1:0.8532531 2:1.0066277 3:1.1597298 4:3.3465785 5:2.8371501 6:2.937423 
0.08691715444834092 1:-0.64439933 2:2.5037959 3:-0.68373229 4:0.2362661 5:0.59133884 6:0.54412491 
8 1:1.3420254 2:0.96172181 3:0.26067741 4:-0.71297021 5:-0.26490558 6:-0.28080109 
8 1:0.26342307 2:0.53809438 3:0.087616723 4:-0.47968915 5:-0.4927676 6:-0.27005564 
8 1:-0.78101576 2:-0.63669085 3:-0.73707474 4:-0.14943036 5:-0.090602871 6:-0.10949231 
0.3039969845643213 1:3.0777291 2:2.3903093 3:2.0964933 4:2.0085913 5:1.9812189 6:1.874319 
6.908551471529249 1:1.3081636 2:1.7075566 3:1.3192767 4:-0.75771742 5:-0.21839353 6:-0.41778627 
8 1:-0.36029145 2:-0.78884389 3:-0.53025095 4:-0.28176295 5:-0.33459534 6:-0.096195781 
0.1099419214987259 1:-0.75894974 2:1.5151792 3:-0.56559184 4:0.19159526 5:0.18870429 6:0.21851453 
8 1:1.7468596 2:2.1817413 3:2.0024631 4:-0.65684531 5:-0.79971576 6:-0.72685329 
1.3045903321279 1:2.7787793 2:2.3479236 3:1.3330735 4:-0.71976629 5:-0.46614455 6:-2.2966169 
2.545517147170519 1:1.07739 2:1.302029 3:2.0834748 4:0.87654818 5:0.76885197 6:0.27432903 
3.845577247072652 1:-0.027344053 2:-0.78884389 3:-0.16714191 4:-0.019999452 5:0.095680207 6:0.33771947 
8 1:-0.024893027 2:-0.012690011 3:0.15362883 4:-0.79849388 5:-0.95702669 6:-0.8227893 
8 1:-0.78101576 2:-0.56638412 3:-0.73707474 4:1.2796548 5:1.6946295 6:1.9205477 
8 1:-0.13653161 2:-0.24836189 3:-0.14566851 4:-1.0483452 5:-1.0281259 6:-1.155821 
6.221185147073882 1:-0.014183928 2:-0.017577726 3:-0.2137466 4:0.9181646 5:1.1001524 6:1.1801938 
8 1:-0.16663022 2:-0.44085385 3:-0.54837068 4:-0.050314537 5:-0.098198272 6:-0.068365834 
0.1934809171431749 1:2.5687452 2:2.7444395 3:2.3579946 4:0.31117567 5:1.1296727 6:0.0150467 
0.3569805853535016 1:2.474475 2:0.70748426 3:1.5335861 4:-2.273548 5:1.2698352 6:-2.2966169 
8 1:-0.38922865 2:-0.49354189 3:-0.27912901 4:-0.5658237 5:-0.54108061 6:-0.54039265 
4.773047615644908 1:0.56161869 2:0.4898282 3:0.40529557 4:0.16517455 5:0.13921673 6:-0.036593312 
0.0371275660472371 1:-0.42968189 2:-0.57990935 3:-0.60761884 4:5.0546083 5:5.3467645 6:5.3846803 
7.815137160060525 1:-0.4245913 2:-0.13220228 3:0.11301688 4:0.36600244 5:0.38132992 6:0.42561572 
8 1:-0.53911078 2:-0.78884389 3:-0.35636954 4:-0.12453686 5:-0.089741537 6:-0.22970222 
8 1:1.5970076 2:1.3361666 3:0.91591657 4:-0.41913534 5:-0.083398986 6:0.066145574 
8 1:0.16764451 2:0.069866551 3:0.10367755 4:-0.35399991 5:-0.71319083 6:-0.77671528 
8 1:-0.16546881 2:-0.2800633 3:-0.55716522 4:-0.16668781 5:-0.62353378 6:-0.36761507 
